digraph Tree {
node [shape=box] ;
0 [label="X[9] <= 19.9\nmse = 84.4196\nsamples = 506\nvalue = 22.5328"] ;
1 [label="X[1] <= 4.01\nmse = 71.0183\nsamples = 305\nvalue = 26.22"] ;
0 -> 1 [labeldistance=2.5, labelangle=45, headlabel="True"] ;
2 [label="X[8] <= 264.5\nmse = 73.6034\nsamples = 90\nvalue = 32.1533"] ;
1 -> 2 ;
3 [label="X[1] <= 1.215\nmse = 64.5641\nsamples = 43\nvalue = 36.9907"] ;
2 -> 3 ;
4 [label="mse = 0.0\nsamples = 2\nvalue = 50.0"] ;
3 -> 4 ;
5 [label="X[1] <= 2.32\nmse = 59.0551\nsamples = 41\nvalue = 36.3561"] ;
3 -> 5 ;
6 [label="X[4] <= 6.9235\nmse = 18.9364\nsamples = 12\nvalue = 31.2167"] ;
5 -> 6 ;
7 [label="X[3] <= 0.3975\nmse = 13.3892\nsamples = 6\nvalue = 27.85"] ;
6 -> 7 ;
8 [label="mse = 0.0\nsamples = 1\nvalue = 20.1"] ;
7 -> 8 ;
9 [label="X[11] <= 4.855\nmse = 1.652\nsamples = 5\nvalue = 29.4"] ;
7 -> 9 ;
10 [label="mse = 0.5625\nsamples = 2\nvalue = 30.85"] ;
9 -> 10 ;
11 [label="mse = 0.0422\nsamples = 3\nvalue = 28.4333"] ;
9 -> 11 ;
12 [label="X[9] <= 18.5\nmse = 1.8147\nsamples = 6\nvalue = 34.5833"] ;
6 -> 12 ;
13 [label="mse = 1.3089\nsamples = 3\nvalue = 34.9667"] ;
12 -> 13 ;
14 [label="mse = 2.0267\nsamples = 3\nvalue = 34.2"] ;
12 -> 14 ;
15 [label="X[4] <= 7.3935\nmse = 60.2035\nsamples = 29\nvalue = 38.4828"] ;
5 -> 15 ;
16 [label="X[4] <= 5.874\nmse = 15.7954\nsamples = 17\nvalue = 32.7588"] ;
15 -> 16 ;
17 [label="mse = 3.24\nsamples = 2\nvalue = 24.6"] ;
16 -> 17 ;
18 [label="X[10] <= 393.77\nmse = 7.4105\nsamples = 15\nvalue = 33.8467"] ;
16 -> 18 ;
19 [label="mse = 7.1011\nsamples = 8\nvalue = 32.8875"] ;
18 -> 19 ;
20 [label="mse = 5.511\nsamples = 7\nvalue = 34.9429"] ;
18 -> 20 ;
21 [label="X[9] <= 14.8\nmse = 10.9458\nsamples = 12\nvalue = 46.5917"] ;
15 -> 21 ;
22 [label="X[4] <= 7.6865\nmse = 8.0743\nsamples = 7\nvalue = 47.7"] ;
21 -> 22 ;
23 [label="mse = 0.04\nsamples = 2\nvalue = 43.3"] ;
22 -> 23 ;
24 [label="mse = 0.4464\nsamples = 5\nvalue = 49.46"] ;
22 -> 24 ;
25 [label="X[10] <= 394.095\nmse = 10.8384\nsamples = 5\nvalue = 45.04"] ;
21 -> 25 ;
26 [label="mse = 4.9675\nsamples = 4\nvalue = 46.35"] ;
25 -> 26 ;
27 [label="mse = 0.0\nsamples = 1\nvalue = 39.8"] ;
25 -> 27 ;
28 [label="X[11] <= 4.64\nmse = 40.8782\nsamples = 47\nvalue = 27.7277"] ;
2 -> 28 ;
29 [label="X[10] <= 389.23\nmse = 22.9404\nsamples = 10\nvalue = 35.24"] ;
28 -> 29 ;
30 [label="X[1] <= 2.2\nmse = 2.1125\nsamples = 4\nvalue = 30.75"] ;
29 -> 30 ;
31 [label="mse = 0.0\nsamples = 1\nvalue = 32.9"] ;
30 -> 31 ;
32 [label="mse = 0.7622\nsamples = 3\nvalue = 30.0333"] ;
30 -> 32 ;
33 [label="X[3] <= 0.4095\nmse = 14.4256\nsamples = 6\nvalue = 38.2333"] ;
29 -> 33 ;
34 [label="mse = 0.64\nsamples = 2\nvalue = 34.1"] ;
33 -> 34 ;
35 [label="X[7] <= 3.5\nmse = 8.505\nsamples = 4\nvalue = 40.3"] ;
33 -> 35 ;
36 [label="mse = 4.58\nsamples = 3\nvalue = 41.6"] ;
35 -> 36 ;
37 [label="mse = -0.0\nsamples = 1\nvalue = 36.4"] ;
35 -> 37 ;
38 [label="X[4] <= 6.7175\nmse = 26.3511\nsamples = 37\nvalue = 25.6973"] ;
28 -> 38 ;
39 [label="X[11] <= 7.61\nmse = 6.1734\nsamples = 22\nvalue = 22.2545"] ;
38 -> 39 ;
40 [label="X[3] <= 0.405\nmse = 2.5119\nsamples = 12\nvalue = 23.925"] ;
39 -> 40 ;
41 [label="mse = 0.4356\nsamples = 3\nvalue = 22.6333"] ;
40 -> 41 ;
42 [label="X[8] <= 278.0\nmse = 2.4625\nsamples = 9\nvalue = 24.3556"] ;
40 -> 42 ;
43 [label="mse = 0.0\nsamples = 1\nvalue = 28.4"] ;
42 -> 43 ;
44 [label="mse = 0.47\nsamples = 8\nvalue = 23.85"] ;
42 -> 44 ;
45 [label="X[1] <= 2.07\nmse = 3.2005\nsamples = 10\nvalue = 20.25"] ;
39 -> 45 ;
46 [label="mse = 1.1025\nsamples = 2\nvalue = 17.55"] ;
45 -> 46 ;
47 [label="X[8] <= 326.0\nmse = 1.4469\nsamples = 8\nvalue = 20.925"] ;
45 -> 47 ;
48 [label="mse = 0.3376\nsamples = 5\nvalue = 21.78"] ;
47 -> 48 ;
49 [label="mse = 0.0467\nsamples = 3\nvalue = 19.5"] ;
47 -> 49 ;
50 [label="X[5] <= 74.7\nmse = 13.0652\nsamples = 15\nvalue = 30.7467"] ;
38 -> 50 ;
51 [label="X[8] <= 378.0\nmse = 10.0896\nsamples = 14\nvalue = 31.2571"] ;
50 -> 51 ;
52 [label="X[6] <= 7.5684\nmse = 8.5096\nsamples = 10\nvalue = 30.32"] ;
51 -> 52 ;
53 [label="mse = 3.302\nsamples = 7\nvalue = 31.8286"] ;
52 -> 53 ;
54 [label="mse = 2.96\nsamples = 3\nvalue = 26.8"] ;
52 -> 54 ;
55 [label="X[4] <= 6.8665\nmse = 6.355\nsamples = 4\nvalue = 33.6"] ;
51 -> 55 ;
56 [label="mse = 0.5625\nsamples = 2\nvalue = 31.25"] ;
55 -> 56 ;
57 [label="mse = 1.1025\nsamples = 2\nvalue = 35.95"] ;
55 -> 57 ;
58 [label="mse = -0.0\nsamples = 1\nvalue = 23.6"] ;
50 -> 58 ;
59 [label="X[11] <= 4.665\nmse = 49.0305\nsamples = 215\nvalue = 23.7363"] ;
1 -> 59 ;
60 [label="X[9] <= 17.5\nmse = 76.4057\nsamples = 22\nvalue = 39.0864"] ;
59 -> 60 ;
61 [label="X[4] <= 6.7475\nmse = 33.3424\nsamples = 12\nvalue = 45.1583"] ;
60 -> 61 ;
62 [label="mse = 0.0\nsamples = 1\nvalue = 31.5"] ;
61 -> 62 ;
63 [label="X[9] <= 16.05\nmse = 17.8727\nsamples = 11\nvalue = 46.4"] ;
61 -> 63 ;
64 [label="X[10] <= 366.365\nmse = 12.1104\nsamples = 5\nvalue = 48.26"] ;
63 -> 64 ;
65 [label="mse = 0.0\nsamples = 1\nvalue = 41.3"] ;
64 -> 65 ;
66 [label="mse = -0.0\nsamples = 4\nvalue = 50.0"] ;
64 -> 66 ;
67 [label="X[11] <= 3.525\nmse = 17.3892\nsamples = 6\nvalue = 44.85"] ;
63 -> 67 ;
68 [label="mse = 4.2025\nsamples = 2\nvalue = 39.65"] ;
67 -> 68 ;
69 [label="X[5] <= 80.65\nmse = 3.7025\nsamples = 4\nvalue = 47.45"] ;
67 -> 69 ;
70 [label="mse = 2.0467\nsamples = 3\nvalue = 46.6"] ;
69 -> 70 ;
71 [label="mse = -0.0\nsamples = 1\nvalue = 50.0"] ;
69 -> 71 ;
72 [label="X[4] <= 7.0525\nmse = 30.748\nsamples = 10\nvalue = 31.8"] ;
60 -> 72 ;
73 [label="X[11] <= 4.35\nmse = 13.4363\nsamples = 7\nvalue = 29.0286"] ;
72 -> 73 ;
74 [label="X[1] <= 6.135\nmse = 8.1322\nsamples = 6\nvalue = 30.0667"] ;
73 -> 74 ;
75 [label="mse = 4.2156\nsamples = 3\nvalue = 27.6333"] ;
74 -> 75 ;
76 [label="mse = 0.2067\nsamples = 3\nvalue = 32.5"] ;
74 -> 76 ;
77 [label="mse = -0.0\nsamples = 1\nvalue = 22.8"] ;
73 -> 77 ;
78 [label="mse = 11.4022\nsamples = 3\nvalue = 38.2667"] ;
72 -> 78 ;
79 [label="X[4] <= 6.1655\nmse = 15.9896\nsamples = 193\nvalue = 21.9865"] ;
59 -> 79 ;
80 [label="X[6] <= 1.7573\nmse = 8.222\nsamples = 113\nvalue = 19.8681"] ;
79 -> 80 ;
81 [label="X[11] <= 15.965\nmse = 6.25\nsamples = 16\nvalue = 15.95"] ;
80 -> 81 ;
82 [label="X[10] <= 358.04\nmse = 5.1322\nsamples = 6\nvalue = 18.0667"] ;
81 -> 82 ;
83 [label="X[5] <= 97.25\nmse = 3.3296\nsamples = 5\nvalue = 17.38"] ;
82 -> 83 ;
84 [label="mse = 0.5489\nsamples = 3\nvalue = 15.9667"] ;
83 -> 84 ;
85 [label="mse = 0.01\nsamples = 2\nvalue = 19.5"] ;
83 -> 85 ;
86 [label="mse = -0.0\nsamples = 1\nvalue = 21.5"] ;
82 -> 86 ;
87 [label="X[6] <= 1.3788\nmse = 2.6196\nsamples = 10\nvalue = 14.68"] ;
81 -> 87 ;
88 [label="mse = 0.64\nsamples = 2\nvalue = 12.6"] ;
87 -> 88 ;
89 [label="X[10] <= 262.38\nmse = 1.7625\nsamples = 8\nvalue = 15.2"] ;
87 -> 89 ;
90 [label="mse = 1.1089\nsamples = 3\nvalue = 14.1667"] ;
89 -> 90 ;
91 [label="mse = 1.1296\nsamples = 5\nvalue = 15.82"] ;
89 -> 91 ;
92 [label="X[4] <= 6.0525\nmse = 5.5973\nsamples = 97\nvalue = 20.5144"] ;
80 -> 92 ;
93 [label="X[6] <= 5.625\nmse = 5.2484\nsamples = 79\nvalue = 20.0937"] ;
92 -> 93 ;
94 [label="X[5] <= 70.15\nmse = 4.5039\nsamples = 58\nvalue = 20.6448"] ;
93 -> 94 ;
95 [label="mse = 3.4734\nsamples = 29\nvalue = 21.6207"] ;
94 -> 95 ;
96 [label="mse = 3.6297\nsamples = 29\nvalue = 19.669"] ;
94 -> 96 ;
97 [label="X[3] <= 0.4405\nmse = 4.1487\nsamples = 21\nvalue = 18.5714"] ;
93 -> 97 ;
98 [label="mse = 3.8721\nsamples = 10\nvalue = 19.63"] ;
97 -> 98 ;
99 [label="mse = 2.4554\nsamples = 11\nvalue = 17.6091"] ;
97 -> 99 ;
100 [label="X[9] <= 16.3\nmse = 2.9413\nsamples = 18\nvalue = 22.3611"] ;
92 -> 100 ;
101 [label="mse = 0.2067\nsamples = 3\nvalue = 24.4"] ;
100 -> 101 ;
102 [label="X[5] <= 62.25\nmse = 2.4905\nsamples = 15\nvalue = 21.9533"] ;
100 -> 102 ;
103 [label="mse = 1.5402\nsamples = 11\nvalue = 22.5727"] ;
102 -> 103 ;
104 [label="mse = 1.1475\nsamples = 4\nvalue = 20.25"] ;
102 -> 104 ;
105 [label="X[8] <= 329.5\nmse = 11.6692\nsamples = 80\nvalue = 24.9788"] ;
79 -> 105 ;
106 [label="X[10] <= 392.41\nmse = 11.8631\nsamples = 64\nvalue = 25.5312"] ;
105 -> 106 ;
107 [label="X[4] <= 6.9665\nmse = 13.7788\nsamples = 26\nvalue = 27.1962"] ;
106 -> 107 ;
108 [label="X[0] <= 12.5\nmse = 5.5114\nsamples = 20\nvalue = 25.54"] ;
107 -> 108 ;
109 [label="mse = 3.9114\nsamples = 12\nvalue = 26.8167"] ;
108 -> 109 ;
110 [label="mse = 1.7994\nsamples = 8\nvalue = 23.625"] ;
108 -> 110 ;
111 [label="X[5] <= 61.7\nmse = 1.7181\nsamples = 6\nvalue = 32.7167"] ;
107 -> 111 ;
112 [label="mse = 0.9356\nsamples = 3\nvalue = 33.8333"] ;
111 -> 112 ;
113 [label="mse = 0.0067\nsamples = 3\nvalue = 31.6"] ;
111 -> 113 ;
114 [label="X[4] <= 6.469\nmse = 7.3581\nsamples = 38\nvalue = 24.3921"] ;
106 -> 114 ;
115 [label="X[11] <= 19.8\nmse = 4.8318\nsamples = 25\nvalue = 23.332"] ;
114 -> 115 ;
116 [label="mse = 2.02\nsamples = 24\nvalue = 23.6792"] ;
115 -> 116 ;
117 [label="mse = 0.0\nsamples = 1\nvalue = 15.0"] ;
115 -> 117 ;
118 [label="X[6] <= 3.5117\nmse = 5.8991\nsamples = 13\nvalue = 26.4308"] ;
114 -> 118 ;
119 [label="mse = 0.49\nsamples = 2\nvalue = 29.4"] ;
118 -> 119 ;
120 [label="mse = 4.9881\nsamples = 11\nvalue = 25.8909"] ;
118 -> 120 ;
121 [label="X[11] <= 8.165\nmse = 4.7884\nsamples = 16\nvalue = 22.7688"] ;
105 -> 121 ;
122 [label="X[4] <= 6.2615\nmse = 2.0847\nsamples = 6\nvalue = 24.6833"] ;
121 -> 122 ;
123 [label="mse = 0.0\nsamples = 1\nvalue = 27.0"] ;
122 -> 123 ;
124 [label="X[4] <= 6.617\nmse = 1.2136\nsamples = 5\nvalue = 24.22"] ;
122 -> 124 ;
125 [label="mse = 0.2919\nsamples = 4\nvalue = 23.725"] ;
124 -> 125 ;
126 [label="mse = -0.0\nsamples = 1\nvalue = 26.2"] ;
124 -> 126 ;
127 [label="X[10] <= 375.425\nmse = 2.8916\nsamples = 10\nvalue = 21.62"] ;
121 -> 127 ;
128 [label="X[11] <= 11.645\nmse = 2.9725\nsamples = 4\nvalue = 22.65"] ;
127 -> 128 ;
129 [label="mse = 0.8422\nsamples = 3\nvalue = 23.5333"] ;
128 -> 129 ;
130 [label="mse = 0.0\nsamples = 1\nvalue = 20.0"] ;
128 -> 130 ;
131 [label="X[6] <= 2.467\nmse = 1.6589\nsamples = 6\nvalue = 20.9333"] ;
127 -> 131 ;
132 [label="mse = 0.0\nsamples = 1\nvalue = 18.5"] ;
131 -> 132 ;
133 [label="mse = 0.5696\nsamples = 5\nvalue = 21.42"] ;
131 -> 133 ;
134 [label="X[10] <= 129.39\nmse = 52.8211\nsamples = 201\nvalue = 16.9378"] ;
0 -> 134 [labeldistance=2.5, labelangle=-45, headlabel="False"] ;
135 [label="X[6] <= 2.0122\nmse = 11.07\nsamples = 33\nvalue = 12.2182"] ;
134 -> 135 ;
136 [label="X[6] <= 1.6007\nmse = 9.7644\nsamples = 18\nvalue = 10.4333"] ;
135 -> 136 ;
137 [label="mse = 1.5267\nsamples = 3\nvalue = 16.7"] ;
136 -> 137 ;
138 [label="X[6] <= 1.9249\nmse = 1.9869\nsamples = 15\nvalue = 9.18"] ;
136 -> 138 ;
139 [label="X[5] <= 89.95\nmse = 1.4464\nsamples = 10\nvalue = 8.56"] ;
138 -> 139 ;
140 [label="X[4] <= 6.513\nmse = 1.2969\nsamples = 4\nvalue = 9.525"] ;
139 -> 140 ;
141 [label="mse = 1.1667\nsamples = 3\nvalue = 9.9"] ;
140 -> 141 ;
142 [label="mse = 0.0\nsamples = 1\nvalue = 8.4"] ;
140 -> 142 ;
143 [label="X[11] <= 27.75\nmse = 0.5114\nsamples = 6\nvalue = 7.9167"] ;
139 -> 143 ;
144 [label="X[4] <= 6.467\nmse = 0.2619\nsamples = 4\nvalue = 8.325"] ;
143 -> 144 ;
145 [label="mse = 0.0467\nsamples = 3\nvalue = 8.6"] ;
144 -> 145 ;
146 [label="mse = 0.0\nsamples = 1\nvalue = 7.5"] ;
144 -> 146 ;
147 [label="mse = 0.01\nsamples = 2\nvalue = 7.1"] ;
143 -> 147 ;
148 [label="X[11] <= 24.03\nmse = 0.7616\nsamples = 5\nvalue = 10.42"] ;
138 -> 148 ;
149 [label="X[4] <= 6.46\nmse = 0.6875\nsamples = 4\nvalue = 10.65"] ;
148 -> 149 ;
150 [label="mse = 0.4267\nsamples = 3\nvalue = 11.0"] ;
149 -> 150 ;
151 [label="mse = 0.0\nsamples = 1\nvalue = 9.6"] ;
149 -> 151 ;
152 [label="mse = -0.0\nsamples = 1\nvalue = 9.5"] ;
148 -> 152 ;
153 [label="X[6] <= 2.6477\nmse = 4.2264\nsamples = 15\nvalue = 14.36"] ;
135 -> 153 ;
154 [label="X[11] <= 13.6\nmse = 1.4824\nsamples = 12\nvalue = 13.6917"] ;
153 -> 154 ;
155 [label="mse = 0.0\nsamples = 1\nvalue = 16.1"] ;
154 -> 155 ;
156 [label="X[4] <= 6.278\nmse = 1.042\nsamples = 11\nvalue = 13.4727"] ;
154 -> 156 ;
157 [label="X[10] <= 3.085\nmse = 0.5169\nsamples = 4\nvalue = 12.375"] ;
156 -> 157 ;
158 [label="mse = 0.0\nsamples = 1\nvalue = 13.4"] ;
157 -> 158 ;
159 [label="mse = 0.2222\nsamples = 3\nvalue = 12.0333"] ;
157 -> 159 ;
160 [label="X[6] <= 2.466\nmse = 0.26\nsamples = 7\nvalue = 14.1"] ;
156 -> 160 ;
161 [label="X[6] <= 2.0705\nmse = 0.1789\nsamples = 6\nvalue = 13.9667"] ;
160 -> 161 ;
162 [label="mse = 0.0\nsamples = 1\nvalue = 14.5"] ;
161 -> 162 ;
163 [label="mse = 0.1464\nsamples = 5\nvalue = 13.86"] ;
161 -> 163 ;
164 [label="mse = -0.0\nsamples = 1\nvalue = 14.9"] ;
160 -> 164 ;
165 [label="mse = 6.2689\nsamples = 3\nvalue = 17.0333"] ;
153 -> 165 ;
166 [label="X[6] <= 1.3573\nmse = 55.7873\nsamples = 168\nvalue = 17.8649"] ;
134 -> 166 ;
167 [label="X[3] <= 0.645\nmse = 301.5415\nsamples = 11\nvalue = 31.4818"] ;
166 -> 167 ;
168 [label="mse = 0.0\nsamples = 4\nvalue = 50.0"] ;
167 -> 168 ;
169 [label="X[11] <= 10.505\nmse = 165.92\nsamples = 7\nvalue = 20.9"] ;
167 -> 169 ;
170 [label="mse = 0.0\nsamples = 1\nvalue = 50.0"] ;
169 -> 170 ;
171 [label="X[11] <= 12.785\nmse = 28.9158\nsamples = 6\nvalue = 16.05"] ;
169 -> 171 ;
172 [label="mse = 0.0\nsamples = 1\nvalue = 27.9"] ;
171 -> 172 ;
173 [label="X[4] <= 4.522\nmse = 0.9976\nsamples = 5\nvalue = 13.68"] ;
171 -> 173 ;
174 [label="mse = 0.9025\nsamples = 2\nvalue = 12.85"] ;
173 -> 174 ;
175 [label="mse = 0.2956\nsamples = 3\nvalue = 14.2333"] ;
173 -> 175 ;
176 [label="X[11] <= 15.1\nmse = 24.6673\nsamples = 157\nvalue = 16.9108"] ;
166 -> 176 ;
177 [label="X[7] <= 4.5\nmse = 7.8648\nsamples = 73\nvalue = 20.6616"] ;
176 -> 177 ;
178 [label="X[6] <= 2.4918\nmse = 6.6976\nsamples = 26\nvalue = 19.3654"] ;
177 -> 178 ;
179 [label="X[1] <= 16.91\nmse = 4.2141\nsamples = 10\nvalue = 20.63"] ;
178 -> 179 ;
180 [label="X[5] <= 90.15\nmse = 1.3819\nsamples = 4\nvalue = 22.225"] ;
179 -> 180 ;
181 [label="mse = 0.5956\nsamples = 3\nvalue = 21.6667"] ;
180 -> 181 ;
182 [label="mse = -0.0\nsamples = 1\nvalue = 23.9"] ;
180 -> 182 ;
183 [label="X[10] <= 387.225\nmse = 3.2756\nsamples = 6\nvalue = 19.5667"] ;
179 -> 183 ;
184 [label="mse = 0.0\nsamples = 1\nvalue = 23.0"] ;
183 -> 184 ;
185 [label="mse = 1.1016\nsamples = 5\nvalue = 18.88"] ;
183 -> 185 ;
186 [label="X[1] <= 10.035\nmse = 6.6256\nsamples = 16\nvalue = 18.575"] ;
178 -> 186 ;
187 [label="X[10] <= 386.8\nmse = 3.8989\nsamples = 15\nvalue = 19.02"] ;
186 -> 187 ;
188 [label="mse = 4.27\nsamples = 8\nvalue = 18.35"] ;
187 -> 188 ;
189 [label="mse = 2.3755\nsamples = 7\nvalue = 19.7857"] ;
187 -> 189 ;
190 [label="mse = 0.0\nsamples = 1\nvalue = 11.9"] ;
186 -> 190 ;
191 [label="X[4] <= 6.62\nmse = 7.0668\nsamples = 47\nvalue = 21.3787"] ;
177 -> 191 ;
192 [label="X[10] <= 391.385\nmse = 3.9536\nsamples = 41\nvalue = 20.7415"] ;
191 -> 192 ;
193 [label="X[5] <= 88.5\nmse = 5.5972\nsamples = 19\nvalue = 21.2526"] ;
192 -> 193 ;
194 [label="mse = 4.5474\nsamples = 12\nvalue = 21.9083"] ;
193 -> 194 ;
195 [label="mse = 5.3963\nsamples = 7\nvalue = 20.1286"] ;
193 -> 195 ;
196 [label="X[10] <= 392.685\nmse = 2.1136\nsamples = 22\nvalue = 20.3"] ;
192 -> 196 ;
197 [label="mse = 0.49\nsamples = 2\nvalue = 18.4"] ;
196 -> 197 ;
198 [label="mse = 1.8789\nsamples = 20\nvalue = 20.49"] ;
196 -> 198 ;
199 [label="X[5] <= 69.45\nmse = 6.6022\nsamples = 6\nvalue = 25.7333"] ;
191 -> 199 ;
200 [label="mse = 0.0\nsamples = 1\nvalue = 29.8"] ;
199 -> 200 ;
201 [label="X[7] <= 14.5\nmse = 3.9536\nsamples = 5\nvalue = 24.92"] ;
199 -> 201 ;
202 [label="mse = 0.25\nsamples = 2\nvalue = 27.0"] ;
201 -> 202 ;
203 [label="mse = 1.6156\nsamples = 3\nvalue = 23.5333"] ;
201 -> 203 ;
204 [label="X[10] <= 195.165\nmse = 16.418\nsamples = 84\nvalue = 13.6512"] ;
176 -> 204 ;
205 [label="mse = 0.0\nsamples = 1\nvalue = 27.5"] ;
204 -> 205 ;
206 [label="X[11] <= 19.645\nmse = 14.2772\nsamples = 83\nvalue = 13.4843"] ;
204 -> 206 ;
207 [label="X[6] <= 1.7852\nmse = 6.2719\nsamples = 43\nvalue = 15.814"] ;
206 -> 207 ;
208 [label="X[8] <= 551.5\nmse = 5.94\nsamples = 5\nvalue = 13.3"] ;
207 -> 208 ;
209 [label="mse = 0.0\nsamples = 1\nvalue = 17.8"] ;
208 -> 209 ;
210 [label="mse = 1.0969\nsamples = 4\nvalue = 12.175"] ;
208 -> 210 ;
211 [label="X[4] <= 5.735\nmse = 5.3746\nsamples = 38\nvalue = 16.1447"] ;
207 -> 211 ;
212 [label="mse = 0.9412\nsamples = 7\nvalue = 14.5143"] ;
211 -> 212 ;
213 [label="mse = 5.6398\nsamples = 31\nvalue = 16.5129"] ;
211 -> 213 ;
214 [label="X[3] <= 0.603\nmse = 10.7771\nsamples = 40\nvalue = 10.98"] ;
206 -> 214 ;
215 [label="X[3] <= 0.561\nmse = 4.3262\nsamples = 9\nvalue = 14.8222"] ;
214 -> 215 ;
216 [label="mse = 0.348\nsamples = 5\nvalue = 13.5"] ;
215 -> 216 ;
217 [label="mse = 4.3819\nsamples = 4\nvalue = 16.475"] ;
215 -> 217 ;
218 [label="X[9] <= 20.7\nmse = 7.1197\nsamples = 31\nvalue = 9.8645"] ;
214 -> 218 ;
219 [label="mse = 5.9286\nsamples = 28\nvalue = 9.4321"] ;
218 -> 219 ;
220 [label="mse = 0.2067\nsamples = 3\nvalue = 13.9"] ;
218 -> 220 ;
}