digraph Tree {
node [shape=box, style="filled, rounded", color="black", fontname=helvetica] ;
edge [fontname=helvetica] ;
0 [label="X[8] <= 416.5\nmse = 84.4196\nsamples = 506\nvalue = 22.5328", fillcolor="#e5813963"] ;
1 [label="X[3] <= 0.5125\nmse = 70.8648\nsamples = 340\nvalue = 25.4165", fillcolor="#e5813974"] ;
0 -> 1 [labeldistance=2.5, labelangle=45, headlabel="True"] ;
2 [label="X[4] <= 6.945\nmse = 58.3807\nsamples = 213\nvalue = 27.2784", fillcolor="#e581397e"] ;
1 -> 2 ;
3 [label="X[4] <= 6.542\nmse = 16.0516\nsamples = 160\nvalue = 23.8669", fillcolor="#e581396b"] ;
2 -> 3 ;
4 [label="X[8] <= 222.5\nmse = 8.7844\nsamples = 117\nvalue = 22.2692", fillcolor="#e5813962"] ;
3 -> 4 ;
5 [label="X[10] <= 395.51\nmse = 13.2619\nsamples = 4\nvalue = 30.225", fillcolor="#e581398f"] ;
4 -> 5 ;
6 [label="mse = 1.8156\nsamples = 3\nvalue = 28.2333", fillcolor="#e5813984"] ;
5 -> 6 ;
7 [label="mse = 0.0\nsamples = 1\nvalue = 36.2", fillcolor="#e58139b1"] ;
5 -> 7 ;
8 [label="X[5] <= 74.1\nmse = 6.306\nsamples = 113\nvalue = 21.9876", fillcolor="#e5813960"] ;
4 -> 8 ;
9 [label="X[6] <= 6.295\nmse = 5.3375\nsamples = 98\nvalue = 22.3408", fillcolor="#e5813962"] ;
8 -> 9 ;
10 [label="X[11] <= 7.475\nmse = 4.0472\nsamples = 59\nvalue = 23.0305", fillcolor="#e5813966"] ;
9 -> 10 ;
11 [label="mse = 1.8564\nsamples = 17\nvalue = 24.5353", fillcolor="#e581396f"] ;
10 -> 11 ;
12 [label="mse = 3.6464\nsamples = 42\nvalue = 22.4214", fillcolor="#e5813963"] ;
10 -> 12 ;
13 [label="X[11] <= 9.88\nmse = 5.4813\nsamples = 39\nvalue = 21.2974", fillcolor="#e581395c"] ;
9 -> 13 ;
14 [label="mse = 3.578\nsamples = 27\nvalue = 22.3111", fillcolor="#e5813962"] ;
13 -> 14 ;
15 [label="mse = 2.2497\nsamples = 12\nvalue = 19.0167", fillcolor="#e581394f"] ;
13 -> 15 ;
16 [label="X[3] <= 0.4585\nmse = 6.4936\nsamples = 15\nvalue = 19.68", fillcolor="#e5813953"] ;
8 -> 16 ;
17 [label="X[10] <= 377.11\nmse = 4.6547\nsamples = 6\nvalue = 17.5167", fillcolor="#e5813947"] ;
16 -> 17 ;
18 [label="mse = 1.6022\nsamples = 3\nvalue = 19.3667", fillcolor="#e5813951"] ;
17 -> 18 ;
19 [label="mse = 0.8622\nsamples = 3\nvalue = 15.6667", fillcolor="#e581393c"] ;
17 -> 19 ;
20 [label="X[1] <= 7.225\nmse = 2.5195\nsamples = 9\nvalue = 21.1222", fillcolor="#e581395b"] ;
16 -> 20 ;
21 [label="mse = 0.755\nsamples = 4\nvalue = 22.5", fillcolor="#e5813963"] ;
20 -> 21 ;
22 [label="mse = 1.1976\nsamples = 5\nvalue = 20.02", fillcolor="#e5813955"] ;
20 -> 22 ;
23 [label="X[8] <= 270.5\nmse = 9.9831\nsamples = 43\nvalue = 28.214", fillcolor="#e5813984"] ;
3 -> 23 ;
24 [label="X[11] <= 6.105\nmse = 5.715\nsamples = 16\nvalue = 30.25", fillcolor="#e581398f"] ;
23 -> 24 ;
25 [label="X[5] <= 25.5\nmse = 5.0852\nsamples = 13\nvalue = 30.8308", fillcolor="#e5813992"] ;
24 -> 25 ;
26 [label="X[8] <= 248.5\nmse = 2.916\nsamples = 5\nvalue = 29.1", fillcolor="#e5813989"] ;
25 -> 26 ;
27 [label="mse = 0.4225\nsamples = 2\nvalue = 27.25", fillcolor="#e581397e"] ;
26 -> 27 ;
28 [label="mse = 0.7756\nsamples = 3\nvalue = 30.3333", fillcolor="#e5813990"] ;
26 -> 28 ;
29 [label="X[0] <= 60.0\nmse = 3.3986\nsamples = 8\nvalue = 31.9125", fillcolor="#e5813999"] ;
25 -> 29 ;
30 [label="mse = 1.2056\nsamples = 5\nvalue = 33.02", fillcolor="#e581399f"] ;
29 -> 30 ;
31 [label="mse = 1.6022\nsamples = 3\nvalue = 30.0667", fillcolor="#e581398e"] ;
29 -> 31 ;
32 [label="mse = 0.6489\nsamples = 3\nvalue = 27.7333", fillcolor="#e5813981"] ;
24 -> 32 ;
33 [label="X[11] <= 5.41\nmse = 8.5999\nsamples = 27\nvalue = 27.0074", fillcolor="#e581397d"] ;
23 -> 33 ;
34 [label="X[11] <= 4.99\nmse = 1.3856\nsamples = 6\nvalue = 30.0667", fillcolor="#e581398e"] ;
33 -> 34 ;
35 [label="X[3] <= 0.4605\nmse = 0.4325\nsamples = 4\nvalue = 30.75", fillcolor="#e5813992"] ;
34 -> 35 ;
36 [label="mse = 0.1225\nsamples = 2\nvalue = 30.15", fillcolor="#e581398f"] ;
35 -> 36 ;
37 [label="mse = 0.0225\nsamples = 2\nvalue = 31.35", fillcolor="#e5813995"] ;
35 -> 37 ;
38 [label="mse = 0.49\nsamples = 2\nvalue = 28.7", fillcolor="#e5813986"] ;
34 -> 38 ;
39 [label="X[5] <= 57.1\nmse = 7.2232\nsamples = 21\nvalue = 26.1333", fillcolor="#e5813978"] ;
33 -> 39 ;
40 [label="X[6] <= 4.6402\nmse = 6.5639\nsamples = 14\nvalue = 25.35", fillcolor="#e5813973"] ;
39 -> 40 ;
41 [label="mse = 0.0\nsamples = 1\nvalue = 32.0", fillcolor="#e5813999"] ;
40 -> 41 ;
42 [label="mse = 3.4054\nsamples = 13\nvalue = 24.8385", fillcolor="#e5813970"] ;
40 -> 42 ;
43 [label="X[6] <= 3.9\nmse = 4.86\nsamples = 7\nvalue = 27.7", fillcolor="#e5813981"] ;
39 -> 43 ;
44 [label="mse = 0.9256\nsamples = 5\nvalue = 28.98", fillcolor="#e5813988"] ;
43 -> 44 ;
45 [label="mse = 0.36\nsamples = 2\nvalue = 24.5", fillcolor="#e581396e"] ;
43 -> 45 ;
46 [label="X[4] <= 7.437\nmse = 44.9629\nsamples = 53\nvalue = 37.5774", fillcolor="#e58139b9"] ;
2 -> 46 ;
47 [label="X[3] <= 0.4885\nmse = 9.7696\nsamples = 33\nvalue = 33.2121", fillcolor="#e58139a0"] ;
46 -> 47 ;
48 [label="X[6] <= 6.7589\nmse = 5.0143\nsamples = 27\nvalue = 34.1556", fillcolor="#e58139a5"] ;
47 -> 48 ;
49 [label="X[4] <= 7.2515\nmse = 2.5921\nsamples = 16\nvalue = 35.2688", fillcolor="#e58139ac"] ;
48 -> 49 ;
50 [label="X[7] <= 6.0\nmse = 2.0498\nsamples = 13\nvalue = 35.7308", fillcolor="#e58139ae"] ;
49 -> 50 ;
51 [label="mse = 1.7387\nsamples = 11\nvalue = 35.9364", fillcolor="#e58139af"] ;
50 -> 51 ;
52 [label="mse = 2.25\nsamples = 2\nvalue = 34.6", fillcolor="#e58139a8"] ;
50 -> 52 ;
53 [label="mse = 0.0089\nsamples = 3\nvalue = 33.2667", fillcolor="#e58139a0"] ;
49 -> 53 ;
54 [label="X[1] <= 1.88\nmse = 4.1132\nsamples = 11\nvalue = 32.5364", fillcolor="#e581399c"] ;
48 -> 54 ;
55 [label="X[10] <= 369.305\nmse = 2.2761\nsamples = 8\nvalue = 33.3875", fillcolor="#e58139a1"] ;
54 -> 55 ;
56 [label="mse = 0.0\nsamples = 1\nvalue = 30.3", fillcolor="#e581398f"] ;
55 -> 56 ;
57 [label="mse = 1.0449\nsamples = 7\nvalue = 33.8286", fillcolor="#e58139a3"] ;
55 -> 57 ;
58 [label="mse = 1.9289\nsamples = 3\nvalue = 30.2667", fillcolor="#e581398f"] ;
54 -> 58 ;
59 [label="X[4] <= 7.043\nmse = 9.1389\nsamples = 6\nvalue = 28.9667", fillcolor="#e5813988"] ;
47 -> 59 ;
60 [label="mse = 2.4025\nsamples = 2\nvalue = 25.15", fillcolor="#e5813972"] ;
59 -> 60 ;
61 [label="X[5] <= 67.35\nmse = 1.5819\nsamples = 4\nvalue = 30.875", fillcolor="#e5813993"] ;
59 -> 61 ;
62 [label="mse = 0.0\nsamples = 1\nvalue = 28.7", fillcolor="#e5813986"] ;
61 -> 62 ;
63 [label="mse = 0.0067\nsamples = 3\nvalue = 31.6", fillcolor="#e5813997"] ;
61 -> 63 ;
64 [label="X[9] <= 17.9\nmse = 19.7126\nsamples = 20\nvalue = 44.78", fillcolor="#e58139e1"] ;
46 -> 64 ;
65 [label="X[9] <= 14.55\nmse = 14.935\nsamples = 16\nvalue = 45.9437", fillcolor="#e58139e8"] ;
64 -> 65 ;
66 [label="mse = 0.0\nsamples = 2\nvalue = 50.0", fillcolor="#e58139ff"] ;
65 -> 66 ;
67 [label="X[4] <= 8.531\nmse = 14.3823\nsamples = 14\nvalue = 45.3643", fillcolor="#e58139e5"] ;
65 -> 67 ;
68 [label="X[5] <= 80.8\nmse = 13.7084\nsamples = 13\nvalue = 45.0077", fillcolor="#e58139e3"] ;
67 -> 68 ;
69 [label="mse = 7.4316\nsamples = 11\nvalue = 46.1545", fillcolor="#e58139e9"] ;
68 -> 69 ;
70 [label="mse = 1.21\nsamples = 2\nvalue = 38.7", fillcolor="#e58139bf"] ;
68 -> 70 ;
71 [label="mse = 0.0\nsamples = 1\nvalue = 50.0", fillcolor="#e58139ff"] ;
67 -> 71 ;
72 [label="X[10] <= 392.15\nmse = 11.7369\nsamples = 4\nvalue = 40.125", fillcolor="#e58139c7"] ;
64 -> 72 ;
73 [label="mse = 0.0\nsamples = 1\nvalue = 35.2", fillcolor="#e58139ab"] ;
72 -> 73 ;
74 [label="mse = 4.8689\nsamples = 3\nvalue = 41.7667", fillcolor="#e58139d0"] ;
72 -> 74 ;
75 [label="X[9] <= 13.85\nmse = 76.2368\nsamples = 127\nvalue = 22.2937", fillcolor="#e5813962"] ;
1 -> 75 ;
76 [label="X[4] <= 7.4015\nmse = 73.3769\nsamples = 12\nvalue = 38.025", fillcolor="#e58139bb"] ;
75 -> 76 ;
77 [label="X[5] <= 72.3\nmse = 18.4367\nsamples = 7\nvalue = 31.5571", fillcolor="#e5813996"] ;
76 -> 77 ;
78 [label="mse = 0.0\nsamples = 1\nvalue = 22.8", fillcolor="#e5813965"] ;
77 -> 78 ;
79 [label="X[6] <= 1.9704\nmse = 6.5981\nsamples = 6\nvalue = 33.0167", fillcolor="#e581399f"] ;
77 -> 79 ;
80 [label="mse = 0.0625\nsamples = 2\nvalue = 36.25", fillcolor="#e58139b1"] ;
79 -> 80 ;
81 [label="X[4] <= 7.1085\nmse = 2.025\nsamples = 4\nvalue = 31.4", fillcolor="#e5813996"] ;
79 -> 81 ;
82 [label="mse = 0.09\nsamples = 2\nvalue = 30.4", fillcolor="#e5813990"] ;
81 -> 82 ;
83 [label="mse = 1.96\nsamples = 2\nvalue = 32.4", fillcolor="#e581399b"] ;
81 -> 83 ;
84 [label="X[5] <= 59.8\nmse = 9.7336\nsamples = 5\nvalue = 47.08", fillcolor="#e58139ee"] ;
76 -> 84 ;
85 [label="mse = 0.0\nsamples = 1\nvalue = 43.5", fillcolor="#e58139da"] ;
84 -> 85 ;
86 [label="X[11] <= 6.585\nmse = 8.1619\nsamples = 4\nvalue = 47.975", fillcolor="#e58139f4"] ;
84 -> 86 ;
87 [label="mse = 0.36\nsamples = 2\nvalue = 49.4", fillcolor="#e58139fc"] ;
86 -> 87 ;
88 [label="mse = 11.9025\nsamples = 2\nvalue = 46.55", fillcolor="#e58139eb"] ;
86 -> 88 ;
89 [label="X[11] <= 4.12\nmse = 48.0173\nsamples = 115\nvalue = 20.6522", fillcolor="#e5813959"] ;
75 -> 89 ;
90 [label="mse = 0.0\nsamples = 4\nvalue = 50.0", fillcolor="#e58139ff"] ;
89 -> 90 ;
91 [label="X[4] <= 6.1695\nmse = 17.5915\nsamples = 111\nvalue = 19.5946", fillcolor="#e5813953"] ;
89 -> 91 ;
92 [label="X[4] <= 5.8235\nmse = 10.3519\nsamples = 84\nvalue = 18.3821", fillcolor="#e581394c"] ;
91 -> 92 ;
93 [label="X[1] <= 14.74\nmse = 7.9485\nsamples = 29\nvalue = 16.5207", fillcolor="#e5813941"] ;
92 -> 93 ;
94 [label="X[11] <= 17.975\nmse = 8.9129\nsamples = 17\nvalue = 17.1647", fillcolor="#e5813945"] ;
93 -> 94 ;
95 [label="mse = 6.6623\nsamples = 11\nvalue = 18.3364", fillcolor="#e581394c"] ;
94 -> 95 ;
96 [label="mse = 5.9081\nsamples = 6\nvalue = 15.0167", fillcolor="#e5813939"] ;
94 -> 96 ;
97 [label="X[6] <= 1.3788\nmse = 5.1624\nsamples = 12\nvalue = 15.6083", fillcolor="#e581393c"] ;
93 -> 97 ;
98 [label="mse = 0.64\nsamples = 2\nvalue = 12.6", fillcolor="#e581392b"] ;
97 -> 98 ;
99 [label="mse = 3.8949\nsamples = 10\nvalue = 16.21", fillcolor="#e5813940"] ;
97 -> 99 ;
100 [label="X[11] <= 18.69\nmse = 8.8289\nsamples = 55\nvalue = 19.3636", fillcolor="#e5813951"] ;
92 -> 100 ;
101 [label="X[7] <= 1.5\nmse = 6.9864\nsamples = 50\nvalue = 19.84", fillcolor="#e5813954"] ;
100 -> 101 ;
102 [label="mse = 18.9225\nsamples = 2\nvalue = 16.25", fillcolor="#e5813940"] ;
101 -> 102 ;
103 [label="mse = 5.9297\nsamples = 48\nvalue = 19.9896", fillcolor="#e5813955"] ;
101 -> 103 ;
104 [label="X[7] <= 3.0\nmse = 2.292\nsamples = 5\nvalue = 14.6", fillcolor="#e5813936"] ;
100 -> 104 ;
105 [label="mse = 0.0\nsamples = 1\nvalue = 17.3", fillcolor="#e5813946"] ;
104 -> 105 ;
106 [label="mse = 0.5869\nsamples = 4\nvalue = 13.925", fillcolor="#e5813933"] ;
104 -> 106 ;
107 [label="X[6] <= 1.9886\nmse = 21.3126\nsamples = 27\nvalue = 23.3667", fillcolor="#e5813968"] ;
91 -> 107 ;
108 [label="mse = 60.2422\nsamples = 3\nvalue = 30.5333", fillcolor="#e5813991"] ;
107 -> 108 ;
109 [label="X[10] <= 392.65\nmse = 9.2237\nsamples = 24\nvalue = 22.4708", fillcolor="#e5813963"] ;
107 -> 109 ;
110 [label="X[10] <= 392.255\nmse = 6.0256\nsamples = 10\nvalue = 20.38", fillcolor="#e5813957"] ;
109 -> 110 ;
111 [label="mse = 3.1217\nsamples = 9\nvalue = 20.9778", fillcolor="#e581395b"] ;
110 -> 111 ;
112 [label="mse = 0.0\nsamples = 1\nvalue = 15.0", fillcolor="#e5813939"] ;
110 -> 112 ;
113 [label="X[6] <= 2.6054\nmse = 6.1552\nsamples = 14\nvalue = 23.9643", fillcolor="#e581396b"] ;
109 -> 113 ;
114 [label="mse = 2.8067\nsamples = 3\nvalue = 21.9", fillcolor="#e5813960"] ;
113 -> 114 ;
115 [label="mse = 5.5893\nsamples = 11\nvalue = 24.5273", fillcolor="#e581396f"] ;
113 -> 115 ;
116 [label="X[3] <= 0.6695\nmse = 60.266\nsamples = 166\nvalue = 16.6265", fillcolor="#e5813942"] ;
0 -> 116 [labeldistance=2.5, labelangle=-45, headlabel="False"] ;
117 [label="X[2] <= 0.5\nmse = 75.3784\nsamples = 81\nvalue = 20.0617", fillcolor="#e5813955"] ;
116 -> 117 ;
118 [label="X[4] <= 6.197\nmse = 42.4786\nsamples = 78\nvalue = 18.9103", fillcolor="#e581394f"] ;
117 -> 118 ;
119 [label="X[3] <= 0.6275\nmse = 35.3227\nsamples = 52\nvalue = 17.6", fillcolor="#e5813947"] ;
118 -> 119 ;
120 [label="X[3] <= 0.5835\nmse = 12.459\nsamples = 44\nvalue = 16.7227", fillcolor="#e5813942"] ;
119 -> 120 ;
121 [label="X[11] <= 13.475\nmse = 0.8634\nsamples = 17\nvalue = 19.7118", fillcolor="#e5813953"] ;
120 -> 121 ;
122 [label="X[9] <= 19.0\nmse = 0.811\nsamples = 7\nvalue = 20.3571", fillcolor="#e5813957"] ;
121 -> 122 ;
123 [label="mse = 0.6369\nsamples = 4\nvalue = 19.875", fillcolor="#e5813954"] ;
122 -> 123 ;
124 [label="mse = 0.32\nsamples = 3\nvalue = 21.0", fillcolor="#e581395b"] ;
122 -> 124 ;
125 [label="X[5] <= 86.1\nmse = 0.4044\nsamples = 10\nvalue = 19.26", fillcolor="#e5813951"] ;
121 -> 125 ;
126 [label="mse = 0.291\nsamples = 7\nvalue = 19.5429", fillcolor="#e5813952"] ;
125 -> 126 ;
127 [label="mse = 0.0467\nsamples = 3\nvalue = 18.6", fillcolor="#e581394d"] ;
125 -> 127 ;
128 [label="X[4] <= 5.591\nmse = 10.5928\nsamples = 27\nvalue = 14.8407", fillcolor="#e5813938"] ;
120 -> 128 ;
129 [label="X[4] <= 4.8235\nmse = 11.6667\nsamples = 9\nvalue = 12.9333", fillcolor="#e581392d"] ;
128 -> 129 ;
130 [label="mse = 0.0\nsamples = 1\nvalue = 17.9", fillcolor="#e5813949"] ;
129 -> 130 ;
131 [label="mse = 9.6561\nsamples = 8\nvalue = 12.3125", fillcolor="#e5813929"] ;
129 -> 131 ;
132 [label="X[11] <= 15.36\nmse = 7.3272\nsamples = 18\nvalue = 15.7944", fillcolor="#e581393d"] ;
128 -> 132 ;
133 [label="mse = 5.0219\nsamples = 4\nvalue = 18.575", fillcolor="#e581394d"] ;
132 -> 133 ;
134 [label="mse = 5.1457\nsamples = 14\nvalue = 15.0", fillcolor="#e5813939"] ;
132 -> 134 ;
135 [label="X[3] <= 0.643\nmse = 133.5594\nsamples = 8\nvalue = 22.425", fillcolor="#e5813963"] ;
119 -> 135 ;
136 [label="mse = 180.9025\nsamples = 2\nvalue = 36.55", fillcolor="#e58139b3"] ;
135 -> 136 ;
137 [label="X[6] <= 1.2316\nmse = 29.1047\nsamples = 6\nvalue = 17.7167", fillcolor="#e5813948"] ;
135 -> 137 ;
138 [label="mse = 0.8022\nsamples = 3\nvalue = 13.1667", fillcolor="#e581392e"] ;
137 -> 138 ;
139 [label="mse = 16.0022\nsamples = 3\nvalue = 22.2667", fillcolor="#e5813962"] ;
137 -> 139 ;
140 [label="X[3] <= 0.6275\nmse = 46.4898\nsamples = 26\nvalue = 21.5308", fillcolor="#e581395e"] ;
118 -> 140 ;
141 [label="X[8] <= 426.0\nmse = 15.1983\nsamples = 24\nvalue = 20.35", fillcolor="#e5813957"] ;
140 -> 141 ;
142 [label="mse = 0.0\nsamples = 1\nvalue = 16.5", fillcolor="#e5813941"] ;
141 -> 142 ;
143 [label="X[10] <= 138.655\nmse = 15.1867\nsamples = 23\nvalue = 20.5174", fillcolor="#e5813958"] ;
141 -> 143 ;
144 [label="X[10] <= 58.19\nmse = 1.5519\nsamples = 4\nvalue = 15.475", fillcolor="#e581393b"] ;
143 -> 144 ;
145 [label="mse = 0.0\nsamples = 1\nvalue = 17.2", fillcolor="#e5813945"] ;
144 -> 145 ;
146 [label="mse = 0.7467\nsamples = 3\nvalue = 14.9", fillcolor="#e5813938"] ;
144 -> 146 ;
147 [label="X[9] <= 20.7\nmse = 11.5775\nsamples = 19\nvalue = 21.5789", fillcolor="#e581395e"] ;
143 -> 147 ;
148 [label="mse = 11.3299\nsamples = 13\nvalue = 22.6923", fillcolor="#e5813964"] ;
147 -> 148 ;
149 [label="mse = 3.6089\nsamples = 6\nvalue = 19.1667", fillcolor="#e5813950"] ;
147 -> 149 ;
150 [label="mse = 204.49\nsamples = 2\nvalue = 35.7", fillcolor="#e58139ae"] ;
140 -> 150 ;
151 [label="mse = 0.0\nsamples = 3\nvalue = 50.0", fillcolor="#e58139ff"] ;
117 -> 151 ;
152 [label="X[11] <= 19.645\nmse = 23.9032\nsamples = 85\nvalue = 13.3529", fillcolor="#e581392f"] ;
116 -> 152 ;
153 [label="X[3] <= 0.755\nmse = 16.4828\nsamples = 46\nvalue = 16.6022", fillcolor="#e5813942"] ;
152 -> 153 ;
154 [label="X[5] <= 91.85\nmse = 13.8758\nsamples = 38\nvalue = 15.6947", fillcolor="#e581393d"] ;
153 -> 154 ;
155 [label="X[11] <= 14.26\nmse = 18.855\nsamples = 16\nvalue = 17.8", fillcolor="#e5813949"] ;
154 -> 155 ;
156 [label="X[6] <= 1.6827\nmse = 7.912\nsamples = 5\nvalue = 22.2", fillcolor="#e5813961"] ;
155 -> 156 ;
157 [label="mse = 0.0\nsamples = 1\nvalue = 27.5", fillcolor="#e5813980"] ;
156 -> 157 ;
158 [label="X[3] <= 0.7155\nmse = 1.1119\nsamples = 4\nvalue = 20.875", fillcolor="#e581395a"] ;
156 -> 158 ;
159 [label="mse = 0.1225\nsamples = 2\nvalue = 19.85", fillcolor="#e5813954"] ;
158 -> 159 ;
160 [label="mse = -0.0\nsamples = 2\nvalue = 21.9", fillcolor="#e5813960"] ;
158 -> 160 ;
161 [label="X[3] <= 0.6895\nmse = 11.0291\nsamples = 11\nvalue = 15.8", fillcolor="#e581393d"] ;
155 -> 161 ;
162 [label="mse = 0.0\nsamples = 1\nvalue = 10.9", fillcolor="#e5813921"] ;
161 -> 162 ;
163 [label="X[6] <= 2.2418\nmse = 9.4909\nsamples = 10\nvalue = 16.29", fillcolor="#e5813940"] ;
161 -> 163 ;
164 [label="mse = 0.0\nsamples = 1\nvalue = 23.2", fillcolor="#e5813967"] ;
163 -> 164 ;
165 [label="mse = 4.6506\nsamples = 9\nvalue = 15.5222", fillcolor="#e581393c"] ;
163 -> 165 ;
166 [label="X[4] <= 7.353\nmse = 4.6869\nsamples = 22\nvalue = 14.1636", fillcolor="#e5813934"] ;
154 -> 166 ;
167 [label="X[5] <= 96.8\nmse = 4.2504\nsamples = 21\nvalue = 13.9905", fillcolor="#e5813933"] ;
166 -> 167 ;
168 [label="X[10] <= 17.085\nmse = 2.6808\nsamples = 11\nvalue = 12.7909", fillcolor="#e581392c"] ;
167 -> 168 ;
169 [label="mse = 0.5625\nsamples = 2\nvalue = 14.15", fillcolor="#e5813934"] ;
168 -> 169 ;
170 [label="mse = 2.6499\nsamples = 9\nvalue = 12.4889", fillcolor="#e581392a"] ;
168 -> 170 ;
171 [label="X[5] <= 99.4\nmse = 2.6529\nsamples = 10\nvalue = 15.31", fillcolor="#e581393a"] ;
167 -> 171 ;
172 [label="mse = 1.7224\nsamples = 7\nvalue = 14.6571", fillcolor="#e5813937"] ;
171 -> 172 ;
173 [label="mse = 1.5089\nsamples = 3\nvalue = 16.8333", fillcolor="#e5813943"] ;
171 -> 173 ;
174 [label="mse = -0.0\nsamples = 1\nvalue = 17.8", fillcolor="#e5813949"] ;
166 -> 174 ;
175 [label="X[5] <= 88.5\nmse = 6.3761\nsamples = 8\nvalue = 20.9125", fillcolor="#e581395a"] ;
153 -> 175 ;
176 [label="mse = 1.2289\nsamples = 3\nvalue = 23.4333", fillcolor="#e5813968"] ;
175 -> 176 ;
177 [label="X[5] <= 90.0\nmse = 3.364\nsamples = 5\nvalue = 19.4", fillcolor="#e5813952"] ;
175 -> 177 ;
178 [label="mse = 0.0\nsamples = 1\nvalue = 16.8", fillcolor="#e5813943"] ;
177 -> 178 ;
179 [label="X[10] <= 379.26\nmse = 2.0925\nsamples = 4\nvalue = 20.05", fillcolor="#e5813955"] ;
177 -> 179 ;
180 [label="mse = 1.1025\nsamples = 2\nvalue = 18.85", fillcolor="#e581394e"] ;
179 -> 180 ;
181 [label="mse = 0.2025\nsamples = 2\nvalue = 21.25", fillcolor="#e581395c"] ;
179 -> 181 ;
182 [label="X[11] <= 25.735\nmse = 5.5155\nsamples = 39\nvalue = 9.5205", fillcolor="#e581391a"] ;
152 -> 182 ;
183 [label="X[6] <= 1.4058\nmse = 4.7219\nsamples = 24\nvalue = 10.525", fillcolor="#e581391f"] ;
182 -> 183 ;
184 [label="X[5] <= 99.4\nmse = 2.0469\nsamples = 4\nvalue = 12.625", fillcolor="#e581392b"] ;
183 -> 184 ;
185 [label="mse = 0.1156\nsamples = 3\nvalue = 13.4333", fillcolor="#e5813930"] ;
184 -> 185 ;
186 [label="mse = -0.0\nsamples = 1\nvalue = 10.2", fillcolor="#e581391d"] ;
184 -> 186 ;
187 [label="X[6] <= 1.4723\nmse = 4.1985\nsamples = 20\nvalue = 10.105", fillcolor="#e581391d"] ;
183 -> 187 ;
188 [label="mse = 0.0\nsamples = 1\nvalue = 5.0", fillcolor="#e5813900"] ;
187 -> 188 ;
189 [label="X[4] <= 6.392\nmse = 2.9756\nsamples = 19\nvalue = 10.3737", fillcolor="#e581391e"] ;
187 -> 189 ;
190 [label="X[4] <= 5.687\nmse = 2.6137\nsamples = 14\nvalue = 10.0357", fillcolor="#e581391d"] ;
189 -> 190 ;
191 [label="mse = 2.3747\nsamples = 6\nvalue = 10.9833", fillcolor="#e5813922"] ;
190 -> 191 ;
192 [label="mse = 1.6144\nsamples = 8\nvalue = 9.325", fillcolor="#e5813919"] ;
190 -> 192 ;
193 [label="X[10] <= 79.15\nmse = 2.7736\nsamples = 5\nvalue = 11.32", fillcolor="#e5813924"] ;
189 -> 193 ;
194 [label="mse = 2.89\nsamples = 2\nvalue = 10.1", fillcolor="#e581391d"] ;
193 -> 194 ;
195 [label="mse = 1.0422\nsamples = 3\nvalue = 12.1333", fillcolor="#e5813928"] ;
193 -> 195 ;
196 [label="X[6] <= 1.5891\nmse = 2.5878\nsamples = 15\nvalue = 7.9133", fillcolor="#e5813911"] ;
182 -> 196 ;
197 [label="X[4] <= 4.826\nmse = 3.0967\nsamples = 7\nvalue = 7.2571", fillcolor="#e581390d"] ;
196 -> 197 ;
198 [label="mse = 0.7225\nsamples = 2\nvalue = 9.65", fillcolor="#e581391a"] ;
197 -> 198 ;
199 [label="X[4] <= 5.365\nmse = 0.84\nsamples = 5\nvalue = 6.3", fillcolor="#e5813907"] ;
197 -> 199 ;
200 [label="mse = 0.01\nsamples = 2\nvalue = 7.3", fillcolor="#e581390d"] ;
199 -> 200 ;
201 [label="mse = 0.2822\nsamples = 3\nvalue = 5.6333", fillcolor="#e5813904"] ;
199 -> 201 ;
202 [label="X[4] <= 6.293\nmse = 1.4361\nsamples = 8\nvalue = 8.4875", fillcolor="#e5813914"] ;
196 -> 202 ;
203 [label="X[3] <= 0.686\nmse = 1.3322\nsamples = 6\nvalue = 8.8667", fillcolor="#e5813916"] ;
202 -> 203 ;
204 [label="mse = 0.0\nsamples = 1\nvalue = 10.4", fillcolor="#e581391f"] ;
203 -> 204 ;
205 [label="X[4] <= 4.6995\nmse = 1.0344\nsamples = 5\nvalue = 8.56", fillcolor="#e5813914"] ;
203 -> 205 ;
206 [label="mse = 0.0\nsamples = 1\nvalue = 7.0", fillcolor="#e581390b"] ;
205 -> 206 ;
207 [label="mse = 0.5325\nsamples = 4\nvalue = 8.95", fillcolor="#e5813916"] ;
205 -> 207 ;
208 [label="mse = 0.0225\nsamples = 2\nvalue = 7.35", fillcolor="#e581390d"] ;
202 -> 208 ;
}