digraph Tree {
node [shape=box] ;
0 [label="Item_Outlet_Sales <= 489.0301\nimpurity = 0.5318\nsamples = 8523\nvalue = [1083, 5577, 928, 935]"] ;
1 [label="Item_Outlet_Sales <= 259.3291\nimpurity = 0.4621\nsamples = 1227\nvalue = [848, 290, 81, 8]"] ;
0 -> 1 [labeldistance=2.5, labelangle=45, headlabel="True"] ;
2 [label="Item_Outlet_Sales <= 167.1158\nimpurity = 0.2515\nsamples = 637\nvalue = [547, 61, 28, 1]"] ;
1 -> 2 ;
3 [label="Item_Outlet_Sales <= 68.5774\nimpurity = 0.1362\nsamples = 333\nvalue = [309, 15, 9, 0]"] ;
2 -> 3 ;
4 [label="impurity = 0.0\nsamples = 61\nvalue = [61, 0, 0, 0]"] ;
3 -> 4 ;
5 [label="Item_Outlet_Sales <= 69.909\nimpurity = 0.1645\nsamples = 272\nvalue = [248, 15, 9, 0]"] ;
3 -> 5 ;
6 [label="impurity = 0.0\nsamples = 1\nvalue = [0, 0, 1, 0]"] ;
5 -> 6 ;
7 [label="Item_Outlet_Sales <= 78.8973\nimpurity = 0.1586\nsamples = 271\nvalue = [248, 15, 8, 0]"] ;
5 -> 7 ;
8 [label="Item_Outlet_Sales <= 77.8986\nimpurity = 0.3378\nsamples = 15\nvalue = [12, 1, 2, 0]"] ;
7 -> 8 ;
9 [label="Item_Outlet_Sales <= 75.5683\nimpurity = 0.2722\nsamples = 13\nvalue = [11, 1, 1, 0]"] ;
8 -> 9 ;
10 [label="Item_Outlet_Sales <= 72.5722\nimpurity = 0.2188\nsamples = 8\nvalue = [7, 1, 0, 0]"] ;
9 -> 10 ;
11 [label="impurity = 0.0\nsamples = 3\nvalue = [3, 0, 0, 0]"] ;
10 -> 11 ;
12 [label="Item_Outlet_Sales <= 73.9038\nimpurity = 0.32\nsamples = 5\nvalue = [4, 1, 0, 0]"] ;
10 -> 12 ;
13 [label="impurity = 0.4444\nsamples = 3\nvalue = [2, 1, 0, 0]"] ;
12 -> 13 ;
14 [label="impurity = 0.0\nsamples = 2\nvalue = [2, 0, 0, 0]"] ;
12 -> 14 ;
15 [label="Item_Outlet_Sales <= 76.567\nimpurity = 0.32\nsamples = 5\nvalue = [4, 0, 1, 0]"] ;
9 -> 15 ;
16 [label="impurity = 0.375\nsamples = 4\nvalue = [3, 0, 1, 0]"] ;
15 -> 16 ;
17 [label="impurity = 0.0\nsamples = 1\nvalue = [1, 0, 0, 0]"] ;
15 -> 17 ;
18 [label="impurity = 0.5\nsamples = 2\nvalue = [1, 0, 1, 0]"] ;
8 -> 18 ;
19 [label="Item_Outlet_Sales <= 99.5371\nimpurity = 0.1466\nsamples = 256\nvalue = [236, 14, 6, 0]"] ;
7 -> 19 ;
20 [label="impurity = 0.0\nsamples = 46\nvalue = [46, 0, 0, 0]"] ;
19 -> 20 ;
21 [label="Item_Outlet_Sales <= 100.5358\nimpurity = 0.1761\nsamples = 210\nvalue = [190, 14, 6, 0]"] ;
19 -> 21 ;
22 [label="impurity = 0.0\nsamples = 1\nvalue = [0, 1, 0, 0]"] ;
21 -> 22 ;
23 [label="Item_Outlet_Sales <= 102.2003\nimpurity = 0.1689\nsamples = 209\nvalue = [190, 13, 6, 0]"] ;
21 -> 23 ;
24 [label="Item_Outlet_Sales <= 101.5345\nimpurity = 0.5\nsamples = 6\nvalue = [4, 1, 1, 0]"] ;
23 -> 24 ;
25 [label="impurity = 0.0\nsamples = 4\nvalue = [4, 0, 0, 0]"] ;
24 -> 25 ;
26 [label="impurity = 0.5\nsamples = 2\nvalue = [0, 1, 1, 0]"] ;
24 -> 26 ;
27 [label="Item_Outlet_Sales <= 126.1691\nimpurity = 0.1564\nsamples = 203\nvalue = [186, 12, 5, 0]"] ;
23 -> 27 ;
28 [label="Item_Outlet_Sales <= 114.1847\nimpurity = 0.0962\nsamples = 80\nvalue = [76, 2, 2, 0]"] ;
27 -> 28 ;
29 [label="Item_Outlet_Sales <= 113.5189\nimpurity = 0.1482\nsamples = 38\nvalue = [35, 2, 1, 0]"] ;
28 -> 29 ;
30 [label="Item_Outlet_Sales <= 111.5215\nimpurity = 0.1094\nsamples = 35\nvalue = [33, 1, 1, 0]"] ;
29 -> 30 ;
31 [label="Item_Outlet_Sales <= 106.8609\nimpurity = 0.0713\nsamples = 27\nvalue = [26, 0, 1, 0]"] ;
30 -> 31 ;
32 [label="Item_Outlet_Sales <= 105.1964\nimpurity = 0.18\nsamples = 10\nvalue = [9, 0, 1, 0]"] ;
31 -> 32 ;
33 [label="impurity = 0.0\nsamples = 7\nvalue = [7, 0, 0, 0]"] ;
32 -> 33 ;
34 [label="impurity = 0.4444\nsamples = 3\nvalue = [2, 0, 1, 0]"] ;
32 -> 34 ;
35 [label="impurity = 0.0\nsamples = 17\nvalue = [17, 0, 0, 0]"] ;
31 -> 35 ;
36 [label="Item_Outlet_Sales <= 112.5202\nimpurity = 0.2188\nsamples = 8\nvalue = [7, 1, 0, 0]"] ;
30 -> 36 ;
37 [label="impurity = 0.32\nsamples = 5\nvalue = [4, 1, 0, 0]"] ;
36 -> 37 ;
38 [label="impurity = 0.0\nsamples = 3\nvalue = [3, 0, 0, 0]"] ;
36 -> 38 ;
39 [label="impurity = 0.4444\nsamples = 3\nvalue = [2, 1, 0, 0]"] ;
29 -> 39 ;
40 [label="Item_Outlet_Sales <= 123.5059\nimpurity = 0.0465\nsamples = 42\nvalue = [41, 0, 1, 0]"] ;
28 -> 40 ;
41 [label="impurity = 0.0\nsamples = 32\nvalue = [32, 0, 0, 0]"] ;
40 -> 41 ;
42 [label="Item_Outlet_Sales <= 124.1717\nimpurity = 0.18\nsamples = 10\nvalue = [9, 0, 1, 0]"] ;
40 -> 42 ;
43 [label="impurity = 0.2449\nsamples = 7\nvalue = [6, 0, 1, 0]"] ;
42 -> 43 ;
44 [label="impurity = 0.0\nsamples = 3\nvalue = [3, 0, 0, 0]"] ;
42 -> 44 ;
45 [label="Item_Outlet_Sales <= 126.8349\nimpurity = 0.193\nsamples = 123\nvalue = [110, 10, 3, 0]"] ;
27 -> 45 ;
46 [label="impurity = 0.5\nsamples = 6\nvalue = [4, 1, 1, 0]"] ;
45 -> 46 ;
47 [label="Item_Outlet_Sales <= 131.4955\nimpurity = 0.173\nsamples = 117\nvalue = [106, 9, 2, 0]"] ;
45 -> 47 ;
48 [label="impurity = 0.0\nsamples = 13\nvalue = [13, 0, 0, 0]"] ;
47 -> 48 ;
49 [label="Item_Outlet_Sales <= 134.8245\nimpurity = 0.1925\nsamples = 104\nvalue = [93, 9, 2, 0]"] ;
47 -> 49 ;
50 [label="Item_Outlet_Sales <= 132.4942\nimpurity = 0.64\nsamples = 5\nvalue = [2, 2, 1, 0]"] ;
49 -> 50 ;
51 [label="impurity = 0.4444\nsamples = 3\nvalue = [2, 0, 1, 0]"] ;
50 -> 51 ;
52 [label="impurity = 0.0\nsamples = 2\nvalue = [0, 2, 0, 0]"] ;
50 -> 52 ;
53 [label="Item_Outlet_Sales <= 164.1197\nimpurity = 0.15\nsamples = 99\nvalue = [91, 7, 1, 0]"] ;
49 -> 53 ;
54 [label="Item_Outlet_Sales <= 162.1223\nimpurity = 0.1671\nsamples = 88\nvalue = [80, 7, 1, 0]"] ;
53 -> 54 ;
55 [label="Item_Outlet_Sales <= 154.7985\nimpurity = 0.1371\nsamples = 82\nvalue = [76, 5, 1, 0]"] ;
54 -> 55 ;
56 [label="Item_Outlet_Sales <= 154.1327\nimpurity = 0.1801\nsamples = 61\nvalue = [55, 5, 1, 0]"] ;
55 -> 56 ;
57 [label="Item_Outlet_Sales <= 150.1379\nimpurity = 0.1284\nsamples = 58\nvalue = [54, 4, 0, 0]"] ;
56 -> 57 ;
58 [label="Item_Outlet_Sales <= 149.4721\nimpurity = 0.1761\nsamples = 41\nvalue = [37, 4, 0, 0]"] ;
57 -> 58 ;
59 [label="Item_Outlet_Sales <= 146.1431\nimpurity = 0.149\nsamples = 37\nvalue = [34, 3, 0, 0]"] ;
58 -> 59 ;
60 [label="Item_Outlet_Sales <= 140.4838\nimpurity = 0.1975\nsamples = 27\nvalue = [24, 3, 0, 0]"] ;
59 -> 60 ;
61 [label="impurity = 0.0\nsamples = 7\nvalue = [7, 0, 0, 0]"] ;
60 -> 61 ;
62 [label="Item_Outlet_Sales <= 141.4825\nimpurity = 0.255\nsamples = 20\nvalue = [17, 3, 0, 0]"] ;
60 -> 62 ;
63 [label="impurity = 0.0\nsamples = 1\nvalue = [0, 1, 0, 0]"] ;
62 -> 63 ;
64 [label="Item_Outlet_Sales <= 143.4799\nimpurity = 0.1884\nsamples = 19\nvalue = [17, 2, 0, 0]"] ;
62 -> 64 ;
65 [label="impurity = 0.0\nsamples = 6\nvalue = [6, 0, 0, 0]"] ;
64 -> 65 ;
66 [label="Item_Outlet_Sales <= 145.4773\nimpurity = 0.2604\nsamples = 13\nvalue = [11, 2, 0, 0]"] ;
64 -> 66 ;
67 [label="Item_Outlet_Sales <= 144.1457\nimpurity = 0.2188\nsamples = 8\nvalue = [7, 1, 0, 0]"] ;
66 -> 67 ;
68 [label="impurity = 0.2778\nsamples = 6\nvalue = [5, 1, 0, 0]"] ;
67 -> 68 ;
69 [label="impurity = 0.0\nsamples = 2\nvalue = [2, 0, 0, 0]"] ;
67 -> 69 ;
70 [label="impurity = 0.32\nsamples = 5\nvalue = [4, 1, 0, 0]"] ;
66 -> 70 ;
71 [label="impurity = 0.0\nsamples = 10\nvalue = [10, 0, 0, 0]"] ;
59 -> 71 ;
72 [label="impurity = 0.375\nsamples = 4\nvalue = [3, 1, 0, 0]"] ;
58 -> 72 ;
73 [label="impurity = 0.0\nsamples = 17\nvalue = [17, 0, 0, 0]"] ;
57 -> 73 ;
74 [label="impurity = 0.6667\nsamples = 3\nvalue = [1, 1, 1, 0]"] ;
56 -> 74 ;
75 [label="impurity = 0.0\nsamples = 21\nvalue = [21, 0, 0, 0]"] ;
55 -> 75 ;
76 [label="Item_Outlet_Sales <= 163.121\nimpurity = 0.4444\nsamples = 6\nvalue = [4, 2, 0, 0]"] ;
54 -> 76 ;
77 [label="impurity = 0.4444\nsamples = 3\nvalue = [2, 1, 0, 0]"] ;
76 -> 77 ;
78 [label="impurity = 0.4444\nsamples = 3\nvalue = [2, 1, 0, 0]"] ;
76 -> 78 ;
79 [label="impurity = 0.0\nsamples = 11\nvalue = [11, 0, 0, 0]"] ;
53 -> 79 ;
80 [label="Item_Outlet_Sales <= 230.0339\nimpurity = 0.3603\nsamples = 304\nvalue = [238, 46, 19, 1]"] ;
2 -> 80 ;
81 [label="Item_Outlet_Sales <= 174.1067\nimpurity = 0.3181\nsamples = 230\nvalue = [187, 31, 12, 0]"] ;
80 -> 81 ;
82 [label="Item_Outlet_Sales <= 172.7751\nimpurity = 0.4412\nsamples = 31\nvalue = [22, 7, 2, 0]"] ;
81 -> 82 ;
83 [label="Item_Outlet_Sales <= 168.1145\nimpurity = 0.3328\nsamples = 25\nvalue = [20, 4, 1, 0]"] ;
82 -> 83 ;
84 [label="impurity = 0.56\nsamples = 5\nvalue = [3, 1, 1, 0]"] ;
83 -> 84 ;
85 [label="Item_Outlet_Sales <= 171.4435\nimpurity = 0.255\nsamples = 20\nvalue = [17, 3, 0, 0]"] ;
83 -> 85 ;
86 [label="Item_Outlet_Sales <= 170.1119\nimpurity = 0.1528\nsamples = 12\nvalue = [11, 1, 0, 0]"] ;
85 -> 86 ;
87 [label="Item_Outlet_Sales <= 169.4461\nimpurity = 0.32\nsamples = 5\nvalue = [4, 1, 0, 0]"] ;
86 -> 87 ;
88 [label="impurity = 0.0\nsamples = 3\nvalue = [3, 0, 0, 0]"] ;
87 -> 88 ;
89 [label="impurity = 0.5\nsamples = 2\nvalue = [1, 1, 0, 0]"] ;
87 -> 89 ;
90 [label="impurity = 0.0\nsamples = 7\nvalue = [7, 0, 0, 0]"] ;
86 -> 90 ;
91 [label="Item_Outlet_Sales <= 172.1093\nimpurity = 0.375\nsamples = 8\nvalue = [6, 2, 0, 0]"] ;
85 -> 91 ;
92 [label="impurity = 0.4082\nsamples = 7\nvalue = [5, 2, 0, 0]"] ;
91 -> 92 ;
93 [label="impurity = 0.0\nsamples = 1\nvalue = [1, 0, 0, 0]"] ;
91 -> 93 ;
94 [label="Item_Outlet_Sales <= 173.4409\nimpurity = 0.6111\nsamples = 6\nvalue = [2, 3, 1, 0]"] ;
82 -> 94 ;
95 [label="impurity = 0.64\nsamples = 5\nvalue = [2, 2, 1, 0]"] ;
94 -> 95 ;
96 [label="impurity = 0.0\nsamples = 1\nvalue = [0, 1, 0, 0]"] ;
94 -> 96 ;
97 [label="Item_Outlet_Sales <= 180.7647\nimpurity = 0.2954\nsamples = 199\nvalue = [165, 24, 10, 0]"] ;
81 -> 97 ;
98 [label="Item_Outlet_Sales <= 178.1015\nimpurity = 0.1244\nsamples = 30\nvalue = [28, 2, 0, 0]"] ;
97 -> 98 ;
99 [label="Item_Outlet_Sales <= 177.4357\nimpurity = 0.18\nsamples = 20\nvalue = [18, 2, 0, 0]"] ;
98 -> 99 ;
100 [label="Item_Outlet_Sales <= 176.1041\nimpurity = 0.1049\nsamples = 18\nvalue = [17, 1, 0, 0]"] ;
99 -> 100 ;
101 [label="Item_Outlet_Sales <= 175.4383\nimpurity = 0.1653\nsamples = 11\nvalue = [10, 1, 0, 0]"] ;
100 -> 101 ;
102 [label="impurity = 0.0\nsamples = 4\nvalue = [4, 0, 0, 0]"] ;
101 -> 102 ;
103 [label="impurity = 0.2449\nsamples = 7\nvalue = [6, 1, 0, 0]"] ;
101 -> 103 ;
104 [label="impurity = 0.0\nsamples = 7\nvalue = [7, 0, 0, 0]"] ;
100 -> 104 ;
105 [label="impurity = 0.5\nsamples = 2\nvalue = [1, 1, 0, 0]"] ;
99 -> 105 ;
106 [label="impurity = 0.0\nsamples = 10\nvalue = [10, 0, 0, 0]"] ;
98 -> 106 ;
107 [label="Item_Outlet_Sales <= 181.4305\nimpurity = 0.3224\nsamples = 169\nvalue = [137, 22, 10, 0]"] ;
97 -> 107 ;
108 [label="impurity = 0.6111\nsamples = 6\nvalue = [2, 3, 1, 0]"] ;
107 -> 108 ;
109 [label="Item_Outlet_Sales <= 192.7491\nimpurity = 0.2974\nsamples = 163\nvalue = [135, 19, 9, 0]"] ;
107 -> 109 ;
110 [label="Item_Outlet_Sales <= 186.7569\nimpurity = 0.212\nsamples = 43\nvalue = [38, 2, 3, 0]"] ;
109 -> 110 ;
111 [label="Item_Outlet_Sales <= 186.0911\nimpurity = 0.3629\nsamples = 23\nvalue = [18, 2, 3, 0]"] ;
110 -> 111 ;
112 [label="Item_Outlet_Sales <= 184.0937\nimpurity = 0.277\nsamples = 19\nvalue = [16, 2, 1, 0]"] ;
111 -> 112 ;
113 [label="Item_Outlet_Sales <= 182.7621\nimpurity = 0.46\nsamples = 10\nvalue = [7, 2, 1, 0]"] ;
112 -> 113 ;
114 [label="impurity = 0.0\nsamples = 4\nvalue = [4, 0, 0, 0]"] ;
113 -> 114 ;
115 [label="Item_Outlet_Sales <= 183.4279\nimpurity = 0.6111\nsamples = 6\nvalue = [3, 2, 1, 0]"] ;
113 -> 115 ;
116 [label="impurity = 0.0\nsamples = 1\nvalue = [0, 1, 0, 0]"] ;
115 -> 116 ;
117 [label="impurity = 0.56\nsamples = 5\nvalue = [3, 1, 1, 0]"] ;
115 -> 117 ;
118 [label="impurity = 0.0\nsamples = 9\nvalue = [9, 0, 0, 0]"] ;
112 -> 118 ;
119 [label="impurity = 0.5\nsamples = 4\nvalue = [2, 0, 2, 0]"] ;
111 -> 119 ;
120 [label="impurity = 0.0\nsamples = 20\nvalue = [20, 0, 0, 0]"] ;
110 -> 120 ;
121 [label="Item_Outlet_Sales <= 211.0586\nimpurity = 0.324\nsamples = 120\nvalue = [97, 17, 6, 0]"] ;
109 -> 121 ;
122 [label="Item_Outlet_Sales <= 199.0742\nimpurity = 0.4178\nsamples = 60\nvalue = [44, 12, 4, 0]"] ;
121 -> 122 ;
123 [label="Item_Outlet_Sales <= 195.0794\nimpurity = 0.2378\nsamples = 29\nvalue = [25, 4, 0, 0]"] ;
122 -> 123 ;
124 [label="Item_Outlet_Sales <= 193.4149\nimpurity = 0.4628\nsamples = 11\nvalue = [7, 4, 0, 0]"] ;
123 -> 124 ;
125 [label="impurity = 0.5\nsamples = 4\nvalue = [2, 2, 0, 0]"] ;
124 -> 125 ;
126 [label="Item_Outlet_Sales <= 194.0807\nimpurity = 0.4082\nsamples = 7\nvalue = [5, 2, 0, 0]"] ;
124 -> 126 ;
127 [label="impurity = 0.0\nsamples = 2\nvalue = [2, 0, 0, 0]"] ;
126 -> 127 ;
128 [label="impurity = 0.48\nsamples = 5\nvalue = [3, 2, 0, 0]"] ;
126 -> 128 ;
129 [label="impurity = 0.0\nsamples = 18\nvalue = [18, 0, 0, 0]"] ;
123 -> 129 ;
130 [label="Item_Outlet_Sales <= 201.7374\nimpurity = 0.5411\nsamples = 31\nvalue = [19, 8, 4, 0]"] ;
122 -> 130 ;
131 [label="Item_Outlet_Sales <= 200.4058\nimpurity = 0.6531\nsamples = 7\nvalue = [2, 2, 3, 0]"] ;
130 -> 131 ;
132 [label="impurity = 0.6111\nsamples = 6\nvalue = [2, 1, 3, 0]"] ;
131 -> 132 ;
133 [label="impurity = 0.0\nsamples = 1\nvalue = [0, 1, 0, 0]"] ;
131 -> 133 ;
134 [label="Item_Outlet_Sales <= 209.3941\nimpurity = 0.434\nsamples = 24\nvalue = [17, 6, 1, 0]"] ;
130 -> 134 ;
135 [label="Item_Outlet_Sales <= 204.4006\nimpurity = 0.3806\nsamples = 17\nvalue = [13, 3, 1, 0]"] ;
134 -> 135 ;
136 [label="Item_Outlet_Sales <= 203.069\nimpurity = 0.4063\nsamples = 8\nvalue = [6, 1, 1, 0]"] ;
135 -> 136 ;
137 [label="impurity = 0.375\nsamples = 4\nvalue = [3, 1, 0, 0]"] ;
136 -> 137 ;
138 [label="impurity = 0.375\nsamples = 4\nvalue = [3, 0, 1, 0]"] ;
136 -> 138 ;
139 [label="Item_Outlet_Sales <= 205.7322\nimpurity = 0.3457\nsamples = 9\nvalue = [7, 2, 0, 0]"] ;
135 -> 139 ;
140 [label="impurity = 0.4444\nsamples = 3\nvalue = [2, 1, 0, 0]"] ;
139 -> 140 ;
141 [label="Item_Outlet_Sales <= 207.3967\nimpurity = 0.2778\nsamples = 6\nvalue = [5, 1, 0, 0]"] ;
139 -> 141 ;
142 [label="impurity = 0.0\nsamples = 2\nvalue = [2, 0, 0, 0]"] ;
141 -> 142 ;
143 [label="Item_Outlet_Sales <= 208.3954\nimpurity = 0.375\nsamples = 4\nvalue = [3, 1, 0, 0]"] ;
141 -> 143 ;
144 [label="impurity = 0.4444\nsamples = 3\nvalue = [2, 1, 0, 0]"] ;
143 -> 144 ;
145 [label="impurity = 0.0\nsamples = 1\nvalue = [1, 0, 0, 0]"] ;
143 -> 145 ;
146 [label="Item_Outlet_Sales <= 210.0599\nimpurity = 0.4898\nsamples = 7\nvalue = [4, 3, 0, 0]"] ;
134 -> 146 ;
147 [label="impurity = 0.4444\nsamples = 3\nvalue = [1, 2, 0, 0]"] ;
146 -> 147 ;
148 [label="impurity = 0.375\nsamples = 4\nvalue = [3, 1, 0, 0]"] ;
146 -> 148 ;
149 [label="Item_Outlet_Sales <= 219.3811\nimpurity = 0.2117\nsamples = 60\nvalue = [53, 5, 2, 0]"] ;
121 -> 149 ;
150 [label="impurity = 0.0\nsamples = 24\nvalue = [24, 0, 0, 0]"] ;
149 -> 150 ;
151 [label="Item_Outlet_Sales <= 228.0365\nimpurity = 0.3287\nsamples = 36\nvalue = [29, 5, 2, 0]"] ;
149 -> 151 ;
152 [label="Item_Outlet_Sales <= 227.0378\nimpurity = 0.4115\nsamples = 27\nvalue = [20, 5, 2, 0]"] ;
151 -> 152 ;
153 [label="Item_Outlet_Sales <= 223.043\nimpurity = 0.3438\nsamples = 24\nvalue = [19, 4, 1, 0]"] ;
152 -> 153 ;
154 [label="Item_Outlet_Sales <= 220.3798\nimpurity = 0.42\nsamples = 10\nvalue = [7, 3, 0, 0]"] ;
153 -> 154 ;
155 [label="impurity = 0.5\nsamples = 2\nvalue = [1, 1, 0, 0]"] ;
154 -> 155 ;
156 [label="Item_Outlet_Sales <= 222.0443\nimpurity = 0.375\nsamples = 8\nvalue = [6, 2, 0, 0]"] ;
154 -> 156 ;
157 [label="Item_Outlet_Sales <= 221.3785\nimpurity = 0.32\nsamples = 5\nvalue = [4, 1, 0, 0]"] ;
156 -> 157 ;
158 [label="impurity = 0.375\nsamples = 4\nvalue = [3, 1, 0, 0]"] ;
157 -> 158 ;
159 [label="impurity = 0.0\nsamples = 1\nvalue = [1, 0, 0, 0]"] ;
157 -> 159 ;
160 [label="impurity = 0.4444\nsamples = 3\nvalue = [2, 1, 0, 0]"] ;
156 -> 160 ;
161 [label="Item_Outlet_Sales <= 224.3746\nimpurity = 0.2551\nsamples = 14\nvalue = [12, 1, 1, 0]"] ;
153 -> 161 ;
162 [label="impurity = 0.34\nsamples = 10\nvalue = [8, 1, 1, 0]"] ;
161 -> 162 ;
163 [label="impurity = 0.0\nsamples = 4\nvalue = [4, 0, 0, 0]"] ;
161 -> 163 ;
164 [label="impurity = 0.6667\nsamples = 3\nvalue = [1, 1, 1, 0]"] ;
152 -> 164 ;
165 [label="impurity = 0.0\nsamples = 9\nvalue = [9, 0, 0, 0]"] ;
151 -> 165 ;
166 [label="Item_Outlet_Sales <= 256.6659\nimpurity = 0.4748\nsamples = 74\nvalue = [51, 15, 7, 1]"] ;
80 -> 166 ;
167 [label="Item_Outlet_Sales <= 255.3343\nimpurity = 0.5075\nsamples = 67\nvalue = [44, 15, 7, 1]"] ;
166 -> 167 ;
168 [label="Item_Outlet_Sales <= 247.3447\nimpurity = 0.4773\nsamples = 61\nvalue = [42, 12, 6, 1]"] ;
167 -> 168 ;
169 [label="Item_Outlet_Sales <= 246.6789\nimpurity = 0.5277\nsamples = 34\nvalue = [21, 10, 2, 1]"] ;
168 -> 169 ;
170 [label="Item_Outlet_Sales <= 244.3486\nimpurity = 0.512\nsamples = 31\nvalue = [20, 8, 2, 1]"] ;
169 -> 170 ;
171 [label="Item_Outlet_Sales <= 232.3642\nimpurity = 0.5651\nsamples = 26\nvalue = [15, 8, 2, 1]"] ;
170 -> 171 ;
172 [label="Item_Outlet_Sales <= 231.0326\nimpurity = 0.5\nsamples = 6\nvalue = [3, 3, 0, 0]"] ;
171 -> 172 ;
173 [label="impurity = 0.5\nsamples = 2\nvalue = [1, 1, 0, 0]"] ;
172 -> 173 ;
174 [label="impurity = 0.5\nsamples = 4\nvalue = [2, 2, 0, 0]"] ;
172 -> 174 ;
175 [label="Item_Outlet_Sales <= 235.3603\nimpurity = 0.565\nsamples = 20\nvalue = [12, 5, 2, 1]"] ;
171 -> 175 ;
176 [label="impurity = 0.0\nsamples = 4\nvalue = [4, 0, 0, 0]"] ;
175 -> 176 ;
177 [label="Item_Outlet_Sales <= 237.0248\nimpurity = 0.6328\nsamples = 16\nvalue = [8, 5, 2, 1]"] ;
175 -> 177 ;
178 [label="impurity = 0.0\nsamples = 1\nvalue = [0, 1, 0, 0]"] ;
177 -> 178 ;
179 [label="Item_Outlet_Sales <= 242.6841\nimpurity = 0.6222\nsamples = 15\nvalue = [8, 4, 2, 1]"] ;
177 -> 179 ;
180 [label="Item_Outlet_Sales <= 240.3538\nimpurity = 0.6173\nsamples = 9\nvalue = [5, 1, 2, 1]"] ;
179 -> 180 ;
181 [label="Item_Outlet_Sales <= 239.0222\nimpurity = 0.6111\nsamples = 6\nvalue = [3, 1, 2, 0]"] ;
180 -> 181 ;
182 [label="Item_Outlet_Sales <= 238.0235\nimpurity = 0.4444\nsamples = 3\nvalue = [2, 0, 1, 0]"] ;
181 -> 182 ;
183 [label="impurity = 0.5\nsamples = 2\nvalue = [1, 0, 1, 0]"] ;
182 -> 183 ;
184 [label="impurity = 0.0\nsamples = 1\nvalue = [1, 0, 0, 0]"] ;
182 -> 184 ;
185 [label="impurity = 0.6667\nsamples = 3\nvalue = [1, 1, 1, 0]"] ;
181 -> 185 ;
186 [label="Item_Outlet_Sales <= 241.3525\nimpurity = 0.4444\nsamples = 3\nvalue = [2, 0, 0, 1]"] ;
180 -> 186 ;
187 [label="impurity = 0.0\nsamples = 1\nvalue = [1, 0, 0, 0]"] ;
186 -> 187 ;
188 [label="Item_Outlet_Sales <= 242.0183\nimpurity = 0.5\nsamples = 2\nvalue = [1, 0, 0, 1]"] ;
186 -> 188 ;
189 [label="impurity = 0.0\nsamples = 1\nvalue = [0, 0, 0, 1]"] ;
188 -> 189 ;
190 [label="impurity = 0.0\nsamples = 1\nvalue = [1, 0, 0, 0]"] ;
188 -> 190 ;
191 [label="Item_Outlet_Sales <= 243.3499\nimpurity = 0.5\nsamples = 6\nvalue = [3, 3, 0, 0]"] ;
179 -> 191 ;
192 [label="impurity = 0.0\nsamples = 1\nvalue = [0, 1, 0, 0]"] ;
191 -> 192 ;
193 [label="impurity = 0.48\nsamples = 5\nvalue = [3, 2, 0, 0]"] ;
191 -> 193 ;
194 [label="impurity = 0.0\nsamples = 5\nvalue = [5, 0, 0, 0]"] ;
170 -> 194 ;
195 [label="impurity = 0.4444\nsamples = 3\nvalue = [1, 2, 0, 0]"] ;
169 -> 195 ;
196 [label="Item_Outlet_Sales <= 253.3369\nimpurity = 0.3676\nsamples = 27\nvalue = [21, 2, 4, 0]"] ;
168 -> 196 ;
197 [label="Item_Outlet_Sales <= 251.0066\nimpurity = 0.46\nsamples = 20\nvalue = [14, 2, 4, 0]"] ;
196 -> 197 ;
198 [label="Item_Outlet_Sales <= 249.675\nimpurity = 0.3457\nsamples = 9\nvalue = [7, 0, 2, 0]"] ;
197 -> 198 ;
199 [label="Item_Outlet_Sales <= 248.3434\nimpurity = 0.4082\nsamples = 7\nvalue = [5, 0, 2, 0]"] ;
198 -> 199 ;
200 [label="impurity = 0.4444\nsamples = 3\nvalue = [2, 0, 1, 0]"] ;
199 -> 200 ;
201 [label="impurity = 0.375\nsamples = 4\nvalue = [3, 0, 1, 0]"] ;
199 -> 201 ;
202 [label="impurity = 0.0\nsamples = 2\nvalue = [2, 0, 0, 0]"] ;
198 -> 202 ;
203 [label="Item_Outlet_Sales <= 252.3382\nimpurity = 0.5289\nsamples = 11\nvalue = [7, 2, 2, 0]"] ;
197 -> 203 ;
204 [label="impurity = 0.5\nsamples = 6\nvalue = [4, 1, 1, 0]"] ;
203 -> 204 ;
205 [label="impurity = 0.56\nsamples = 5\nvalue = [3, 1, 1, 0]"] ;
203 -> 205 ;
206 [label="impurity = 0.0\nsamples = 7\nvalue = [7, 0, 0, 0]"] ;
196 -> 206 ;
207 [label="Item_Outlet_Sales <= 256.0001\nimpurity = 0.6111\nsamples = 6\nvalue = [2, 3, 1, 0]"] ;
167 -> 207 ;
208 [label="impurity = 0.625\nsamples = 4\nvalue = [1, 2, 1, 0]"] ;
207 -> 208 ;
209 [label="impurity = 0.5\nsamples = 2\nvalue = [1, 1, 0, 0]"] ;
207 -> 209 ;
210 [label="impurity = 0.0\nsamples = 7\nvalue = [7, 0, 0, 0]"] ;
166 -> 210 ;
211 [label="Item_Outlet_Sales <= 401.1445\nimpurity = 0.5809\nsamples = 590\nvalue = [301, 229, 53, 7]"] ;
1 -> 211 ;
212 [label="Item_Outlet_Sales <= 368.1874\nimpurity = 0.5541\nsamples = 369\nvalue = [203, 137, 27, 2]"] ;
211 -> 212 ;
213 [label="Item_Outlet_Sales <= 334.8974\nimpurity = 0.5516\nsamples = 285\nvalue = [152, 114, 18, 1]"] ;
212 -> 213 ;
214 [label="Item_Outlet_Sales <= 332.9\nimpurity = 0.5342\nsamples = 194\nvalue = [110, 73, 10, 1]"] ;
213 -> 214 ;
215 [label="Item_Outlet_Sales <= 320.2498\nimpurity = 0.5363\nsamples = 192\nvalue = [108, 73, 10, 1]"] ;
214 -> 215 ;
216 [label="Item_Outlet_Sales <= 309.9299\nimpurity = 0.5397\nsamples = 163\nvalue = [93, 59, 10, 1]"] ;
215 -> 216 ;
217 [label="Item_Outlet_Sales <= 304.6035\nimpurity = 0.5615\nsamples = 124\nvalue = [66, 48, 9, 1]"] ;
216 -> 217 ;
218 [label="Item_Outlet_Sales <= 288.2914\nimpurity = 0.552\nsamples = 106\nvalue = [60, 37, 8, 1]"] ;
217 -> 218 ;
219 [label="Item_Outlet_Sales <= 281.6334\nimpurity = 0.563\nsamples = 64\nvalue = [33, 26, 5, 0]"] ;
218 -> 219 ;
220 [label="Item_Outlet_Sales <= 280.3018\nimpurity = 0.5304\nsamples = 48\nvalue = [28, 17, 3, 0]"] ;
219 -> 220 ;
221 [label="Item_Outlet_Sales <= 265.3213\nimpurity = 0.5567\nsamples = 42\nvalue = [22, 17, 3, 0]"] ;
220 -> 221 ;
222 [label="Item_Outlet_Sales <= 260.3278\nimpurity = 0.4688\nsamples = 24\nvalue = [16, 7, 1, 0]"] ;
221 -> 222 ;
223 [label="impurity = 0.48\nsamples = 5\nvalue = [2, 3, 0, 0]"] ;
222 -> 223 ;
224 [label="Item_Outlet_Sales <= 263.9897\nimpurity = 0.41\nsamples = 19\nvalue = [14, 4, 1, 0]"] ;
222 -> 224 ;
225 [label="Item_Outlet_Sales <= 261.3265\nimpurity = 0.48\nsamples = 15\nvalue = [10, 4, 1, 0]"] ;
224 -> 225 ;
226 [label="impurity = 0.0\nsamples = 2\nvalue = [2, 0, 0, 0]"] ;
225 -> 226 ;
227 [label="Item_Outlet_Sales <= 262.6581\nimpurity = 0.5207\nsamples = 13\nvalue = [8, 4, 1, 0]"] ;
225 -> 227 ;
228 [label="Item_Outlet_Sales <= 261.9923\nimpurity = 0.6111\nsamples = 6\nvalue = [3, 2, 1, 0]"] ;
227 -> 228 ;
229 [label="impurity = 0.5\nsamples = 2\nvalue = [1, 1, 0, 0]"] ;
228 -> 229 ;
230 [label="impurity = 0.625\nsamples = 4\nvalue = [2, 1, 1, 0]"] ;
228 -> 230 ;
231 [label="Item_Outlet_Sales <= 263.3239\nimpurity = 0.4082\nsamples = 7\nvalue = [5, 2, 0, 0]"] ;
227 -> 231 ;
232 [label="impurity = 0.0\nsamples = 2\nvalue = [2, 0, 0, 0]"] ;
231 -> 232 ;
233 [label="impurity = 0.48\nsamples = 5\nvalue = [3, 2, 0, 0]"] ;
231 -> 233 ;
234 [label="impurity = 0.0\nsamples = 4\nvalue = [4, 0, 0, 0]"] ;
224 -> 234 ;
235 [label="Item_Outlet_Sales <= 267.6516\nimpurity = 0.5679\nsamples = 18\nvalue = [6, 10, 2, 0]"] ;
221 -> 235 ;
236 [label="impurity = 0.64\nsamples = 5\nvalue = [1, 2, 2, 0]"] ;
235 -> 236 ;
237 [label="Item_Outlet_Sales <= 270.9806\nimpurity = 0.4734\nsamples = 13\nvalue = [5, 8, 0, 0]"] ;
235 -> 237 ;
238 [label="impurity = 0.0\nsamples = 2\nvalue = [0, 2, 0, 0]"] ;
237 -> 238 ;
239 [label="Item_Outlet_Sales <= 278.6373\nimpurity = 0.4959\nsamples = 11\nvalue = [5, 6, 0, 0]"] ;
237 -> 239 ;
240 [label="Item_Outlet_Sales <= 277.3057\nimpurity = 0.4938\nsamples = 9\nvalue = [5, 4, 0, 0]"] ;
239 -> 240 ;
241 [label="Item_Outlet_Sales <= 274.3096\nimpurity = 0.4898\nsamples = 7\nvalue = [3, 4, 0, 0]"] ;
240 -> 241 ;
242 [label="Item_Outlet_Sales <= 272.3122\nimpurity = 0.4444\nsamples = 3\nvalue = [2, 1, 0, 0]"] ;
241 -> 242 ;
243 [label="impurity = 0.5\nsamples = 2\nvalue = [1, 1, 0, 0]"] ;
242 -> 243 ;
244 [label="impurity = 0.0\nsamples = 1\nvalue = [1, 0, 0, 0]"] ;
242 -> 244 ;
245 [label="Item_Outlet_Sales <= 275.9741\nimpurity = 0.375\nsamples = 4\nvalue = [1, 3, 0, 0]"] ;
241 -> 245 ;
246 [label="impurity = 0.0\nsamples = 2\nvalue = [0, 2, 0, 0]"] ;
245 -> 246 ;
247 [label="Item_Outlet_Sales <= 276.6399\nimpurity = 0.5\nsamples = 2\nvalue = [1, 1, 0, 0]"] ;
245 -> 247 ;
248 [label="impurity = 0.0\nsamples = 1\nvalue = [1, 0, 0, 0]"] ;
247 -> 248 ;
249 [label="impurity = 0.0\nsamples = 1\nvalue = [0, 1, 0, 0]"] ;
247 -> 249 ;
250 [label="impurity = 0.0\nsamples = 2\nvalue = [2, 0, 0, 0]"] ;
240 -> 250 ;
251 [label="impurity = 0.0\nsamples = 2\nvalue = [0, 2, 0, 0]"] ;
239 -> 251 ;
252 [label="impurity = 0.0\nsamples = 6\nvalue = [6, 0, 0, 0]"] ;
220 -> 252 ;
253 [label="Item_Outlet_Sales <= 283.2979\nimpurity = 0.5703\nsamples = 16\nvalue = [5, 9, 2, 0]"] ;
219 -> 253 ;
254 [label="Item_Outlet_Sales <= 282.6321\nimpurity = 0.375\nsamples = 4\nvalue = [0, 3, 1, 0]"] ;
253 -> 254 ;
255 [label="impurity = 0.4444\nsamples = 3\nvalue = [0, 2, 1, 0]"] ;
254 -> 255 ;
256 [label="impurity = 0.0\nsamples = 1\nvalue = [0, 1, 0, 0]"] ;
254 -> 256 ;
257 [label="Item_Outlet_Sales <= 285.9611\nimpurity = 0.5694\nsamples = 12\nvalue = [5, 6, 1, 0]"] ;
253 -> 257 ;
258 [label="Item_Outlet_Sales <= 284.6295\nimpurity = 0.58\nsamples = 10\nvalue = [5, 4, 1, 0]"] ;
257 -> 258 ;
259 [label="Item_Outlet_Sales <= 283.9637\nimpurity = 0.6111\nsamples = 6\nvalue = [2, 3, 1, 0]"] ;
258 -> 259 ;
260 [label="impurity = 0.625\nsamples = 4\nvalue = [2, 1, 1, 0]"] ;
259 -> 260 ;
261 [label="impurity = 0.0\nsamples = 2\nvalue = [0, 2, 0, 0]"] ;
259 -> 261 ;
262 [label="Item_Outlet_Sales <= 285.2953\nimpurity = 0.375\nsamples = 4\nvalue = [3, 1, 0, 0]"] ;
258 -> 262 ;
263 [label="impurity = 0.4444\nsamples = 3\nvalue = [2, 1, 0, 0]"] ;
262 -> 263 ;
264 [label="impurity = 0.0\nsamples = 1\nvalue = [1, 0, 0, 0]"] ;
262 -> 264 ;
265 [label="impurity = 0.0\nsamples = 2\nvalue = [0, 2, 0, 0]"] ;
257 -> 265 ;
266 [label="Item_Outlet_Sales <= 301.9403\nimpurity = 0.5125\nsamples = 42\nvalue = [27, 11, 3, 1]"] ;
218 -> 266 ;
267 [label="Item_Outlet_Sales <= 296.6139\nimpurity = 0.4827\nsamples = 34\nvalue = [23, 8, 2, 1]"] ;
266 -> 267 ;
268 [label="Item_Outlet_Sales <= 292.2862\nimpurity = 0.5331\nsamples = 23\nvalue = [14, 7, 1, 1]"] ;
267 -> 268 ;
269 [label="Item_Outlet_Sales <= 290.6217\nimpurity = 0.375\nsamples = 12\nvalue = [9, 3, 0, 0]"] ;
268 -> 269 ;
270 [label="Item_Outlet_Sales <= 289.2901\nimpurity = 0.32\nsamples = 5\nvalue = [4, 1, 0, 0]"] ;
269 -> 270 ;
271 [label="impurity = 0.375\nsamples = 4\nvalue = [3, 1, 0, 0]"] ;
270 -> 271 ;
272 [label="impurity = 0.0\nsamples = 1\nvalue = [1, 0, 0, 0]"] ;
270 -> 272 ;
273 [label="impurity = 0.4082\nsamples = 7\nvalue = [5, 2, 0, 0]"] ;
269 -> 273 ;
274 [label="Item_Outlet_Sales <= 293.2849\nimpurity = 0.6446\nsamples = 11\nvalue = [5, 4, 1, 1]"] ;
268 -> 274 ;
275 [label="impurity = 0.0\nsamples = 1\nvalue = [0, 1, 0, 0]"] ;
274 -> 275 ;
276 [label="Item_Outlet_Sales <= 293.9507\nimpurity = 0.64\nsamples = 10\nvalue = [5, 3, 1, 1]"] ;
274 -> 276 ;
277 [label="impurity = 0.6667\nsamples = 3\nvalue = [1, 1, 0, 1]"] ;
276 -> 277 ;
278 [label="Item_Outlet_Sales <= 294.9494\nimpurity = 0.5714\nsamples = 7\nvalue = [4, 2, 1, 0]"] ;
276 -> 278 ;
279 [label="impurity = 0.0\nsamples = 2\nvalue = [2, 0, 0, 0]"] ;
278 -> 279 ;
280 [label="Item_Outlet_Sales <= 295.9481\nimpurity = 0.64\nsamples = 5\nvalue = [2, 2, 1, 0]"] ;
278 -> 280 ;
281 [label="impurity = 0.6667\nsamples = 3\nvalue = [1, 1, 1, 0]"] ;
280 -> 281 ;
282 [label="impurity = 0.5\nsamples = 2\nvalue = [1, 1, 0, 0]"] ;
280 -> 282 ;
283 [label="Item_Outlet_Sales <= 298.9442\nimpurity = 0.314\nsamples = 11\nvalue = [9, 1, 1, 0]"] ;
267 -> 283 ;
284 [label="Item_Outlet_Sales <= 297.6126\nimpurity = 0.2449\nsamples = 7\nvalue = [6, 1, 0, 0]"] ;
283 -> 284 ;
285 [label="impurity = 0.2778\nsamples = 6\nvalue = [5, 1, 0, 0]"] ;
284 -> 285 ;
286 [label="impurity = 0.0\nsamples = 1\nvalue = [1, 0, 0, 0]"] ;
284 -> 286 ;
287 [label="Item_Outlet_Sales <= 300.2758\nimpurity = 0.375\nsamples = 4\nvalue = [3, 0, 1, 0]"] ;
283 -> 287 ;
288 [label="impurity = 0.5\nsamples = 2\nvalue = [1, 0, 1, 0]"] ;
287 -> 288 ;
289 [label="impurity = 0.0\nsamples = 2\nvalue = [2, 0, 0, 0]"] ;
287 -> 289 ;
290 [label="Item_Outlet_Sales <= 303.2719\nimpurity = 0.5938\nsamples = 8\nvalue = [4, 3, 1, 0]"] ;
266 -> 290 ;
291 [label="impurity = 0.0\nsamples = 1\nvalue = [0, 1, 0, 0]"] ;
290 -> 291 ;
292 [label="impurity = 0.5714\nsamples = 7\nvalue = [4, 2, 1, 0]"] ;
290 -> 292 ;
293 [label="Item_Outlet_Sales <= 309.2641\nimpurity = 0.5123\nsamples = 18\nvalue = [6, 11, 1, 0]"] ;
217 -> 293 ;
294 [label="Item_Outlet_Sales <= 306.9338\nimpurity = 0.48\nsamples = 15\nvalue = [6, 9, 0, 0]"] ;
293 -> 294 ;
295 [label="Item_Outlet_Sales <= 305.9351\nimpurity = 0.32\nsamples = 5\nvalue = [1, 4, 0, 0]"] ;
294 -> 295 ;
296 [label="impurity = 0.0\nsamples = 1\nvalue = [0, 1, 0, 0]"] ;
295 -> 296 ;
297 [label="impurity = 0.375\nsamples = 4\nvalue = [1, 3, 0, 0]"] ;
295 -> 297 ;
298 [label="Item_Outlet_Sales <= 308.2654\nimpurity = 0.5\nsamples = 10\nvalue = [5, 5, 0, 0]"] ;
294 -> 298 ;
299 [label="impurity = 0.375\nsamples = 4\nvalue = [3, 1, 0, 0]"] ;
298 -> 299 ;
300 [label="impurity = 0.4444\nsamples = 6\nvalue = [2, 4, 0, 0]"] ;
298 -> 300 ;
301 [label="impurity = 0.4444\nsamples = 3\nvalue = [0, 2, 1, 0]"] ;
293 -> 301 ;
302 [label="Item_Outlet_Sales <= 313.5918\nimpurity = 0.4405\nsamples = 39\nvalue = [27, 11, 1, 0]"] ;
216 -> 302 ;
303 [label="Item_Outlet_Sales <= 312.5931\nimpurity = 0.2449\nsamples = 14\nvalue = [12, 2, 0, 0]"] ;
302 -> 303 ;
304 [label="Item_Outlet_Sales <= 311.9273\nimpurity = 0.3457\nsamples = 9\nvalue = [7, 2, 0, 0]"] ;
303 -> 304 ;
305 [label="Item_Outlet_Sales <= 310.9286\nimpurity = 0.2188\nsamples = 8\nvalue = [7, 1, 0, 0]"] ;
304 -> 305 ;
306 [label="impurity = 0.0\nsamples = 1\nvalue = [1, 0, 0, 0]"] ;
305 -> 306 ;
307 [label="impurity = 0.2449\nsamples = 7\nvalue = [6, 1, 0, 0]"] ;
305 -> 307 ;
308 [label="impurity = 0.0\nsamples = 1\nvalue = [0, 1, 0, 0]"] ;
304 -> 308 ;
309 [label="impurity = 0.0\nsamples = 5\nvalue = [5, 0, 0, 0]"] ;
303 -> 309 ;
310 [label="Item_Outlet_Sales <= 315.2563\nimpurity = 0.5088\nsamples = 25\nvalue = [15, 9, 1, 0]"] ;
302 -> 310 ;
311 [label="impurity = 0.48\nsamples = 5\nvalue = [2, 3, 0, 0]"] ;
310 -> 311 ;
312 [label="Item_Outlet_Sales <= 318.5853\nimpurity = 0.485\nsamples = 20\nvalue = [13, 6, 1, 0]"] ;
310 -> 312 ;
313 [label="Item_Outlet_Sales <= 316.5879\nimpurity = 0.375\nsamples = 12\nvalue = [9, 3, 0, 0]"] ;
312 -> 313 ;
314 [label="impurity = 0.0\nsamples = 1\nvalue = [1, 0, 0, 0]"] ;
313 -> 314 ;
315 [label="Item_Outlet_Sales <= 317.2537\nimpurity = 0.3967\nsamples = 11\nvalue = [8, 3, 0, 0]"] ;
313 -> 315 ;
316 [label="impurity = 0.375\nsamples = 8\nvalue = [6, 2, 0, 0]"] ;
315 -> 316 ;
317 [label="impurity = 0.4444\nsamples = 3\nvalue = [2, 1, 0, 0]"] ;
315 -> 317 ;
318 [label="impurity = 0.5938\nsamples = 8\nvalue = [4, 3, 1, 0]"] ;
312 -> 318 ;
319 [label="Item_Outlet_Sales <= 326.9078\nimpurity = 0.4994\nsamples = 29\nvalue = [15, 14, 0, 0]"] ;
215 -> 319 ;
320 [label="Item_Outlet_Sales <= 321.5814\nimpurity = 0.48\nsamples = 15\nvalue = [6, 9, 0, 0]"] ;
319 -> 320 ;
321 [label="impurity = 0.0\nsamples = 1\nvalue = [0, 1, 0, 0]"] ;
320 -> 321 ;
322 [label="Item_Outlet_Sales <= 322.5801\nimpurity = 0.4898\nsamples = 14\nvalue = [6, 8, 0, 0]"] ;
320 -> 322 ;
323 [label="impurity = 0.4444\nsamples = 3\nvalue = [2, 1, 0, 0]"] ;
322 -> 323 ;
324 [label="Item_Outlet_Sales <= 323.2459\nimpurity = 0.4628\nsamples = 11\nvalue = [4, 7, 0, 0]"] ;
322 -> 324 ;
325 [label="impurity = 0.0\nsamples = 1\nvalue = [0, 1, 0, 0]"] ;
324 -> 325 ;
326 [label="Item_Outlet_Sales <= 325.2433\nimpurity = 0.48\nsamples = 10\nvalue = [4, 6, 0, 0]"] ;
324 -> 326 ;
327 [label="Item_Outlet_Sales <= 324.2446\nimpurity = 0.5\nsamples = 6\nvalue = [3, 3, 0, 0]"] ;
326 -> 327 ;
328 [label="impurity = 0.48\nsamples = 5\nvalue = [2, 3, 0, 0]"] ;
327 -> 328 ;
329 [label="impurity = 0.0\nsamples = 1\nvalue = [1, 0, 0, 0]"] ;
327 -> 329 ;
330 [label="Item_Outlet_Sales <= 325.9091\nimpurity = 0.375\nsamples = 4\nvalue = [1, 3, 0, 0]"] ;
326 -> 330 ;
331 [label="impurity = 0.0\nsamples = 2\nvalue = [0, 2, 0, 0]"] ;
330 -> 331 ;
332 [label="impurity = 0.5\nsamples = 2\nvalue = [1, 1, 0, 0]"] ;
330 -> 332 ;
333 [label="Item_Outlet_Sales <= 330.9026\nimpurity = 0.4592\nsamples = 14\nvalue = [9, 5, 0, 0]"] ;
319 -> 333 ;
334 [label="Item_Outlet_Sales <= 328.2394\nimpurity = 0.2449\nsamples = 7\nvalue = [6, 1, 0, 0]"] ;
333 -> 334 ;
335 [label="impurity = 0.375\nsamples = 4\nvalue = [3, 1, 0, 0]"] ;
334 -> 335 ;
336 [label="impurity = 0.0\nsamples = 3\nvalue = [3, 0, 0, 0]"] ;
334 -> 336 ;
337 [label="impurity = 0.4898\nsamples = 7\nvalue = [3, 4, 0, 0]"] ;
333 -> 337 ;
338 [label="impurity = 0.0\nsamples = 2\nvalue = [2, 0, 0, 0]"] ;
214 -> 338 ;
339 [label="Item_Outlet_Sales <= 344.2186\nimpurity = 0.5763\nsamples = 91\nvalue = [42, 41, 8, 0]"] ;
213 -> 339 ;
340 [label="Item_Outlet_Sales <= 339.8909\nimpurity = 0.5375\nsamples = 29\nvalue = [7, 18, 4, 0]"] ;
339 -> 340 ;
341 [label="Item_Outlet_Sales <= 336.229\nimpurity = 0.568\nsamples = 13\nvalue = [6, 6, 1, 0]"] ;
340 -> 341 ;
342 [label="impurity = 0.56\nsamples = 5\nvalue = [1, 3, 1, 0]"] ;
341 -> 342 ;
343 [label="Item_Outlet_Sales <= 337.2277\nimpurity = 0.4688\nsamples = 8\nvalue = [5, 3, 0, 0]"] ;
341 -> 343 ;
344 [label="impurity = 0.0\nsamples = 1\nvalue = [1, 0, 0, 0]"] ;
343 -> 344 ;
345 [label="Item_Outlet_Sales <= 338.8922\nimpurity = 0.4898\nsamples = 7\nvalue = [4, 3, 0, 0]"] ;
343 -> 345 ;
346 [label="Item_Outlet_Sales <= 337.8935\nimpurity = 0.4444\nsamples = 3\nvalue = [2, 1, 0, 0]"] ;
345 -> 346 ;
347 [label="impurity = 0.5\nsamples = 2\nvalue = [1, 1, 0, 0]"] ;
346 -> 347 ;
348 [label="impurity = 0.0\nsamples = 1\nvalue = [1, 0, 0, 0]"] ;
346 -> 348 ;
349 [label="impurity = 0.5\nsamples = 4\nvalue = [2, 2, 0, 0]"] ;
345 -> 349 ;
350 [label="Item_Outlet_Sales <= 340.5567\nimpurity = 0.3984\nsamples = 16\nvalue = [1, 12, 3, 0]"] ;
340 -> 350 ;
351 [label="impurity = 0.0\nsamples = 3\nvalue = [0, 3, 0, 0]"] ;
350 -> 351 ;
352 [label="Item_Outlet_Sales <= 341.2225\nimpurity = 0.4615\nsamples = 13\nvalue = [1, 9, 3, 0]"] ;
350 -> 352 ;
353 [label="impurity = 0.0\nsamples = 1\nvalue = [0, 0, 1, 0]"] ;
352 -> 353 ;
354 [label="Item_Outlet_Sales <= 342.5541\nimpurity = 0.4028\nsamples = 12\nvalue = [1, 9, 2, 0]"] ;
352 -> 354 ;
355 [label="impurity = 0.0\nsamples = 4\nvalue = [0, 4, 0, 0]"] ;
354 -> 355 ;
356 [label="impurity = 0.5313\nsamples = 8\nvalue = [1, 5, 2, 0]"] ;
354 -> 356 ;
357 [label="Item_Outlet_Sales <= 353.2069\nimpurity = 0.5395\nsamples = 62\nvalue = [35, 23, 4, 0]"] ;
339 -> 357 ;
358 [label="Item_Outlet_Sales <= 345.8831\nimpurity = 0.3554\nsamples = 23\nvalue = [18, 4, 1, 0]"] ;
357 -> 358 ;
359 [label="impurity = 0.0\nsamples = 4\nvalue = [4, 0, 0, 0]"] ;
358 -> 359 ;
360 [label="Item_Outlet_Sales <= 346.8818\nimpurity = 0.41\nsamples = 19\nvalue = [14, 4, 1, 0]"] ;
358 -> 360 ;
361 [label="impurity = 0.0\nsamples = 1\nvalue = [0, 0, 1, 0]"] ;
360 -> 361 ;
362 [label="Item_Outlet_Sales <= 350.2108\nimpurity = 0.3457\nsamples = 18\nvalue = [14, 4, 0, 0]"] ;
360 -> 362 ;
363 [label="Item_Outlet_Sales <= 348.2134\nimpurity = 0.2778\nsamples = 6\nvalue = [5, 1, 0, 0]"] ;
362 -> 363 ;
364 [label="impurity = 0.32\nsamples = 5\nvalue = [4, 1, 0, 0]"] ;
363 -> 364 ;
365 [label="impurity = 0.0\nsamples = 1\nvalue = [1, 0, 0, 0]"] ;
363 -> 365 ;
366 [label="Item_Outlet_Sales <= 352.2082\nimpurity = 0.375\nsamples = 12\nvalue = [9, 3, 0, 0]"] ;
362 -> 366 ;
367 [label="impurity = 0.4082\nsamples = 7\nvalue = [5, 2, 0, 0]"] ;
366 -> 367 ;
368 [label="impurity = 0.32\nsamples = 5\nvalue = [4, 1, 0, 0]"] ;
366 -> 368 ;
369 [label="Item_Outlet_Sales <= 353.8727\nimpurity = 0.5667\nsamples = 39\nvalue = [17, 19, 3, 0]"] ;
357 -> 369 ;
370 [label="impurity = 0.0\nsamples = 4\nvalue = [0, 4, 0, 0]"] ;
369 -> 370 ;
371 [label="Item_Outlet_Sales <= 365.1913\nimpurity = 0.5731\nsamples = 35\nvalue = [17, 15, 3, 0]"] ;
369 -> 371 ;
372 [label="Item_Outlet_Sales <= 357.2017\nimpurity = 0.552\nsamples = 23\nvalue = [13, 8, 2, 0]"] ;
371 -> 372 ;
373 [label="Item_Outlet_Sales <= 354.8714\nimpurity = 0.58\nsamples = 10\nvalue = [4, 5, 1, 0]"] ;
372 -> 373 ;
374 [label="impurity = 0.4444\nsamples = 3\nvalue = [2, 1, 0, 0]"] ;
373 -> 374 ;
375 [label="Item_Outlet_Sales <= 356.203\nimpurity = 0.5714\nsamples = 7\nvalue = [2, 4, 1, 0]"] ;
373 -> 375 ;
376 [label="impurity = 0.625\nsamples = 4\nvalue = [1, 2, 1, 0]"] ;
375 -> 376 ;
377 [label="impurity = 0.4444\nsamples = 3\nvalue = [1, 2, 0, 0]"] ;
375 -> 377 ;
378 [label="Item_Outlet_Sales <= 358.8662\nimpurity = 0.4615\nsamples = 13\nvalue = [9, 3, 1, 0]"] ;
372 -> 378 ;
379 [label="impurity = 0.0\nsamples = 2\nvalue = [2, 0, 0, 0]"] ;
378 -> 379 ;
380 [label="Item_Outlet_Sales <= 364.1926\nimpurity = 0.5124\nsamples = 11\nvalue = [7, 3, 1, 0]"] ;
378 -> 380 ;
381 [label="Item_Outlet_Sales <= 361.1965\nimpurity = 0.54\nsamples = 10\nvalue = [6, 3, 1, 0]"] ;
380 -> 381 ;
382 [label="Item_Outlet_Sales <= 360.1978\nimpurity = 0.56\nsamples = 5\nvalue = [3, 1, 1, 0]"] ;
381 -> 382 ;
383 [label="impurity = 0.5\nsamples = 2\nvalue = [1, 1, 0, 0]"] ;
382 -> 383 ;
384 [label="impurity = 0.4444\nsamples = 3\nvalue = [2, 0, 1, 0]"] ;
382 -> 384 ;
385 [label="Item_Outlet_Sales <= 362.5281\nimpurity = 0.48\nsamples = 5\nvalue = [3, 2, 0, 0]"] ;
381 -> 385 ;
386 [label="impurity = 0.4444\nsamples = 3\nvalue = [2, 1, 0, 0]"] ;
385 -> 386 ;
387 [label="impurity = 0.5\nsamples = 2\nvalue = [1, 1, 0, 0]"] ;
385 -> 387 ;
388 [label="impurity = 0.0\nsamples = 1\nvalue = [1, 0, 0, 0]"] ;
380 -> 388 ;
389 [label="Item_Outlet_Sales <= 366.8558\nimpurity = 0.5417\nsamples = 12\nvalue = [4, 7, 1, 0]"] ;
371 -> 389 ;
390 [label="Item_Outlet_Sales <= 365.8571\nimpurity = 0.5313\nsamples = 8\nvalue = [2, 5, 1, 0]"] ;
389 -> 390 ;
391 [label="impurity = 0.48\nsamples = 5\nvalue = [2, 3, 0, 0]"] ;
390 -> 391 ;
392 [label="impurity = 0.4444\nsamples = 3\nvalue = [0, 2, 1, 0]"] ;
390 -> 392 ;
393 [label="impurity = 0.5\nsamples = 4\nvalue = [2, 2, 0, 0]"] ;
389 -> 393 ;
394 [label="Item_Outlet_Sales <= 370.8506\nimpurity = 0.5448\nsamples = 84\nvalue = [51, 23, 9, 1]"] ;
212 -> 394 ;
395 [label="Item_Outlet_Sales <= 369.8519\nimpurity = 0.18\nsamples = 10\nvalue = [9, 0, 1, 0]"] ;
394 -> 395 ;
396 [label="impurity = 0.0\nsamples = 5\nvalue = [5, 0, 0, 0]"] ;
395 -> 396 ;
397 [label="impurity = 0.32\nsamples = 5\nvalue = [4, 0, 1, 0]"] ;
395 -> 397 ;
398 [label="Item_Outlet_Sales <= 373.8467\nimpurity = 0.5694\nsamples = 74\nvalue = [42, 23, 8, 1]"] ;
394 -> 398 ;
399 [label="Item_Outlet_Sales <= 373.1809\nimpurity = 0.595\nsamples = 11\nvalue = [3, 6, 2, 0]"] ;
398 -> 399 ;
400 [label="Item_Outlet_Sales <= 372.1822\nimpurity = 0.6563\nsamples = 8\nvalue = [3, 3, 2, 0]"] ;
399 -> 400 ;
401 [label="impurity = 0.4444\nsamples = 3\nvalue = [1, 2, 0, 0]"] ;
400 -> 401 ;
402 [label="impurity = 0.64\nsamples = 5\nvalue = [2, 1, 2, 0]"] ;
400 -> 402 ;
403 [label="impurity = 0.0\nsamples = 3\nvalue = [0, 3, 0, 0]"] ;
399 -> 403 ;
404 [label="Item_Outlet_Sales <= 377.1757\nimpurity = 0.5346\nsamples = 63\nvalue = [39, 17, 6, 1]"] ;
398 -> 404 ;
405 [label="impurity = 0.0\nsamples = 4\nvalue = [4, 0, 0, 0]"] ;
404 -> 405 ;
406 [label="Item_Outlet_Sales <= 377.8415\nimpurity = 0.5544\nsamples = 59\nvalue = [35, 17, 6, 1]"] ;
404 -> 406 ;
407 [label="impurity = 0.625\nsamples = 4\nvalue = [1, 1, 2, 0]"] ;
406 -> 407 ;
408 [label="Item_Outlet_Sales <= 397.1497\nimpurity = 0.5276\nsamples = 55\nvalue = [34, 16, 4, 1]"] ;
406 -> 408 ;
409 [label="Item_Outlet_Sales <= 396.151\nimpurity = 0.5604\nsamples = 47\nvalue = [27, 15, 4, 1]"] ;
408 -> 409 ;
410 [label="Item_Outlet_Sales <= 378.8402\nimpurity = 0.5481\nsamples = 45\nvalue = [27, 13, 4, 1]"] ;
409 -> 410 ;
411 [label="impurity = 0.4444\nsamples = 3\nvalue = [1, 2, 0, 0]"] ;
410 -> 411 ;
412 [label="Item_Outlet_Sales <= 386.4969\nimpurity = 0.5385\nsamples = 42\nvalue = [26, 11, 4, 1]"] ;
410 -> 412 ;
413 [label="Item_Outlet_Sales <= 384.1666\nimpurity = 0.465\nsamples = 20\nvalue = [14, 3, 3, 0]"] ;
412 -> 413 ;
414 [label="Item_Outlet_Sales <= 382.835\nimpurity = 0.5816\nsamples = 14\nvalue = [8, 3, 3, 0]"] ;
413 -> 414 ;
415 [label="Item_Outlet_Sales <= 380.1718\nimpurity = 0.3704\nsamples = 9\nvalue = [7, 1, 1, 0]"] ;
414 -> 415 ;
416 [label="impurity = 0.2778\nsamples = 6\nvalue = [5, 1, 0, 0]"] ;
415 -> 416 ;
417 [label="Item_Outlet_Sales <= 381.5034\nimpurity = 0.4444\nsamples = 3\nvalue = [2, 0, 1, 0]"] ;
415 -> 417 ;
418 [label="impurity = 0.0\nsamples = 1\nvalue = [0, 0, 1, 0]"] ;
417 -> 418 ;
419 [label="impurity = 0.0\nsamples = 2\nvalue = [2, 0, 0, 0]"] ;
417 -> 419 ;
420 [label="impurity = 0.64\nsamples = 5\nvalue = [1, 2, 2, 0]"] ;
414 -> 420 ;
421 [label="impurity = 0.0\nsamples = 6\nvalue = [6, 0, 0, 0]"] ;
413 -> 421 ;
422 [label="Item_Outlet_Sales <= 387.1627\nimpurity = 0.5661\nsamples = 22\nvalue = [12, 8, 1, 1]"] ;
412 -> 422 ;
423 [label="impurity = 0.0\nsamples = 2\nvalue = [0, 2, 0, 0]"] ;
422 -> 423 ;
424 [label="Item_Outlet_Sales <= 392.1562\nimpurity = 0.545\nsamples = 20\nvalue = [12, 6, 1, 1]"] ;
422 -> 424 ;
425 [label="Item_Outlet_Sales <= 387.8285\nimpurity = 0.5694\nsamples = 12\nvalue = [6, 5, 0, 1]"] ;
424 -> 425 ;
426 [label="impurity = 0.2778\nsamples = 6\nvalue = [5, 1, 0, 0]"] ;
425 -> 426 ;
427 [label="Item_Outlet_Sales <= 389.1601\nimpurity = 0.5\nsamples = 6\nvalue = [1, 4, 0, 1]"] ;
425 -> 427 ;
428 [label="impurity = 0.375\nsamples = 4\nvalue = [0, 3, 0, 1]"] ;
427 -> 428 ;
429 [label="Item_Outlet_Sales <= 390.8246\nimpurity = 0.5\nsamples = 2\nvalue = [1, 1, 0, 0]"] ;
427 -> 429 ;
430 [label="impurity = 0.0\nsamples = 1\nvalue = [1, 0, 0, 0]"] ;
429 -> 430 ;
431 [label="impurity = 0.0\nsamples = 1\nvalue = [0, 1, 0, 0]"] ;
429 -> 431 ;
432 [label="Item_Outlet_Sales <= 393.4878\nimpurity = 0.4063\nsamples = 8\nvalue = [6, 1, 1, 0]"] ;
424 -> 432 ;
433 [label="impurity = 0.32\nsamples = 5\nvalue = [4, 1, 0, 0]"] ;
432 -> 433 ;
434 [label="Item_Outlet_Sales <= 394.8194\nimpurity = 0.4444\nsamples = 3\nvalue = [2, 0, 1, 0]"] ;
432 -> 434 ;
435 [label="impurity = 0.5\nsamples = 2\nvalue = [1, 0, 1, 0]"] ;
434 -> 435 ;
436 [label="impurity = 0.0\nsamples = 1\nvalue = [1, 0, 0, 0]"] ;
434 -> 436 ;
437 [label="impurity = 0.0\nsamples = 2\nvalue = [0, 2, 0, 0]"] ;
409 -> 437 ;
438 [label="Item_Outlet_Sales <= 398.8142\nimpurity = 0.2188\nsamples = 8\nvalue = [7, 1, 0, 0]"] ;
408 -> 438 ;
439 [label="impurity = 0.0\nsamples = 2\nvalue = [2, 0, 0, 0]"] ;
438 -> 439 ;
440 [label="Item_Outlet_Sales <= 400.1458\nimpurity = 0.2778\nsamples = 6\nvalue = [5, 1, 0, 0]"] ;
438 -> 440 ;
441 [label="impurity = 0.375\nsamples = 4\nvalue = [3, 1, 0, 0]"] ;
440 -> 441 ;
442 [label="impurity = 0.0\nsamples = 2\nvalue = [2, 0, 0, 0]"] ;
440 -> 442 ;
443 [label="Item_Outlet_Sales <= 411.4644\nimpurity = 0.6157\nsamples = 221\nvalue = [98, 92, 26, 5]"] ;
211 -> 443 ;
444 [label="Item_Outlet_Sales <= 402.4761\nimpurity = 0.4766\nsamples = 16\nvalue = [3, 11, 2, 0]"] ;
443 -> 444 ;
445 [label="Item_Outlet_Sales <= 401.8103\nimpurity = 0.6667\nsamples = 3\nvalue = [1, 1, 1, 0]"] ;
444 -> 445 ;
446 [label="impurity = 0.5\nsamples = 2\nvalue = [0, 1, 1, 0]"] ;
445 -> 446 ;
447 [label="impurity = 0.0\nsamples = 1\nvalue = [1, 0, 0, 0]"] ;
445 -> 447 ;
448 [label="Item_Outlet_Sales <= 405.1393\nimpurity = 0.3787\nsamples = 13\nvalue = [2, 10, 1, 0]"] ;
444 -> 448 ;
449 [label="impurity = 0.0\nsamples = 4\nvalue = [0, 4, 0, 0]"] ;
448 -> 449 ;
450 [label="Item_Outlet_Sales <= 405.8051\nimpurity = 0.4938\nsamples = 9\nvalue = [2, 6, 1, 0]"] ;
448 -> 450 ;
451 [label="impurity = 0.0\nsamples = 1\nvalue = [1, 0, 0, 0]"] ;
450 -> 451 ;
452 [label="Item_Outlet_Sales <= 408.8012\nimpurity = 0.4063\nsamples = 8\nvalue = [1, 6, 1, 0]"] ;
450 -> 452 ;
453 [label="Item_Outlet_Sales <= 406.8038\nimpurity = 0.32\nsamples = 5\nvalue = [0, 4, 1, 0]"] ;
452 -> 453 ;
454 [label="impurity = 0.0\nsamples = 2\nvalue = [0, 2, 0, 0]"] ;
453 -> 454 ;
455 [label="impurity = 0.4444\nsamples = 3\nvalue = [0, 2, 1, 0]"] ;
453 -> 455 ;
456 [label="impurity = 0.4444\nsamples = 3\nvalue = [1, 2, 0, 0]"] ;
452 -> 456 ;
457 [label="Item_Outlet_Sales <= 480.0418\nimpurity = 0.6148\nsamples = 205\nvalue = [95, 81, 24, 5]"] ;
443 -> 457 ;
458 [label="Item_Outlet_Sales <= 475.0483\nimpurity = 0.6044\nsamples = 184\nvalue = [84, 77, 20, 3]"] ;
457 -> 458 ;
459 [label="Item_Outlet_Sales <= 469.0561\nimpurity = 0.6071\nsamples = 175\nvalue = [82, 70, 20, 3]"] ;
458 -> 459 ;
460 [label="Item_Outlet_Sales <= 468.0574\nimpurity = 0.6121\nsamples = 161\nvalue = [73, 66, 19, 3]"] ;
459 -> 460 ;
461 [label="Item_Outlet_Sales <= 437.7635\nimpurity = 0.6138\nsamples = 156\nvalue = [72, 62, 19, 3]"] ;
460 -> 461 ;
462 [label="Item_Outlet_Sales <= 429.1081\nimpurity = 0.5881\nsamples = 69\nvalue = [36, 25, 6, 2]"] ;
461 -> 462 ;
463 [label="Item_Outlet_Sales <= 425.7791\nimpurity = 0.5929\nsamples = 48\nvalue = [22, 21, 3, 2]"] ;
462 -> 463 ;
464 [label="Item_Outlet_Sales <= 420.1198\nimpurity = 0.6062\nsamples = 39\nvalue = [19, 15, 3, 2]"] ;
463 -> 464 ;
465 [label="Item_Outlet_Sales <= 418.7882\nimpurity = 0.6168\nsamples = 21\nvalue = [8, 10, 1, 2]"] ;
464 -> 465 ;
466 [label="Item_Outlet_Sales <= 416.7908\nimpurity = 0.6272\nsamples = 13\nvalue = [6, 5, 1, 1]"] ;
465 -> 466 ;
467 [label="Item_Outlet_Sales <= 413.1289\nimpurity = 0.5926\nsamples = 9\nvalue = [4, 4, 1, 0]"] ;
466 -> 467 ;
468 [label="impurity = 0.4444\nsamples = 3\nvalue = [2, 1, 0, 0]"] ;
467 -> 468 ;
469 [label="Item_Outlet_Sales <= 414.4605\nimpurity = 0.6111\nsamples = 6\nvalue = [2, 3, 1, 0]"] ;
467 -> 469 ;
470 [label="impurity = 0.0\nsamples = 1\nvalue = [0, 1, 0, 0]"] ;
469 -> 470 ;
471 [label="Item_Outlet_Sales <= 415.7921\nimpurity = 0.64\nsamples = 5\nvalue = [2, 2, 1, 0]"] ;
469 -> 471 ;
472 [label="impurity = 0.6667\nsamples = 3\nvalue = [1, 1, 1, 0]"] ;
471 -> 472 ;
473 [label="impurity = 0.5\nsamples = 2\nvalue = [1, 1, 0, 0]"] ;
471 -> 473 ;
474 [label="Item_Outlet_Sales <= 417.7895\nimpurity = 0.625\nsamples = 4\nvalue = [2, 1, 0, 1]"] ;
466 -> 474 ;
475 [label="impurity = 0.0\nsamples = 1\nvalue = [0, 0, 0, 1]"] ;
474 -> 475 ;
476 [label="impurity = 0.4444\nsamples = 3\nvalue = [2, 1, 0, 0]"] ;
474 -> 476 ;
477 [label="impurity = 0.5313\nsamples = 8\nvalue = [2, 5, 0, 1]"] ;
465 -> 477 ;
478 [label="Item_Outlet_Sales <= 422.783\nimpurity = 0.537\nsamples = 18\nvalue = [11, 5, 2, 0]"] ;
464 -> 478 ;
479 [label="Item_Outlet_Sales <= 421.7843\nimpurity = 0.2778\nsamples = 6\nvalue = [5, 0, 1, 0]"] ;
478 -> 479 ;
480 [label="Item_Outlet_Sales <= 421.1185\nimpurity = 0.4444\nsamples = 3\nvalue = [2, 0, 1, 0]"] ;
479 -> 480 ;
481 [label="impurity = 0.0\nsamples = 2\nvalue = [2, 0, 0, 0]"] ;
480 -> 481 ;
482 [label="impurity = 0.0\nsamples = 1\nvalue = [0, 0, 1, 0]"] ;
480 -> 482 ;
483 [label="impurity = 0.0\nsamples = 3\nvalue = [3, 0, 0, 0]"] ;
479 -> 483 ;
484 [label="Item_Outlet_Sales <= 424.1146\nimpurity = 0.5694\nsamples = 12\nvalue = [6, 5, 1, 0]"] ;
478 -> 484 ;
485 [label="impurity = 0.32\nsamples = 5\nvalue = [1, 4, 0, 0]"] ;
484 -> 485 ;
486 [label="Item_Outlet_Sales <= 425.1133\nimpurity = 0.449\nsamples = 7\nvalue = [5, 1, 1, 0]"] ;
484 -> 486 ;
487 [label="impurity = 0.0\nsamples = 2\nvalue = [2, 0, 0, 0]"] ;
486 -> 487 ;
488 [label="impurity = 0.56\nsamples = 5\nvalue = [3, 1, 1, 0]"] ;
486 -> 488 ;
489 [label="Item_Outlet_Sales <= 426.7778\nimpurity = 0.4444\nsamples = 9\nvalue = [3, 6, 0, 0]"] ;
463 -> 489 ;
490 [label="impurity = 0.4444\nsamples = 3\nvalue = [1, 2, 0, 0]"] ;
489 -> 490 ;
491 [label="Item_Outlet_Sales <= 428.1094\nimpurity = 0.4444\nsamples = 6\nvalue = [2, 4, 0, 0]"] ;
489 -> 491 ;
492 [label="impurity = 0.4444\nsamples = 3\nvalue = [1, 2, 0, 0]"] ;
491 -> 492 ;
493 [label="impurity = 0.4444\nsamples = 3\nvalue = [1, 2, 0, 0]"] ;
491 -> 493 ;
494 [label="Item_Outlet_Sales <= 433.1029\nimpurity = 0.4989\nsamples = 21\nvalue = [14, 4, 3, 0]"] ;
462 -> 494 ;
495 [label="Item_Outlet_Sales <= 430.7726\nimpurity = 0.54\nsamples = 10\nvalue = [6, 1, 3, 0]"] ;
494 -> 495 ;
496 [label="impurity = 0.0\nsamples = 2\nvalue = [2, 0, 0, 0]"] ;
495 -> 496 ;
497 [label="Item_Outlet_Sales <= 432.1042\nimpurity = 0.5938\nsamples = 8\nvalue = [4, 1, 3, 0]"] ;
495 -> 497 ;
498 [label="impurity = 0.5\nsamples = 4\nvalue = [2, 0, 2, 0]"] ;
497 -> 498 ;
499 [label="impurity = 0.625\nsamples = 4\nvalue = [2, 1, 1, 0]"] ;
497 -> 499 ;
500 [label="Item_Outlet_Sales <= 437.0977\nimpurity = 0.3967\nsamples = 11\nvalue = [8, 3, 0, 0]"] ;
494 -> 500 ;
501 [label="Item_Outlet_Sales <= 434.4345\nimpurity = 0.2449\nsamples = 7\nvalue = [6, 1, 0, 0]"] ;
500 -> 501 ;
502 [label="impurity = 0.4444\nsamples = 3\nvalue = [2, 1, 0, 0]"] ;
501 -> 502 ;
503 [label="impurity = 0.0\nsamples = 4\nvalue = [4, 0, 0, 0]"] ;
501 -> 503 ;
504 [label="impurity = 0.5\nsamples = 4\nvalue = [2, 2, 0, 0]"] ;
500 -> 504 ;
505 [label="Item_Outlet_Sales <= 442.4241\nimpurity = 0.6254\nsamples = 87\nvalue = [36, 37, 13, 1]"] ;
461 -> 505 ;
506 [label="Item_Outlet_Sales <= 440.4267\nimpurity = 0.48\nsamples = 10\nvalue = [1, 7, 1, 1]"] ;
505 -> 506 ;
507 [label="Item_Outlet_Sales <= 438.7622\nimpurity = 0.32\nsamples = 5\nvalue = [1, 4, 0, 0]"] ;
506 -> 507 ;
508 [label="impurity = 0.0\nsamples = 2\nvalue = [0, 2, 0, 0]"] ;
507 -> 508 ;
509 [label="impurity = 0.4444\nsamples = 3\nvalue = [1, 2, 0, 0]"] ;
507 -> 509 ;
510 [label="Item_Outlet_Sales <= 441.7583\nimpurity = 0.56\nsamples = 5\nvalue = [0, 3, 1, 1]"] ;
506 -> 510 ;
511 [label="impurity = 0.625\nsamples = 4\nvalue = [0, 2, 1, 1]"] ;
510 -> 511 ;
512 [label="impurity = 0.0\nsamples = 1\nvalue = [0, 1, 0, 0]"] ;
510 -> 512 ;
513 [label="Item_Outlet_Sales <= 444.0886\nimpurity = 0.6173\nsamples = 77\nvalue = [35, 30, 12, 0]"] ;
505 -> 513 ;
514 [label="Item_Outlet_Sales <= 443.0899\nimpurity = 0.4444\nsamples = 3\nvalue = [1, 0, 2, 0]"] ;
513 -> 514 ;
515 [label="impurity = 0.0\nsamples = 1\nvalue = [1, 0, 0, 0]"] ;
514 -> 515 ;
516 [label="impurity = 0.0\nsamples = 2\nvalue = [0, 0, 2, 0]"] ;
514 -> 516 ;
517 [label="Item_Outlet_Sales <= 448.4163\nimpurity = 0.6063\nsamples = 74\nvalue = [34, 30, 10, 0]"] ;
513 -> 517 ;
518 [label="Item_Outlet_Sales <= 445.0873\nimpurity = 0.6224\nsamples = 14\nvalue = [4, 7, 3, 0]"] ;
517 -> 518 ;
519 [label="impurity = 0.0\nsamples = 1\nvalue = [1, 0, 0, 0]"] ;
518 -> 519 ;
520 [label="Item_Outlet_Sales <= 446.086\nimpurity = 0.6036\nsamples = 13\nvalue = [3, 7, 3, 0]"] ;
518 -> 520 ;
521 [label="impurity = 0.5\nsamples = 2\nvalue = [1, 1, 0, 0]"] ;
520 -> 521 ;
522 [label="Item_Outlet_Sales <= 447.0847\nimpurity = 0.595\nsamples = 11\nvalue = [2, 6, 3, 0]"] ;
520 -> 522 ;
523 [label="impurity = 0.5\nsamples = 2\nvalue = [0, 1, 1, 0]"] ;
522 -> 523 ;
524 [label="impurity = 0.5926\nsamples = 9\nvalue = [2, 5, 2, 0]"] ;
522 -> 524 ;
525 [label="Item_Outlet_Sales <= 449.7479\nimpurity = 0.5894\nsamples = 60\nvalue = [30, 23, 7, 0]"] ;
517 -> 525 ;
526 [label="impurity = 0.0\nsamples = 2\nvalue = [2, 0, 0, 0]"] ;
525 -> 526 ;
527 [label="Item_Outlet_Sales <= 466.7258\nimpurity = 0.5951\nsamples = 58\nvalue = [28, 23, 7, 0]"] ;
525 -> 527 ;
528 [label="Item_Outlet_Sales <= 464.7284\nimpurity = 0.5832\nsamples = 50\nvalue = [24, 21, 5, 0]"] ;
527 -> 528 ;
529 [label="Item_Outlet_Sales <= 462.3981\nimpurity = 0.5878\nsamples = 44\nvalue = [22, 17, 5, 0]"] ;
528 -> 529 ;
530 [label="Item_Outlet_Sales <= 457.7375\nimpurity = 0.5806\nsamples = 41\nvalue = [20, 17, 4, 0]"] ;
529 -> 530 ;
531 [label="Item_Outlet_Sales <= 454.7414\nimpurity = 0.5769\nsamples = 26\nvalue = [14, 9, 3, 0]"] ;
530 -> 531 ;
532 [label="Item_Outlet_Sales <= 453.7427\nimpurity = 0.585\nsamples = 20\nvalue = [9, 9, 2, 0]"] ;
531 -> 532 ;
533 [label="Item_Outlet_Sales <= 450.7466\nimpurity = 0.5873\nsamples = 19\nvalue = [9, 8, 2, 0]"] ;
532 -> 533 ;
534 [label="impurity = 0.4444\nsamples = 3\nvalue = [1, 2, 0, 0]"] ;
533 -> 534 ;
535 [label="Item_Outlet_Sales <= 452.0782\nimpurity = 0.5938\nsamples = 16\nvalue = [8, 6, 2, 0]"] ;
533 -> 535 ;
536 [label="impurity = 0.375\nsamples = 4\nvalue = [3, 1, 0, 0]"] ;
535 -> 536 ;
537 [label="Item_Outlet_Sales <= 453.0769\nimpurity = 0.625\nsamples = 12\nvalue = [5, 5, 2, 0]"] ;
535 -> 537 ;
538 [label="impurity = 0.64\nsamples = 10\nvalue = [4, 4, 2, 0]"] ;
537 -> 538 ;
539 [label="impurity = 0.5\nsamples = 2\nvalue = [1, 1, 0, 0]"] ;
537 -> 539 ;
540 [label="impurity = 0.0\nsamples = 1\nvalue = [0, 1, 0, 0]"] ;
532 -> 540 ;
541 [label="Item_Outlet_Sales <= 456.4059\nimpurity = 0.2778\nsamples = 6\nvalue = [5, 0, 1, 0]"] ;
531 -> 541 ;
542 [label="impurity = 0.375\nsamples = 4\nvalue = [3, 0, 1, 0]"] ;
541 -> 542 ;
543 [label="impurity = 0.0\nsamples = 2\nvalue = [2, 0, 0, 0]"] ;
541 -> 543 ;
544 [label="Item_Outlet_Sales <= 460.0678\nimpurity = 0.5511\nsamples = 15\nvalue = [6, 8, 1, 0]"] ;
530 -> 544 ;
545 [label="Item_Outlet_Sales <= 459.0691\nimpurity = 0.54\nsamples = 10\nvalue = [3, 6, 1, 0]"] ;
544 -> 545 ;
546 [label="Item_Outlet_Sales <= 458.4033\nimpurity = 0.375\nsamples = 4\nvalue = [1, 3, 0, 0]"] ;
545 -> 546 ;
547 [label="impurity = 0.4444\nsamples = 3\nvalue = [1, 2, 0, 0]"] ;
546 -> 547 ;
548 [label="impurity = 0.0\nsamples = 1\nvalue = [0, 1, 0, 0]"] ;
546 -> 548 ;
549 [label="impurity = 0.6111\nsamples = 6\nvalue = [2, 3, 1, 0]"] ;
545 -> 549 ;
550 [label="Item_Outlet_Sales <= 461.0665\nimpurity = 0.48\nsamples = 5\nvalue = [3, 2, 0, 0]"] ;
544 -> 550 ;
551 [label="impurity = 0.4444\nsamples = 3\nvalue = [2, 1, 0, 0]"] ;
550 -> 551 ;
552 [label="impurity = 0.5\nsamples = 2\nvalue = [1, 1, 0, 0]"] ;
550 -> 552 ;
553 [label="impurity = 0.4444\nsamples = 3\nvalue = [2, 0, 1, 0]"] ;
529 -> 553 ;
554 [label="impurity = 0.4444\nsamples = 6\nvalue = [2, 4, 0, 0]"] ;
528 -> 554 ;
555 [label="impurity = 0.625\nsamples = 8\nvalue = [4, 2, 2, 0]"] ;
527 -> 555 ;
556 [label="impurity = 0.32\nsamples = 5\nvalue = [1, 4, 0, 0]"] ;
460 -> 556 ;
557 [label="Item_Outlet_Sales <= 472.0522\nimpurity = 0.5\nsamples = 14\nvalue = [9, 4, 1, 0]"] ;
459 -> 557 ;
558 [label="impurity = 0.0\nsamples = 4\nvalue = [4, 0, 0, 0]"] ;
557 -> 558 ;
559 [label="Item_Outlet_Sales <= 473.0509\nimpurity = 0.58\nsamples = 10\nvalue = [5, 4, 1, 0]"] ;
557 -> 559 ;
560 [label="impurity = 0.0\nsamples = 1\nvalue = [0, 0, 1, 0]"] ;
559 -> 560 ;
561 [label="Item_Outlet_Sales <= 473.7167\nimpurity = 0.4938\nsamples = 9\nvalue = [5, 4, 0, 0]"] ;
559 -> 561 ;
562 [label="impurity = 0.48\nsamples = 5\nvalue = [2, 3, 0, 0]"] ;
561 -> 562 ;
563 [label="impurity = 0.375\nsamples = 4\nvalue = [3, 1, 0, 0]"] ;
561 -> 563 ;
564 [label="Item_Outlet_Sales <= 476.7128\nimpurity = 0.3457\nsamples = 9\nvalue = [2, 7, 0, 0]"] ;
458 -> 564 ;
565 [label="impurity = 0.0\nsamples = 4\nvalue = [0, 4, 0, 0]"] ;
564 -> 565 ;
566 [label="Item_Outlet_Sales <= 478.3773\nimpurity = 0.48\nsamples = 5\nvalue = [2, 3, 0, 0]"] ;
564 -> 566 ;
567 [label="impurity = 0.0\nsamples = 1\nvalue = [1, 0, 0, 0]"] ;
566 -> 567 ;
568 [label="impurity = 0.375\nsamples = 4\nvalue = [1, 3, 0, 0]"] ;
566 -> 568 ;
569 [label="Item_Outlet_Sales <= 482.705\nimpurity = 0.644\nsamples = 21\nvalue = [11, 4, 4, 2]"] ;
457 -> 569 ;
570 [label="Item_Outlet_Sales <= 481.7063\nimpurity = 0.5\nsamples = 6\nvalue = [4, 0, 1, 1]"] ;
569 -> 570 ;
571 [label="Item_Outlet_Sales <= 481.0405\nimpurity = 0.375\nsamples = 4\nvalue = [3, 0, 1, 0]"] ;
570 -> 571 ;
572 [label="impurity = 0.4444\nsamples = 3\nvalue = [2, 0, 1, 0]"] ;
571 -> 572 ;
573 [label="impurity = 0.0\nsamples = 1\nvalue = [1, 0, 0, 0]"] ;
571 -> 573 ;
574 [label="impurity = 0.5\nsamples = 2\nvalue = [1, 0, 0, 1]"] ;
570 -> 574 ;
575 [label="Item_Outlet_Sales <= 485.7011\nimpurity = 0.6667\nsamples = 15\nvalue = [7, 4, 3, 1]"] ;
569 -> 575 ;
576 [label="Item_Outlet_Sales <= 485.0353\nimpurity = 0.6875\nsamples = 8\nvalue = [3, 3, 1, 1]"] ;
575 -> 576 ;
577 [label="Item_Outlet_Sales <= 484.0366\nimpurity = 0.6939\nsamples = 7\nvalue = [3, 2, 1, 1]"] ;
576 -> 577 ;
578 [label="impurity = 0.5\nsamples = 2\nvalue = [1, 1, 0, 0]"] ;
577 -> 578 ;
579 [label="impurity = 0.72\nsamples = 5\nvalue = [2, 1, 1, 1]"] ;
577 -> 579 ;
580 [label="impurity = 0.0\nsamples = 1\nvalue = [0, 1, 0, 0]"] ;
576 -> 580 ;
581 [label="Item_Outlet_Sales <= 486.6998\nimpurity = 0.5714\nsamples = 7\nvalue = [4, 1, 2, 0]"] ;
575 -> 581 ;
582 [label="impurity = 0.0\nsamples = 1\nvalue = [1, 0, 0, 0]"] ;
581 -> 582 ;
583 [label="Item_Outlet_Sales <= 488.0314\nimpurity = 0.6111\nsamples = 6\nvalue = [3, 1, 2, 0]"] ;
581 -> 583 ;
584 [label="impurity = 0.64\nsamples = 5\nvalue = [2, 1, 2, 0]"] ;
583 -> 584 ;
585 [label="impurity = 0.0\nsamples = 1\nvalue = [1, 0, 0, 0]"] ;
583 -> 585 ;
586 [label="Item_Outlet_Sales <= 5459.8926\nimpurity = 0.4442\nsamples = 7296\nvalue = [235, 5287, 847, 927]"] ;
0 -> 586 [labeldistance=2.5, labelangle=-45, headlabel="False"] ;
587 [label="Item_Outlet_Sales <= 791.6362\nimpurity = 0.4277\nsamples = 6845\nvalue = [235, 5054, 820, 736]"] ;
586 -> 587 ;
588 [label="Item_Outlet_Sales <= 595.891\nimpurity = 0.5269\nsamples = 806\nvalue = [167, 519, 98, 22]"] ;
587 -> 588 ;
589 [label="Item_Outlet_Sales <= 491.0275\nimpurity = 0.5896\nsamples = 301\nvalue = [90, 165, 43, 3]"] ;
588 -> 589 ;
590 [label="impurity = 0.0\nsamples = 8\nvalue = [0, 8, 0, 0]"] ;
589 -> 590 ;
591 [label="Item_Outlet_Sales <= 593.5607\nimpurity = 0.5969\nsamples = 293\nvalue = [90, 157, 43, 3]"] ;
589 -> 591 ;
592 [label="Item_Outlet_Sales <= 532.3071\nimpurity = 0.596\nsamples = 287\nvalue = [86, 155, 43, 3]"] ;
591 -> 592 ;
593 [label="Item_Outlet_Sales <= 512.0002\nimpurity = 0.5905\nsamples = 111\nvalue = [40, 57, 14, 0]"] ;
592 -> 593 ;
594 [label="Item_Outlet_Sales <= 510.3357\nimpurity = 0.5459\nsamples = 51\nvalue = [18, 29, 4, 0]"] ;
593 -> 594 ;
595 [label="Item_Outlet_Sales <= 493.6907\nimpurity = 0.559\nsamples = 48\nvalue = [18, 26, 4, 0]"] ;
594 -> 595 ;
596 [label="Item_Outlet_Sales <= 493.0249\nimpurity = 0.6446\nsamples = 11\nvalue = [3, 5, 3, 0]"] ;
595 -> 596 ;
597 [label="Item_Outlet_Sales <= 492.0262\nimpurity = 0.625\nsamples = 8\nvalue = [2, 4, 2, 0]"] ;
596 -> 597 ;
598 [label="impurity = 0.625\nsamples = 4\nvalue = [1, 2, 1, 0]"] ;
597 -> 598 ;
599 [label="impurity = 0.625\nsamples = 4\nvalue = [1, 2, 1, 0]"] ;
597 -> 599 ;
600 [label="impurity = 0.6667\nsamples = 3\nvalue = [1, 1, 1, 0]"] ;
596 -> 600 ;
601 [label="Item_Outlet_Sales <= 509.6699\nimpurity = 0.5128\nsamples = 37\nvalue = [15, 21, 1, 0]"] ;
595 -> 601 ;
602 [label="Item_Outlet_Sales <= 501.0145\nimpurity = 0.5077\nsamples = 36\nvalue = [14, 21, 1, 0]"] ;
601 -> 602 ;
603 [label="Item_Outlet_Sales <= 494.6894\nimpurity = 0.4978\nsamples = 15\nvalue = [8, 7, 0, 0]"] ;
602 -> 603 ;
604 [label="impurity = 0.0\nsamples = 1\nvalue = [0, 1, 0, 0]"] ;
603 -> 604 ;
605 [label="Item_Outlet_Sales <= 500.0158\nimpurity = 0.4898\nsamples = 14\nvalue = [8, 6, 0, 0]"] ;
603 -> 605 ;
606 [label="Item_Outlet_Sales <= 498.6842\nimpurity = 0.497\nsamples = 13\nvalue = [7, 6, 0, 0]"] ;
605 -> 606 ;
607 [label="Item_Outlet_Sales <= 496.3539\nimpurity = 0.5\nsamples = 10\nvalue = [5, 5, 0, 0]"] ;
606 -> 607 ;
608 [label="impurity = 0.48\nsamples = 5\nvalue = [3, 2, 0, 0]"] ;
607 -> 608 ;
609 [label="Item_Outlet_Sales <= 497.6855\nimpurity = 0.48\nsamples = 5\nvalue = [2, 3, 0, 0]"] ;
607 -> 609 ;
610 [label="impurity = 0.0\nsamples = 1\nvalue = [0, 1, 0, 0]"] ;
609 -> 610 ;
611 [label="impurity = 0.5\nsamples = 4\nvalue = [2, 2, 0, 0]"] ;
609 -> 611 ;
612 [label="impurity = 0.4444\nsamples = 3\nvalue = [2, 1, 0, 0]"] ;
606 -> 612 ;
613 [label="impurity = 0.0\nsamples = 1\nvalue = [1, 0, 0, 0]"] ;
605 -> 613 ;
614 [label="Item_Outlet_Sales <= 502.679\nimpurity = 0.4717\nsamples = 21\nvalue = [6, 14, 1, 0]"] ;
602 -> 614 ;
615 [label="impurity = 0.0\nsamples = 3\nvalue = [0, 3, 0, 0]"] ;
614 -> 615 ;
616 [label="Item_Outlet_Sales <= 509.0041\nimpurity = 0.5123\nsamples = 18\nvalue = [6, 11, 1, 0]"] ;
614 -> 616 ;
617 [label="Item_Outlet_Sales <= 505.6751\nimpurity = 0.4592\nsamples = 14\nvalue = [5, 9, 0, 0]"] ;
616 -> 617 ;
618 [label="Item_Outlet_Sales <= 504.3435\nimpurity = 0.4444\nsamples = 9\nvalue = [3, 6, 0, 0]"] ;
617 -> 618 ;
619 [label="impurity = 0.4688\nsamples = 8\nvalue = [3, 5, 0, 0]"] ;
618 -> 619 ;
620 [label="impurity = 0.0\nsamples = 1\nvalue = [0, 1, 0, 0]"] ;
618 -> 620 ;
621 [label="Item_Outlet_Sales <= 507.3396\nimpurity = 0.48\nsamples = 5\nvalue = [2, 3, 0, 0]"] ;
617 -> 621 ;
622 [label="impurity = 0.5\nsamples = 2\nvalue = [1, 1, 0, 0]"] ;
621 -> 622 ;
623 [label="impurity = 0.4444\nsamples = 3\nvalue = [1, 2, 0, 0]"] ;
621 -> 623 ;
624 [label="impurity = 0.625\nsamples = 4\nvalue = [1, 2, 1, 0]"] ;
616 -> 624 ;
625 [label="impurity = 0.0\nsamples = 1\nvalue = [1, 0, 0, 0]"] ;
601 -> 625 ;
626 [label="impurity = 0.0\nsamples = 3\nvalue = [0, 3, 0, 0]"] ;
594 -> 626 ;
627 [label="Item_Outlet_Sales <= 514.3305\nimpurity = 0.62\nsamples = 60\nvalue = [22, 28, 10, 0]"] ;
593 -> 627 ;
628 [label="Item_Outlet_Sales <= 512.9989\nimpurity = 0.4444\nsamples = 3\nvalue = [0, 1, 2, 0]"] ;
627 -> 628 ;
629 [label="impurity = 0.5\nsamples = 2\nvalue = [0, 1, 1, 0]"] ;
628 -> 629 ;
630 [label="impurity = 0.0\nsamples = 1\nvalue = [0, 0, 1, 0]"] ;
628 -> 630 ;
631 [label="Item_Outlet_Sales <= 515.6621\nimpurity = 0.607\nsamples = 57\nvalue = [22, 27, 8, 0]"] ;
627 -> 631 ;
632 [label="impurity = 0.625\nsamples = 4\nvalue = [2, 1, 1, 0]"] ;
631 -> 632 ;
633 [label="Item_Outlet_Sales <= 516.3279\nimpurity = 0.5995\nsamples = 53\nvalue = [20, 26, 7, 0]"] ;
631 -> 633 ;
634 [label="impurity = 0.0\nsamples = 1\nvalue = [0, 1, 0, 0]"] ;
633 -> 634 ;
635 [label="Item_Outlet_Sales <= 529.6439\nimpurity = 0.6028\nsamples = 52\nvalue = [20, 25, 7, 0]"] ;
633 -> 635 ;
636 [label="Item_Outlet_Sales <= 526.6478\nimpurity = 0.5938\nsamples = 48\nvalue = [18, 24, 6, 0]"] ;
635 -> 636 ;
637 [label="Item_Outlet_Sales <= 522.9859\nimpurity = 0.5926\nsamples = 27\nvalue = [12, 12, 3, 0]"] ;
636 -> 637 ;
638 [label="Item_Outlet_Sales <= 520.9885\nimpurity = 0.537\nsamples = 18\nvalue = [7, 10, 1, 0]"] ;
637 -> 638 ;
639 [label="Item_Outlet_Sales <= 519.9897\nimpurity = 0.56\nsamples = 15\nvalue = [7, 7, 1, 0]"] ;
638 -> 639 ;
640 [label="Item_Outlet_Sales <= 518.6582\nimpurity = 0.5612\nsamples = 14\nvalue = [6, 7, 1, 0]"] ;
639 -> 640 ;
641 [label="Item_Outlet_Sales <= 516.9937\nimpurity = 0.58\nsamples = 10\nvalue = [5, 4, 1, 0]"] ;
640 -> 641 ;
642 [label="impurity = 0.5\nsamples = 2\nvalue = [1, 1, 0, 0]"] ;
641 -> 642 ;
643 [label="Item_Outlet_Sales <= 517.6595\nimpurity = 0.5938\nsamples = 8\nvalue = [4, 3, 1, 0]"] ;
641 -> 643 ;
644 [label="impurity = 0.6111\nsamples = 6\nvalue = [3, 2, 1, 0]"] ;
643 -> 644 ;
645 [label="impurity = 0.5\nsamples = 2\nvalue = [1, 1, 0, 0]"] ;
643 -> 645 ;
646 [label="impurity = 0.375\nsamples = 4\nvalue = [1, 3, 0, 0]"] ;
640 -> 646 ;
647 [label="impurity = 0.0\nsamples = 1\nvalue = [1, 0, 0, 0]"] ;
639 -> 647 ;
648 [label="impurity = 0.0\nsamples = 3\nvalue = [0, 3, 0, 0]"] ;
638 -> 648 ;
649 [label="Item_Outlet_Sales <= 523.9846\nimpurity = 0.5926\nsamples = 9\nvalue = [5, 2, 2, 0]"] ;
637 -> 649 ;
650 [label="impurity = 0.0\nsamples = 1\nvalue = [1, 0, 0, 0]"] ;
649 -> 650 ;
651 [label="Item_Outlet_Sales <= 524.9833\nimpurity = 0.625\nsamples = 8\nvalue = [4, 2, 2, 0]"] ;
649 -> 651 ;
652 [label="impurity = 0.6667\nsamples = 3\nvalue = [1, 1, 1, 0]"] ;
651 -> 652 ;
653 [label="Item_Outlet_Sales <= 525.6491\nimpurity = 0.56\nsamples = 5\nvalue = [3, 1, 1, 0]"] ;
651 -> 653 ;
654 [label="impurity = 0.0\nsamples = 1\nvalue = [1, 0, 0, 0]"] ;
653 -> 654 ;
655 [label="impurity = 0.625\nsamples = 4\nvalue = [2, 1, 1, 0]"] ;
653 -> 655 ;
656 [label="Item_Outlet_Sales <= 528.9781\nimpurity = 0.5714\nsamples = 21\nvalue = [6, 12, 3, 0]"] ;
636 -> 656 ;
657 [label="Item_Outlet_Sales <= 528.3123\nimpurity = 0.5917\nsamples = 13\nvalue = [4, 7, 2, 0]"] ;
656 -> 657 ;
658 [label="Item_Outlet_Sales <= 527.6465\nimpurity = 0.5694\nsamples = 12\nvalue = [3, 7, 2, 0]"] ;
657 -> 658 ;
659 [label="impurity = 0.54\nsamples = 10\nvalue = [3, 6, 1, 0]"] ;
658 -> 659 ;
660 [label="impurity = 0.5\nsamples = 2\nvalue = [0, 1, 1, 0]"] ;
658 -> 660 ;
661 [label="impurity = 0.0\nsamples = 1\nvalue = [1, 0, 0, 0]"] ;
657 -> 661 ;
662 [label="impurity = 0.5313\nsamples = 8\nvalue = [2, 5, 1, 0]"] ;
656 -> 662 ;
663 [label="Item_Outlet_Sales <= 530.6426\nimpurity = 0.625\nsamples = 4\nvalue = [2, 1, 1, 0]"] ;
635 -> 663 ;
664 [label="impurity = 0.0\nsamples = 1\nvalue = [1, 0, 0, 0]"] ;
663 -> 664 ;
665 [label="impurity = 0.6667\nsamples = 3\nvalue = [1, 1, 1, 0]"] ;
663 -> 665 ;
666 [label="Item_Outlet_Sales <= 541.6283\nimpurity = 0.5942\nsamples = 176\nvalue = [46, 98, 29, 3]"] ;
592 -> 666 ;
667 [label="Item_Outlet_Sales <= 534.9703\nimpurity = 0.2867\nsamples = 30\nvalue = [1, 25, 4, 0]"] ;
666 -> 667 ;
668 [label="impurity = 0.0\nsamples = 6\nvalue = [0, 6, 0, 0]"] ;
667 -> 668 ;
669 [label="Item_Outlet_Sales <= 539.9637\nimpurity = 0.3438\nsamples = 24\nvalue = [1, 19, 4, 0]"] ;
667 -> 669 ;
670 [label="Item_Outlet_Sales <= 537.6335\nimpurity = 0.4259\nsamples = 18\nvalue = [1, 13, 4, 0]"] ;
669 -> 670 ;
671 [label="Item_Outlet_Sales <= 535.6361\nimpurity = 0.4444\nsamples = 6\nvalue = [0, 4, 2, 0]"] ;
670 -> 671 ;
672 [label="impurity = 0.375\nsamples = 4\nvalue = [0, 3, 1, 0]"] ;
671 -> 672 ;
673 [label="impurity = 0.5\nsamples = 2\nvalue = [0, 1, 1, 0]"] ;
671 -> 673 ;
674 [label="impurity = 0.4028\nsamples = 12\nvalue = [1, 9, 2, 0]"] ;
670 -> 674 ;
675 [label="impurity = 0.0\nsamples = 6\nvalue = [0, 6, 0, 0]"] ;
669 -> 675 ;
676 [label="Item_Outlet_Sales <= 567.9274\nimpurity = 0.6253\nsamples = 146\nvalue = [45, 73, 25, 3]"] ;
666 -> 676 ;
677 [label="Item_Outlet_Sales <= 554.9443\nimpurity = 0.6622\nsamples = 65\nvalue = [25, 24, 15, 1]"] ;
676 -> 677 ;
678 [label="Item_Outlet_Sales <= 551.9482\nimpurity = 0.6348\nsamples = 32\nvalue = [10, 15, 7, 0]"] ;
677 -> 678 ;
679 [label="Item_Outlet_Sales <= 546.6218\nimpurity = 0.6276\nsamples = 23\nvalue = [10, 9, 4, 0]"] ;
678 -> 679 ;
680 [label="Item_Outlet_Sales <= 542.9599\nimpurity = 0.6446\nsamples = 11\nvalue = [3, 5, 3, 0]"] ;
679 -> 680 ;
681 [label="impurity = 0.0\nsamples = 1\nvalue = [1, 0, 0, 0]"] ;
680 -> 681 ;
682 [label="Item_Outlet_Sales <= 545.6231\nimpurity = 0.62\nsamples = 10\nvalue = [2, 5, 3, 0]"] ;
680 -> 682 ;
683 [label="Item_Outlet_Sales <= 544.2915\nimpurity = 0.5926\nsamples = 9\nvalue = [2, 5, 2, 0]"] ;
682 -> 683 ;
684 [label="impurity = 0.6111\nsamples = 6\nvalue = [2, 3, 1, 0]"] ;
683 -> 684 ;
685 [label="impurity = 0.4444\nsamples = 3\nvalue = [0, 2, 1, 0]"] ;
683 -> 685 ;
686 [label="impurity = 0.0\nsamples = 1\nvalue = [0, 0, 1, 0]"] ;
682 -> 686 ;
687 [label="Item_Outlet_Sales <= 550.6166\nimpurity = 0.5417\nsamples = 12\nvalue = [7, 4, 1, 0]"] ;
679 -> 687 ;
688 [label="Item_Outlet_Sales <= 549.6179\nimpurity = 0.5938\nsamples = 8\nvalue = [4, 3, 1, 0]"] ;
687 -> 688 ;
689 [label="Item_Outlet_Sales <= 548.2863\nimpurity = 0.5714\nsamples = 7\nvalue = [4, 2, 1, 0]"] ;
688 -> 689 ;
690 [label="impurity = 0.5\nsamples = 2\nvalue = [1, 1, 0, 0]"] ;
689 -> 690 ;
691 [label="impurity = 0.56\nsamples = 5\nvalue = [3, 1, 1, 0]"] ;
689 -> 691 ;
692 [label="impurity = 0.0\nsamples = 1\nvalue = [0, 1, 0, 0]"] ;
688 -> 692 ;
693 [label="impurity = 0.375\nsamples = 4\nvalue = [3, 1, 0, 0]"] ;
687 -> 693 ;
694 [label="Item_Outlet_Sales <= 554.2785\nimpurity = 0.4444\nsamples = 9\nvalue = [0, 6, 3, 0]"] ;
678 -> 694 ;
695 [label="Item_Outlet_Sales <= 553.2798\nimpurity = 0.4082\nsamples = 7\nvalue = [0, 5, 2, 0]"] ;
694 -> 695 ;
696 [label="impurity = 0.4444\nsamples = 6\nvalue = [0, 4, 2, 0]"] ;
695 -> 696 ;
697 [label="impurity = 0.0\nsamples = 1\nvalue = [0, 1, 0, 0]"] ;
695 -> 697 ;
698 [label="impurity = 0.5\nsamples = 2\nvalue = [0, 1, 1, 0]"] ;
694 -> 698 ;
699 [label="Item_Outlet_Sales <= 555.943\nimpurity = 0.6593\nsamples = 33\nvalue = [15, 9, 8, 1]"] ;
677 -> 699 ;
700 [label="impurity = 0.4082\nsamples = 7\nvalue = [5, 2, 0, 0]"] ;
699 -> 700 ;
701 [label="Item_Outlet_Sales <= 562.2681\nimpurity = 0.6834\nsamples = 26\nvalue = [10, 7, 8, 1]"] ;
699 -> 701 ;
702 [label="Item_Outlet_Sales <= 558.2733\nimpurity = 0.6281\nsamples = 11\nvalue = [2, 2, 6, 1]"] ;
701 -> 702 ;
703 [label="Item_Outlet_Sales <= 556.9417\nimpurity = 0.5\nsamples = 2\nvalue = [0, 1, 1, 0]"] ;
702 -> 703 ;
704 [label="impurity = 0.0\nsamples = 1\nvalue = [0, 0, 1, 0]"] ;
703 -> 704 ;
705 [label="impurity = 0.0\nsamples = 1\nvalue = [0, 1, 0, 0]"] ;
703 -> 705 ;
706 [label="Item_Outlet_Sales <= 561.6023\nimpurity = 0.6173\nsamples = 9\nvalue = [2, 1, 5, 1]"] ;
702 -> 706 ;
707 [label="Item_Outlet_Sales <= 560.2707\nimpurity = 0.6563\nsamples = 8\nvalue = [2, 1, 4, 1]"] ;
706 -> 707 ;
708 [label="impurity = 0.6122\nsamples = 7\nvalue = [1, 1, 4, 1]"] ;
707 -> 708 ;
709 [label="impurity = 0.0\nsamples = 1\nvalue = [1, 0, 0, 0]"] ;
707 -> 709 ;
710 [label="impurity = 0.0\nsamples = 1\nvalue = [0, 0, 1, 0]"] ;
706 -> 710 ;
711 [label="Item_Outlet_Sales <= 562.9339\nimpurity = 0.5867\nsamples = 15\nvalue = [8, 5, 2, 0]"] ;
701 -> 711 ;
712 [label="impurity = 0.0\nsamples = 1\nvalue = [0, 1, 0, 0]"] ;
711 -> 712 ;
713 [label="Item_Outlet_Sales <= 563.5997\nimpurity = 0.5714\nsamples = 14\nvalue = [8, 4, 2, 0]"] ;
711 -> 713 ;
714 [label="impurity = 0.0\nsamples = 2\nvalue = [2, 0, 0, 0]"] ;
713 -> 714 ;
715 [label="Item_Outlet_Sales <= 564.2655\nimpurity = 0.6111\nsamples = 12\nvalue = [6, 4, 2, 0]"] ;
713 -> 715 ;
716 [label="impurity = 0.0\nsamples = 1\nvalue = [0, 1, 0, 0]"] ;
715 -> 716 ;
717 [label="Item_Outlet_Sales <= 566.2629\nimpurity = 0.595\nsamples = 11\nvalue = [6, 3, 2, 0]"] ;
715 -> 717 ;
718 [label="Item_Outlet_Sales <= 564.9313\nimpurity = 0.64\nsamples = 5\nvalue = [2, 2, 1, 0]"] ;
717 -> 718 ;
719 [label="impurity = 0.6667\nsamples = 3\nvalue = [1, 1, 1, 0]"] ;
718 -> 719 ;
720 [label="impurity = 0.5\nsamples = 2\nvalue = [1, 1, 0, 0]"] ;
718 -> 720 ;
721 [label="impurity = 0.5\nsamples = 6\nvalue = [4, 1, 1, 0]"] ;
717 -> 721 ;
722 [label="Item_Outlet_Sales <= 570.2577\nimpurity = 0.5572\nsamples = 81\nvalue = [20, 49, 10, 2]"] ;
676 -> 722 ;
723 [label="Item_Outlet_Sales <= 568.9261\nimpurity = 0.5714\nsamples = 7\nvalue = [0, 4, 2, 1]"] ;
722 -> 723 ;
724 [label="impurity = 0.5\nsamples = 2\nvalue = [0, 1, 1, 0]"] ;
723 -> 724 ;
725 [label="impurity = 0.56\nsamples = 5\nvalue = [0, 3, 1, 1]"] ;
723 -> 725 ;
726 [label="Item_Outlet_Sales <= 590.2317\nimpurity = 0.5453\nsamples = 74\nvalue = [20, 45, 8, 1]"] ;
722 -> 726 ;
727 [label="Item_Outlet_Sales <= 574.2525\nimpurity = 0.5096\nsamples = 56\nvalue = [15, 36, 4, 1]"] ;
726 -> 727 ;
728 [label="Item_Outlet_Sales <= 572.9209\nimpurity = 0.5\nsamples = 6\nvalue = [3, 3, 0, 0]"] ;
727 -> 728 ;
729 [label="Item_Outlet_Sales <= 571.9222\nimpurity = 0.48\nsamples = 5\nvalue = [2, 3, 0, 0]"] ;
728 -> 729 ;
730 [label="impurity = 0.4444\nsamples = 3\nvalue = [1, 2, 0, 0]"] ;
729 -> 730 ;
731 [label="impurity = 0.5\nsamples = 2\nvalue = [1, 1, 0, 0]"] ;
729 -> 731 ;
732 [label="impurity = 0.0\nsamples = 1\nvalue = [1, 0, 0, 0]"] ;
728 -> 732 ;
733 [label="Item_Outlet_Sales <= 586.5698\nimpurity = 0.5\nsamples = 50\nvalue = [12, 33, 4, 1]"] ;
727 -> 733 ;
734 [label="Item_Outlet_Sales <= 584.2395\nimpurity = 0.5509\nsamples = 36\nvalue = [9, 22, 4, 1]"] ;
733 -> 734 ;
735 [label="Item_Outlet_Sales <= 576.5828\nimpurity = 0.4704\nsamples = 26\nvalue = [5, 18, 3, 0]"] ;
734 -> 735 ;
736 [label="Item_Outlet_Sales <= 575.5841\nimpurity = 0.5444\nsamples = 13\nvalue = [3, 8, 2, 0]"] ;
735 -> 736 ;
737 [label="impurity = 0.5\nsamples = 12\nvalue = [2, 8, 2, 0]"] ;
736 -> 737 ;
738 [label="impurity = 0.0\nsamples = 1\nvalue = [1, 0, 0, 0]"] ;
736 -> 738 ;
739 [label="Item_Outlet_Sales <= 578.9131\nimpurity = 0.3787\nsamples = 13\nvalue = [2, 10, 1, 0]"] ;
735 -> 739 ;
740 [label="impurity = 0.0\nsamples = 3\nvalue = [0, 3, 0, 0]"] ;
739 -> 740 ;
741 [label="Item_Outlet_Sales <= 581.2434\nimpurity = 0.46\nsamples = 10\nvalue = [2, 7, 1, 0]"] ;
739 -> 741 ;
742 [label="impurity = 0.56\nsamples = 5\nvalue = [1, 3, 1, 0]"] ;
741 -> 742 ;
743 [label="impurity = 0.32\nsamples = 5\nvalue = [1, 4, 0, 0]"] ;
741 -> 743 ;
744 [label="Item_Outlet_Sales <= 585.5711\nimpurity = 0.66\nsamples = 10\nvalue = [4, 4, 1, 1]"] ;
734 -> 744 ;
745 [label="impurity = 0.0\nsamples = 2\nvalue = [2, 0, 0, 0]"] ;
744 -> 745 ;
746 [label="impurity = 0.6563\nsamples = 8\nvalue = [2, 4, 1, 1]"] ;
744 -> 746 ;
747 [label="Item_Outlet_Sales <= 587.9014\nimpurity = 0.3367\nsamples = 14\nvalue = [3, 11, 0, 0]"] ;
733 -> 747 ;
748 [label="impurity = 0.0\nsamples = 4\nvalue = [0, 4, 0, 0]"] ;
747 -> 748 ;
749 [label="Item_Outlet_Sales <= 588.9001\nimpurity = 0.42\nsamples = 10\nvalue = [3, 7, 0, 0]"] ;
747 -> 749 ;
750 [label="impurity = 0.375\nsamples = 4\nvalue = [1, 3, 0, 0]"] ;
749 -> 750 ;
751 [label="impurity = 0.4444\nsamples = 6\nvalue = [2, 4, 0, 0]"] ;
749 -> 751 ;
752 [label="Item_Outlet_Sales <= 592.8949\nimpurity = 0.6235\nsamples = 18\nvalue = [5, 9, 4, 0]"] ;
726 -> 752 ;
753 [label="Item_Outlet_Sales <= 592.2291\nimpurity = 0.6391\nsamples = 13\nvalue = [4, 6, 3, 0]"] ;
752 -> 753 ;
754 [label="Item_Outlet_Sales <= 591.5633\nimpurity = 0.625\nsamples = 8\nvalue = [2, 4, 2, 0]"] ;
753 -> 754 ;
755 [label="impurity = 0.6111\nsamples = 6\nvalue = [2, 3, 1, 0]"] ;
754 -> 755 ;
756 [label="impurity = 0.5\nsamples = 2\nvalue = [0, 1, 1, 0]"] ;
754 -> 756 ;
757 [label="impurity = 0.64\nsamples = 5\nvalue = [2, 2, 1, 0]"] ;
753 -> 757 ;
758 [label="impurity = 0.56\nsamples = 5\nvalue = [1, 3, 1, 0]"] ;
752 -> 758 ;
759 [label="Item_Outlet_Sales <= 594.5594\nimpurity = 0.4444\nsamples = 6\nvalue = [4, 2, 0, 0]"] ;
591 -> 759 ;
760 [label="impurity = 0.0\nsamples = 1\nvalue = [1, 0, 0, 0]"] ;
759 -> 760 ;
761 [label="impurity = 0.48\nsamples = 5\nvalue = [3, 2, 0, 0]"] ;
759 -> 761 ;
762 [label="Item_Outlet_Sales <= 788.6401\nimpurity = 0.4721\nsamples = 505\nvalue = [77, 354, 55, 19]"] ;
588 -> 762 ;
763 [label="Item_Outlet_Sales <= 652.8169\nimpurity = 0.463\nsamples = 492\nvalue = [70, 349, 54, 19]"] ;
762 -> 763 ;
764 [label="Item_Outlet_Sales <= 611.8702\nimpurity = 0.4725\nsamples = 150\nvalue = [13, 105, 25, 7]"] ;
763 -> 764 ;
765 [label="Item_Outlet_Sales <= 607.5425\nimpurity = 0.2825\nsamples = 38\nvalue = [2, 32, 2, 2]"] ;
764 -> 765 ;
766 [label="Item_Outlet_Sales <= 596.8897\nimpurity = 0.24\nsamples = 30\nvalue = [2, 26, 2, 0]"] ;
765 -> 766 ;
767 [label="impurity = 0.375\nsamples = 4\nvalue = [1, 3, 0, 0]"] ;
766 -> 767 ;
768 [label="Item_Outlet_Sales <= 602.2161\nimpurity = 0.2101\nsamples = 26\nvalue = [1, 23, 2, 0]"] ;
766 -> 768 ;
769 [label="impurity = 0.0\nsamples = 8\nvalue = [0, 8, 0, 0]"] ;
768 -> 769 ;
770 [label="Item_Outlet_Sales <= 605.2122\nimpurity = 0.2901\nsamples = 18\nvalue = [1, 15, 2, 0]"] ;
768 -> 770 ;
771 [label="Item_Outlet_Sales <= 603.5477\nimpurity = 0.625\nsamples = 4\nvalue = [1, 2, 1, 0]"] ;
770 -> 771 ;
772 [label="impurity = 0.5\nsamples = 2\nvalue = [0, 1, 1, 0]"] ;
771 -> 772 ;
773 [label="impurity = 0.5\nsamples = 2\nvalue = [1, 1, 0, 0]"] ;
771 -> 773 ;
774 [label="Item_Outlet_Sales <= 606.5438\nimpurity = 0.1327\nsamples = 14\nvalue = [0, 13, 1, 0]"] ;
770 -> 774 ;
775 [label="impurity = 0.0\nsamples = 8\nvalue = [0, 8, 0, 0]"] ;
774 -> 775 ;
776 [label="impurity = 0.2778\nsamples = 6\nvalue = [0, 5, 1, 0]"] ;
774 -> 776 ;
777 [label="Item_Outlet_Sales <= 608.5412\nimpurity = 0.375\nsamples = 8\nvalue = [0, 6, 0, 2]"] ;
765 -> 777 ;
778 [label="impurity = 0.0\nsamples = 2\nvalue = [0, 0, 0, 2]"] ;
777 -> 778 ;
779 [label="impurity = 0.0\nsamples = 6\nvalue = [0, 6, 0, 0]"] ;
777 -> 779 ;
780 [label="Item_Outlet_Sales <= 619.5269\nimpurity = 0.5214\nsamples = 112\nvalue = [11, 73, 23, 5]"] ;
764 -> 780 ;
781 [label="Item_Outlet_Sales <= 618.5282\nimpurity = 0.59\nsamples = 20\nvalue = [1, 9, 9, 1]"] ;
780 -> 781 ;
782 [label="Item_Outlet_Sales <= 616.5308\nimpurity = 0.5781\nsamples = 16\nvalue = [1, 9, 5, 1]"] ;
781 -> 782 ;
783 [label="Item_Outlet_Sales <= 614.8663\nimpurity = 0.5408\nsamples = 14\nvalue = [0, 8, 5, 1]"] ;
782 -> 783 ;
784 [label="Item_Outlet_Sales <= 613.5347\nimpurity = 0.4444\nsamples = 6\nvalue = [0, 4, 2, 0]"] ;
783 -> 784 ;
785 [label="impurity = 0.4444\nsamples = 3\nvalue = [0, 2, 1, 0]"] ;
784 -> 785 ;
786 [label="impurity = 0.4444\nsamples = 3\nvalue = [0, 2, 1, 0]"] ;
784 -> 786 ;
787 [label="impurity = 0.5938\nsamples = 8\nvalue = [0, 4, 3, 1]"] ;
783 -> 787 ;
788 [label="impurity = 0.5\nsamples = 2\nvalue = [1, 1, 0, 0]"] ;
782 -> 788 ;
789 [label="impurity = 0.0\nsamples = 4\nvalue = [0, 0, 4, 0]"] ;
781 -> 789 ;
790 [label="Item_Outlet_Sales <= 643.8286\nimpurity = 0.4792\nsamples = 92\nvalue = [10, 64, 14, 4]"] ;
780 -> 790 ;
791 [label="Item_Outlet_Sales <= 622.8559\nimpurity = 0.4025\nsamples = 58\nvalue = [7, 44, 3, 4]"] ;
790 -> 791 ;
792 [label="Item_Outlet_Sales <= 620.8585\nimpurity = 0.5938\nsamples = 8\nvalue = [3, 4, 0, 1]"] ;
791 -> 792 ;
793 [label="impurity = 0.0\nsamples = 2\nvalue = [0, 2, 0, 0]"] ;
792 -> 793 ;
794 [label="Item_Outlet_Sales <= 621.8572\nimpurity = 0.6111\nsamples = 6\nvalue = [3, 2, 0, 1]"] ;
792 -> 794 ;
795 [label="impurity = 0.0\nsamples = 2\nvalue = [2, 0, 0, 0]"] ;
794 -> 795 ;
796 [label="impurity = 0.625\nsamples = 4\nvalue = [1, 2, 0, 1]"] ;
794 -> 796 ;
797 [label="Item_Outlet_Sales <= 640.8325\nimpurity = 0.3464\nsamples = 50\nvalue = [4, 40, 3, 3]"] ;
791 -> 797 ;
798 [label="Item_Outlet_Sales <= 636.1719\nimpurity = 0.2899\nsamples = 43\nvalue = [2, 36, 3, 2]"] ;
797 -> 798 ;
799 [label="Item_Outlet_Sales <= 634.5074\nimpurity = 0.3567\nsamples = 29\nvalue = [2, 23, 2, 2]"] ;
798 -> 799 ;
800 [label="Item_Outlet_Sales <= 623.8546\nimpurity = 0.3237\nsamples = 27\nvalue = [2, 22, 1, 2]"] ;
799 -> 800 ;
801 [label="impurity = 0.0\nsamples = 5\nvalue = [0, 5, 0, 0]"] ;
800 -> 801 ;
802 [label="Item_Outlet_Sales <= 632.1771\nimpurity = 0.3843\nsamples = 22\nvalue = [2, 17, 1, 2]"] ;
800 -> 802 ;
803 [label="Item_Outlet_Sales <= 631.5113\nimpurity = 0.4852\nsamples = 13\nvalue = [1, 9, 1, 2]"] ;
802 -> 803 ;
804 [label="Item_Outlet_Sales <= 625.1862\nimpurity = 0.4463\nsamples = 11\nvalue = [1, 8, 1, 1]"] ;
803 -> 804 ;
805 [label="impurity = 0.4444\nsamples = 3\nvalue = [0, 2, 0, 1]"] ;
804 -> 805 ;
806 [label="Item_Outlet_Sales <= 627.8494\nimpurity = 0.4063\nsamples = 8\nvalue = [1, 6, 1, 0]"] ;
804 -> 806 ;
807 [label="impurity = 0.0\nsamples = 2\nvalue = [0, 2, 0, 0]"] ;
806 -> 807 ;
808 [label="Item_Outlet_Sales <= 628.8481\nimpurity = 0.5\nsamples = 6\nvalue = [1, 4, 1, 0]"] ;
806 -> 808 ;
809 [label="impurity = 0.625\nsamples = 4\nvalue = [1, 2, 1, 0]"] ;
808 -> 809 ;
810 [label="impurity = 0.0\nsamples = 2\nvalue = [0, 2, 0, 0]"] ;
808 -> 810 ;
811 [label="impurity = 0.5\nsamples = 2\nvalue = [0, 1, 0, 1]"] ;
803 -> 811 ;
812 [label="Item_Outlet_Sales <= 633.1758\nimpurity = 0.1975\nsamples = 9\nvalue = [1, 8, 0, 0]"] ;
802 -> 812 ;
813 [label="impurity = 0.0\nsamples = 1\nvalue = [0, 1, 0, 0]"] ;
812 -> 813 ;
814 [label="impurity = 0.2188\nsamples = 8\nvalue = [1, 7, 0, 0]"] ;
812 -> 814 ;
815 [label="impurity = 0.5\nsamples = 2\nvalue = [0, 1, 1, 0]"] ;
799 -> 815 ;
816 [label="Item_Outlet_Sales <= 638.8351\nimpurity = 0.1327\nsamples = 14\nvalue = [0, 13, 1, 0]"] ;
798 -> 816 ;
817 [label="impurity = 0.0\nsamples = 2\nvalue = [0, 2, 0, 0]"] ;
816 -> 817 ;
818 [label="Item_Outlet_Sales <= 639.8338\nimpurity = 0.1528\nsamples = 12\nvalue = [0, 11, 1, 0]"] ;
816 -> 818 ;
819 [label="impurity = 0.1653\nsamples = 11\nvalue = [0, 10, 1, 0]"] ;
818 -> 819 ;
820 [label="impurity = 0.0\nsamples = 1\nvalue = [0, 1, 0, 0]"] ;
818 -> 820 ;
821 [label="Item_Outlet_Sales <= 642.1641\nimpurity = 0.5714\nsamples = 7\nvalue = [2, 4, 0, 1]"] ;
797 -> 821 ;
822 [label="Item_Outlet_Sales <= 641.4983\nimpurity = 0.5\nsamples = 2\nvalue = [1, 0, 0, 1]"] ;
821 -> 822 ;
823 [label="impurity = 0.0\nsamples = 1\nvalue = [1, 0, 0, 0]"] ;
822 -> 823 ;
824 [label="impurity = 0.0\nsamples = 1\nvalue = [0, 0, 0, 1]"] ;
822 -> 824 ;
825 [label="Item_Outlet_Sales <= 642.8299\nimpurity = 0.32\nsamples = 5\nvalue = [1, 4, 0, 0]"] ;
821 -> 825 ;
826 [label="impurity = 0.0\nsamples = 3\nvalue = [0, 3, 0, 0]"] ;
825 -> 826 ;
827 [label="impurity = 0.5\nsamples = 2\nvalue = [1, 1, 0, 0]"] ;
825 -> 827 ;
828 [label="Item_Outlet_Sales <= 644.8273\nimpurity = 0.5415\nsamples = 34\nvalue = [3, 20, 11, 0]"] ;
790 -> 828 ;
829 [label="impurity = 0.32\nsamples = 5\nvalue = [0, 1, 4, 0]"] ;
828 -> 829 ;
830 [label="Item_Outlet_Sales <= 645.4931\nimpurity = 0.5018\nsamples = 29\nvalue = [3, 19, 7, 0]"] ;
828 -> 830 ;
831 [label="impurity = 0.0\nsamples = 5\nvalue = [0, 5, 0, 0]"] ;
830 -> 831 ;
832 [label="Item_Outlet_Sales <= 646.4918\nimpurity = 0.559\nsamples = 24\nvalue = [3, 14, 7, 0]"] ;
830 -> 832 ;
833 [label="impurity = 0.0\nsamples = 1\nvalue = [1, 0, 0, 0]"] ;
832 -> 833 ;
834 [label="Item_Outlet_Sales <= 651.4853\nimpurity = 0.5293\nsamples = 23\nvalue = [2, 14, 7, 0]"] ;
832 -> 834 ;
835 [label="Item_Outlet_Sales <= 650.4866\nimpurity = 0.5703\nsamples = 16\nvalue = [2, 9, 5, 0]"] ;
834 -> 835 ;
836 [label="Item_Outlet_Sales <= 649.4879\nimpurity = 0.5511\nsamples = 15\nvalue = [2, 9, 4, 0]"] ;
835 -> 836 ;
837 [label="Item_Outlet_Sales <= 647.4905\nimpurity = 0.5124\nsamples = 11\nvalue = [1, 7, 3, 0]"] ;
836 -> 837 ;
838 [label="impurity = 0.56\nsamples = 5\nvalue = [1, 3, 1, 0]"] ;
837 -> 838 ;
839 [label="Item_Outlet_Sales <= 648.4893\nimpurity = 0.4444\nsamples = 6\nvalue = [0, 4, 2, 0]"] ;
837 -> 839 ;
840 [label="impurity = 0.5\nsamples = 2\nvalue = [0, 1, 1, 0]"] ;
839 -> 840 ;
841 [label="impurity = 0.375\nsamples = 4\nvalue = [0, 3, 1, 0]"] ;
839 -> 841 ;
842 [label="impurity = 0.625\nsamples = 4\nvalue = [1, 2, 1, 0]"] ;
836 -> 842 ;
843 [label="impurity = 0.0\nsamples = 1\nvalue = [0, 0, 1, 0]"] ;
835 -> 843 ;
844 [label="Item_Outlet_Sales <= 652.1511\nimpurity = 0.4082\nsamples = 7\nvalue = [0, 5, 2, 0]"] ;
834 -> 844 ;
845 [label="impurity = 0.4444\nsamples = 3\nvalue = [0, 2, 1, 0]"] ;
844 -> 845 ;
846 [label="impurity = 0.375\nsamples = 4\nvalue = [0, 3, 1, 0]"] ;
844 -> 846 ;
847 [label="Item_Outlet_Sales <= 698.4242\nimpurity = 0.4548\nsamples = 342\nvalue = [57, 244, 29, 12]"] ;
763 -> 847 ;
848 [label="Item_Outlet_Sales <= 696.0939\nimpurity = 0.49\nsamples = 100\nvalue = [23, 67, 9, 1]"] ;
847 -> 848 ;
849 [label="Item_Outlet_Sales <= 658.4762\nimpurity = 0.475\nsamples = 96\nvalue = [20, 66, 9, 1]"] ;
848 -> 849 ;
850 [label="Item_Outlet_Sales <= 657.1447\nimpurity = 0.4898\nsamples = 7\nvalue = [3, 4, 0, 0]"] ;
849 -> 850 ;
851 [label="impurity = 0.0\nsamples = 3\nvalue = [0, 3, 0, 0]"] ;
850 -> 851 ;
852 [label="impurity = 0.375\nsamples = 4\nvalue = [3, 1, 0, 0]"] ;
850 -> 852 ;
853 [label="Item_Outlet_Sales <= 694.7623\nimpurity = 0.4679\nsamples = 89\nvalue = [17, 62, 9, 1]"] ;
849 -> 853 ;
854 [label="Item_Outlet_Sales <= 692.7649\nimpurity = 0.4792\nsamples = 86\nvalue = [17, 59, 9, 1]"] ;
853 -> 854 ;
855 [label="Item_Outlet_Sales <= 689.4359\nimpurity = 0.4651\nsamples = 83\nvalue = [16, 58, 8, 1]"] ;
854 -> 855 ;
856 [label="Item_Outlet_Sales <= 684.1095\nimpurity = 0.4905\nsamples = 74\nvalue = [15, 50, 8, 1]"] ;
855 -> 856 ;
857 [label="Item_Outlet_Sales <= 678.1173\nimpurity = 0.4464\nsamples = 67\nvalue = [12, 48, 6, 1]"] ;
856 -> 857 ;
858 [label="Item_Outlet_Sales <= 674.4554\nimpurity = 0.5234\nsamples = 48\nvalue = [10, 31, 6, 1]"] ;
857 -> 858 ;
859 [label="Item_Outlet_Sales <= 672.458\nimpurity = 0.4413\nsamples = 40\nvalue = [6, 29, 4, 1]"] ;
858 -> 859 ;
860 [label="Item_Outlet_Sales <= 667.4645\nimpurity = 0.4252\nsamples = 38\nvalue = [6, 28, 3, 1]"] ;
859 -> 860 ;
861 [label="Item_Outlet_Sales <= 666.7987\nimpurity = 0.4479\nsamples = 24\nvalue = [5, 17, 2, 0]"] ;
860 -> 861 ;
862 [label="Item_Outlet_Sales <= 666.1329\nimpurity = 0.4298\nsamples = 22\nvalue = [4, 16, 2, 0]"] ;
861 -> 862 ;
863 [label="Item_Outlet_Sales <= 659.8078\nimpurity = 0.4765\nsamples = 19\nvalue = [4, 13, 2, 0]"] ;
862 -> 863 ;
864 [label="impurity = 0.2778\nsamples = 6\nvalue = [1, 5, 0, 0]"] ;
863 -> 864 ;
865 [label="Item_Outlet_Sales <= 661.4723\nimpurity = 0.5444\nsamples = 13\nvalue = [3, 8, 2, 0]"] ;
863 -> 865 ;
866 [label="Item_Outlet_Sales <= 660.8065\nimpurity = 0.6667\nsamples = 3\nvalue = [1, 1, 1, 0]"] ;
865 -> 866 ;
867 [label="impurity = 0.5\nsamples = 2\nvalue = [1, 1, 0, 0]"] ;
866 -> 867 ;
868 [label="impurity = 0.0\nsamples = 1\nvalue = [0, 0, 1, 0]"] ;
866 -> 868 ;
869 [label="Item_Outlet_Sales <= 662.4709\nimpurity = 0.46\nsamples = 10\nvalue = [2, 7, 1, 0]"] ;
865 -> 869 ;
870 [label="impurity = 0.0\nsamples = 2\nvalue = [0, 2, 0, 0]"] ;
869 -> 870 ;
871 [label="Item_Outlet_Sales <= 664.4684\nimpurity = 0.5313\nsamples = 8\nvalue = [2, 5, 1, 0]"] ;
869 -> 871 ;
872 [label="impurity = 0.5\nsamples = 6\nvalue = [1, 4, 1, 0]"] ;
871 -> 872 ;
873 [label="impurity = 0.5\nsamples = 2\nvalue = [1, 1, 0, 0]"] ;
871 -> 873 ;
874 [label="impurity = 0.0\nsamples = 3\nvalue = [0, 3, 0, 0]"] ;
862 -> 874 ;
875 [label="impurity = 0.5\nsamples = 2\nvalue = [1, 1, 0, 0]"] ;
861 -> 875 ;
876 [label="Item_Outlet_Sales <= 669.7948\nimpurity = 0.3673\nsamples = 14\nvalue = [1, 11, 1, 1]"] ;
860 -> 876 ;
877 [label="impurity = 0.0\nsamples = 4\nvalue = [0, 4, 0, 0]"] ;
876 -> 877 ;
878 [label="Item_Outlet_Sales <= 670.7935\nimpurity = 0.48\nsamples = 10\nvalue = [1, 7, 1, 1]"] ;
876 -> 878 ;
879 [label="impurity = 0.0\nsamples = 1\nvalue = [0, 0, 1, 0]"] ;
878 -> 879 ;
880 [label="impurity = 0.3704\nsamples = 9\nvalue = [1, 7, 0, 1]"] ;
878 -> 880 ;
881 [label="impurity = 0.5\nsamples = 2\nvalue = [0, 1, 1, 0]"] ;
859 -> 881 ;
882 [label="Item_Outlet_Sales <= 675.4541\nimpurity = 0.625\nsamples = 8\nvalue = [4, 2, 2, 0]"] ;
858 -> 882 ;
883 [label="impurity = 0.4444\nsamples = 3\nvalue = [2, 1, 0, 0]"] ;
882 -> 883 ;
884 [label="Item_Outlet_Sales <= 676.4528\nimpurity = 0.64\nsamples = 5\nvalue = [2, 1, 2, 0]"] ;
882 -> 884 ;
885 [label="impurity = 0.0\nsamples = 1\nvalue = [0, 0, 1, 0]"] ;
884 -> 885 ;
886 [label="impurity = 0.625\nsamples = 4\nvalue = [2, 1, 1, 0]"] ;
884 -> 886 ;
887 [label="Item_Outlet_Sales <= 682.4449\nimpurity = 0.1884\nsamples = 19\nvalue = [2, 17, 0, 0]"] ;
857 -> 887 ;
888 [label="Item_Outlet_Sales <= 679.7818\nimpurity = 0.1327\nsamples = 14\nvalue = [1, 13, 0, 0]"] ;
887 -> 888 ;
889 [label="impurity = 0.1653\nsamples = 11\nvalue = [1, 10, 0, 0]"] ;
888 -> 889 ;
890 [label="impurity = 0.0\nsamples = 3\nvalue = [0, 3, 0, 0]"] ;
888 -> 890 ;
891 [label="impurity = 0.32\nsamples = 5\nvalue = [1, 4, 0, 0]"] ;
887 -> 891 ;
892 [label="Item_Outlet_Sales <= 686.1069\nimpurity = 0.6531\nsamples = 7\nvalue = [3, 2, 2, 0]"] ;
856 -> 892 ;
893 [label="impurity = 0.0\nsamples = 1\nvalue = [0, 0, 1, 0]"] ;
892 -> 893 ;
894 [label="Item_Outlet_Sales <= 688.1043\nimpurity = 0.6111\nsamples = 6\nvalue = [3, 2, 1, 0]"] ;
892 -> 894 ;
895 [label="impurity = 0.64\nsamples = 5\nvalue = [2, 2, 1, 0]"] ;
894 -> 895 ;
896 [label="impurity = 0.0\nsamples = 1\nvalue = [1, 0, 0, 0]"] ;
894 -> 896 ;
897 [label="Item_Outlet_Sales <= 690.7675\nimpurity = 0.1975\nsamples = 9\nvalue = [1, 8, 0, 0]"] ;
855 -> 897 ;
898 [label="impurity = 0.0\nsamples = 6\nvalue = [0, 6, 0, 0]"] ;
897 -> 898 ;
899 [label="Item_Outlet_Sales <= 691.7662\nimpurity = 0.4444\nsamples = 3\nvalue = [1, 2, 0, 0]"] ;
897 -> 899 ;
900 [label="impurity = 0.5\nsamples = 2\nvalue = [1, 1, 0, 0]"] ;
899 -> 900 ;
901 [label="impurity = 0.0\nsamples = 1\nvalue = [0, 1, 0, 0]"] ;
899 -> 901 ;
902 [label="Item_Outlet_Sales <= 693.7635\nimpurity = 0.6667\nsamples = 3\nvalue = [1, 1, 1, 0]"] ;
854 -> 902 ;
903 [label="impurity = 0.0\nsamples = 1\nvalue = [1, 0, 0, 0]"] ;
902 -> 903 ;
904 [label="impurity = 0.5\nsamples = 2\nvalue = [0, 1, 1, 0]"] ;
902 -> 904 ;
905 [label="impurity = 0.0\nsamples = 3\nvalue = [0, 3, 0, 0]"] ;
853 -> 905 ;
906 [label="Item_Outlet_Sales <= 697.4255\nimpurity = 0.375\nsamples = 4\nvalue = [3, 1, 0, 0]"] ;
848 -> 906 ;
907 [label="impurity = 0.0\nsamples = 2\nvalue = [2, 0, 0, 0]"] ;
906 -> 907 ;
908 [label="impurity = 0.5\nsamples = 2\nvalue = [1, 1, 0, 0]"] ;
906 -> 908 ;
909 [label="Item_Outlet_Sales <= 710.7415\nimpurity = 0.4364\nsamples = 242\nvalue = [34, 177, 20, 11]"] ;
847 -> 909 ;
910 [label="Item_Outlet_Sales <= 702.4189\nimpurity = 0.2163\nsamples = 34\nvalue = [1, 30, 2, 1]"] ;
909 -> 910 ;
911 [label="Item_Outlet_Sales <= 699.7558\nimpurity = 0.449\nsamples = 7\nvalue = [0, 5, 1, 1]"] ;
910 -> 911 ;
912 [label="impurity = 0.4444\nsamples = 3\nvalue = [0, 2, 1, 0]"] ;
911 -> 912 ;
913 [label="Item_Outlet_Sales <= 701.0874\nimpurity = 0.375\nsamples = 4\nvalue = [0, 3, 0, 1]"] ;
911 -> 913 ;
914 [label="impurity = 0.0\nsamples = 1\nvalue = [0, 1, 0, 0]"] ;
913 -> 914 ;
915 [label="impurity = 0.4444\nsamples = 3\nvalue = [0, 2, 0, 1]"] ;
913 -> 915 ;
916 [label="Item_Outlet_Sales <= 707.7454\nimpurity = 0.1399\nsamples = 27\nvalue = [1, 25, 1, 0]"] ;
910 -> 916 ;
917 [label="Item_Outlet_Sales <= 704.4164\nimpurity = 0.1049\nsamples = 18\nvalue = [0, 17, 1, 0]"] ;
916 -> 917 ;
918 [label="impurity = 0.1244\nsamples = 15\nvalue = [0, 14, 1, 0]"] ;
917 -> 918 ;
919 [label="impurity = 0.0\nsamples = 3\nvalue = [0, 3, 0, 0]"] ;
917 -> 919 ;
920 [label="Item_Outlet_Sales <= 708.7441\nimpurity = 0.1975\nsamples = 9\nvalue = [1, 8, 0, 0]"] ;
916 -> 920 ;
921 [label="impurity = 0.32\nsamples = 5\nvalue = [1, 4, 0, 0]"] ;
920 -> 921 ;
922 [label="impurity = 0.0\nsamples = 4\nvalue = [0, 4, 0, 0]"] ;
920 -> 922 ;
923 [label="Item_Outlet_Sales <= 712.0731\nimpurity = 0.4656\nsamples = 208\nvalue = [33, 147, 18, 10]"] ;
909 -> 923 ;
924 [label="impurity = 0.6111\nsamples = 6\nvalue = [3, 2, 1, 0]"] ;
923 -> 924 ;
925 [label="Item_Outlet_Sales <= 787.3085\nimpurity = 0.4531\nsamples = 202\nvalue = [30, 145, 17, 10]"] ;
923 -> 925 ;
926 [label="Item_Outlet_Sales <= 786.3098\nimpurity = 0.4489\nsamples = 197\nvalue = [30, 142, 15, 10]"] ;
925 -> 926 ;
927 [label="Item_Outlet_Sales <= 780.6505\nimpurity = 0.4448\nsamples = 196\nvalue = [29, 142, 15, 10]"] ;
926 -> 927 ;
928 [label="Item_Outlet_Sales <= 718.0653\nimpurity = 0.4637\nsamples = 179\nvalue = [27, 127, 15, 10]"] ;
927 -> 928 ;
929 [label="Item_Outlet_Sales <= 715.735\nimpurity = 0.5204\nsamples = 14\nvalue = [2, 9, 0, 3]"] ;
928 -> 929 ;
930 [label="Item_Outlet_Sales <= 713.4047\nimpurity = 0.2188\nsamples = 8\nvalue = [0, 7, 0, 1]"] ;
929 -> 930 ;
931 [label="impurity = 0.4444\nsamples = 3\nvalue = [0, 2, 0, 1]"] ;
930 -> 931 ;
932 [label="impurity = 0.0\nsamples = 5\nvalue = [0, 5, 0, 0]"] ;
930 -> 932 ;
933 [label="Item_Outlet_Sales <= 717.3995\nimpurity = 0.6667\nsamples = 6\nvalue = [2, 2, 0, 2]"] ;
929 -> 933 ;
934 [label="Item_Outlet_Sales <= 716.7337\nimpurity = 0.4444\nsamples = 3\nvalue = [2, 1, 0, 0]"] ;
933 -> 934 ;
935 [label="impurity = 0.5\nsamples = 2\nvalue = [1, 1, 0, 0]"] ;
934 -> 935 ;
936 [label="impurity = 0.0\nsamples = 1\nvalue = [1, 0, 0, 0]"] ;
934 -> 936 ;
937 [label="impurity = 0.4444\nsamples = 3\nvalue = [0, 1, 0, 2]"] ;
933 -> 937 ;
938 [label="Item_Outlet_Sales <= 750.6895\nimpurity = 0.4555\nsamples = 165\nvalue = [25, 118, 15, 7]"] ;
928 -> 938 ;
939 [label="Item_Outlet_Sales <= 729.3839\nimpurity = 0.3916\nsamples = 76\nvalue = [10, 58, 7, 1]"] ;
938 -> 939 ;
940 [label="Item_Outlet_Sales <= 718.7311\nimpurity = 0.5237\nsamples = 26\nvalue = [4, 17, 4, 1]"] ;
939 -> 940 ;
941 [label="impurity = 0.0\nsamples = 3\nvalue = [0, 3, 0, 0]"] ;
940 -> 941 ;
942 [label="Item_Outlet_Sales <= 725.722\nimpurity = 0.5671\nsamples = 23\nvalue = [4, 14, 4, 1]"] ;
940 -> 942 ;
943 [label="Item_Outlet_Sales <= 722.7259\nimpurity = 0.5813\nsamples = 17\nvalue = [4, 10, 2, 1]"] ;
942 -> 943 ;
944 [label="Item_Outlet_Sales <= 720.0627\nimpurity = 0.5408\nsamples = 14\nvalue = [2, 9, 2, 1]"] ;
943 -> 944 ;
945 [label="impurity = 0.5714\nsamples = 7\nvalue = [2, 4, 1, 0]"] ;
944 -> 945 ;
946 [label="Item_Outlet_Sales <= 721.7272\nimpurity = 0.449\nsamples = 7\nvalue = [0, 5, 1, 1]"] ;
944 -> 946 ;
947 [label="impurity = 0.375\nsamples = 4\nvalue = [0, 3, 0, 1]"] ;
946 -> 947 ;
948 [label="impurity = 0.4444\nsamples = 3\nvalue = [0, 2, 1, 0]"] ;
946 -> 948 ;
949 [label="Item_Outlet_Sales <= 723.7246\nimpurity = 0.4444\nsamples = 3\nvalue = [2, 1, 0, 0]"] ;
943 -> 949 ;
950 [label="impurity = 0.0\nsamples = 1\nvalue = [1, 0, 0, 0]"] ;
949 -> 950 ;
951 [label="impurity = 0.5\nsamples = 2\nvalue = [1, 1, 0, 0]"] ;
949 -> 951 ;
952 [label="Item_Outlet_Sales <= 728.0523\nimpurity = 0.4444\nsamples = 6\nvalue = [0, 4, 2, 0]"] ;
942 -> 952 ;
953 [label="impurity = 0.4444\nsamples = 3\nvalue = [0, 2, 1, 0]"] ;
952 -> 953 ;
954 [label="impurity = 0.4444\nsamples = 3\nvalue = [0, 2, 1, 0]"] ;
952 -> 954 ;
955 [label="Item_Outlet_Sales <= 746.0289\nimpurity = 0.3096\nsamples = 50\nvalue = [6, 41, 3, 0]"] ;
939 -> 955 ;
956 [label="Item_Outlet_Sales <= 745.0302\nimpurity = 0.344\nsamples = 44\nvalue = [6, 35, 3, 0]"] ;
955 -> 956 ;
957 [label="Item_Outlet_Sales <= 733.7116\nimpurity = 0.277\nsamples = 38\nvalue = [4, 32, 2, 0]"] ;
956 -> 957 ;
958 [label="Item_Outlet_Sales <= 731.7142\nimpurity = 0.3787\nsamples = 13\nvalue = [2, 10, 1, 0]"] ;
957 -> 958 ;
959 [label="Item_Outlet_Sales <= 730.3826\nimpurity = 0.2449\nsamples = 7\nvalue = [1, 6, 0, 0]"] ;
958 -> 959 ;
960 [label="impurity = 0.0\nsamples = 2\nvalue = [0, 2, 0, 0]"] ;
959 -> 960 ;
961 [label="impurity = 0.32\nsamples = 5\nvalue = [1, 4, 0, 0]"] ;
959 -> 961 ;
962 [label="impurity = 0.5\nsamples = 6\nvalue = [1, 4, 1, 0]"] ;
958 -> 962 ;
963 [label="Item_Outlet_Sales <= 737.7064\nimpurity = 0.2176\nsamples = 25\nvalue = [2, 22, 1, 0]"] ;
957 -> 963 ;
964 [label="Item_Outlet_Sales <= 736.0419\nimpurity = 0.2188\nsamples = 8\nvalue = [0, 7, 1, 0]"] ;
963 -> 964 ;
965 [label="impurity = 0.0\nsamples = 4\nvalue = [0, 4, 0, 0]"] ;
964 -> 965 ;
966 [label="impurity = 0.375\nsamples = 4\nvalue = [0, 3, 1, 0]"] ;
964 -> 966 ;
967 [label="Item_Outlet_Sales <= 743.6986\nimpurity = 0.2076\nsamples = 17\nvalue = [2, 15, 0, 0]"] ;
963 -> 967 ;
968 [label="Item_Outlet_Sales <= 742.0341\nimpurity = 0.2449\nsamples = 14\nvalue = [2, 12, 0, 0]"] ;
967 -> 968 ;
969 [label="Item_Outlet_Sales <= 740.0367\nimpurity = 0.1975\nsamples = 9\nvalue = [1, 8, 0, 0]"] ;
968 -> 969 ;
970 [label="impurity = 0.2449\nsamples = 7\nvalue = [1, 6, 0, 0]"] ;
969 -> 970 ;
971 [label="impurity = 0.0\nsamples = 2\nvalue = [0, 2, 0, 0]"] ;
969 -> 971 ;
972 [label="impurity = 0.32\nsamples = 5\nvalue = [1, 4, 0, 0]"] ;
968 -> 972 ;
973 [label="impurity = 0.0\nsamples = 3\nvalue = [0, 3, 0, 0]"] ;
967 -> 973 ;
974 [label="impurity = 0.6111\nsamples = 6\nvalue = [2, 3, 1, 0]"] ;
956 -> 974 ;
975 [label="impurity = 0.0\nsamples = 6\nvalue = [0, 6, 0, 0]"] ;
955 -> 975 ;
976 [label="Item_Outlet_Sales <= 754.3514\nimpurity = 0.5045\nsamples = 89\nvalue = [15, 60, 8, 6]"] ;
938 -> 976 ;
977 [label="Item_Outlet_Sales <= 752.0211\nimpurity = 0.64\nsamples = 5\nvalue = [2, 2, 1, 0]"] ;
976 -> 977 ;
978 [label="impurity = 0.4444\nsamples = 3\nvalue = [1, 2, 0, 0]"] ;
977 -> 978 ;
979 [label="Item_Outlet_Sales <= 753.3527\nimpurity = 0.5\nsamples = 2\nvalue = [1, 0, 1, 0]"] ;
977 -> 979 ;
980 [label="impurity = 0.0\nsamples = 1\nvalue = [0, 0, 1, 0]"] ;
979 -> 980 ;
981 [label="impurity = 0.0\nsamples = 1\nvalue = [1, 0, 0, 0]"] ;
979 -> 981 ;
982 [label="Item_Outlet_Sales <= 769.9977\nimpurity = 0.4872\nsamples = 84\nvalue = [13, 58, 7, 6]"] ;
976 -> 982 ;
983 [label="Item_Outlet_Sales <= 769.3319\nimpurity = 0.5022\nsamples = 52\nvalue = [9, 35, 2, 6]"] ;
982 -> 983 ;
984 [label="Item_Outlet_Sales <= 763.6726\nimpurity = 0.4728\nsamples = 50\nvalue = [8, 35, 2, 5]"] ;
983 -> 984 ;
985 [label="Item_Outlet_Sales <= 762.6739\nimpurity = 0.4982\nsamples = 37\nvalue = [7, 25, 2, 3]"] ;
984 -> 985 ;
986 [label="Item_Outlet_Sales <= 760.3436\nimpurity = 0.4816\nsamples = 35\nvalue = [7, 24, 1, 3]"] ;
985 -> 986 ;
987 [label="Item_Outlet_Sales <= 757.3475\nimpurity = 0.4566\nsamples = 28\nvalue = [4, 20, 1, 3]"] ;
986 -> 987 ;
988 [label="Item_Outlet_Sales <= 756.0159\nimpurity = 0.5139\nsamples = 12\nvalue = [2, 8, 1, 1]"] ;
987 -> 988 ;
989 [label="Item_Outlet_Sales <= 755.3501\nimpurity = 0.48\nsamples = 10\nvalue = [1, 7, 1, 1]"] ;
988 -> 989 ;
990 [label="impurity = 0.5185\nsamples = 9\nvalue = [1, 6, 1, 1]"] ;
989 -> 990 ;
991 [label="impurity = 0.0\nsamples = 1\nvalue = [0, 1, 0, 0]"] ;
989 -> 991 ;
992 [label="impurity = 0.5\nsamples = 2\nvalue = [1, 1, 0, 0]"] ;
988 -> 992 ;
993 [label="Item_Outlet_Sales <= 758.6791\nimpurity = 0.4063\nsamples = 16\nvalue = [2, 12, 0, 2]"] ;
987 -> 993 ;
994 [label="impurity = 0.0\nsamples = 3\nvalue = [0, 3, 0, 0]"] ;
993 -> 994 ;
995 [label="Item_Outlet_Sales <= 759.3449\nimpurity = 0.4734\nsamples = 13\nvalue = [2, 9, 0, 2]"] ;
993 -> 995 ;
996 [label="impurity = 0.5\nsamples = 12\nvalue = [2, 8, 0, 2]"] ;
995 -> 996 ;
997 [label="impurity = 0.0\nsamples = 1\nvalue = [0, 1, 0, 0]"] ;
995 -> 997 ;
998 [label="Item_Outlet_Sales <= 761.3423\nimpurity = 0.4898\nsamples = 7\nvalue = [3, 4, 0, 0]"] ;
986 -> 998 ;
999 [label="impurity = 0.4444\nsamples = 3\nvalue = [2, 1, 0, 0]"] ;
998 -> 999 ;
1000 [label="Item_Outlet_Sales <= 762.0081\nimpurity = 0.375\nsamples = 4\nvalue = [1, 3, 0, 0]"] ;
998 -> 1000 ;
1001 [label="impurity = 0.0\nsamples = 2\nvalue = [0, 2, 0, 0]"] ;
1000 -> 1001 ;
1002 [label="impurity = 0.5\nsamples = 2\nvalue = [1, 1, 0, 0]"] ;
1000 -> 1002 ;
1003 [label="impurity = 0.5\nsamples = 2\nvalue = [0, 1, 1, 0]"] ;
985 -> 1003 ;
1004 [label="Item_Outlet_Sales <= 766.3358\nimpurity = 0.3787\nsamples = 13\nvalue = [1, 10, 0, 2]"] ;
984 -> 1004 ;
1005 [label="impurity = 0.0\nsamples = 4\nvalue = [0, 4, 0, 0]"] ;
1004 -> 1005 ;
1006 [label="Item_Outlet_Sales <= 768.0003\nimpurity = 0.4938\nsamples = 9\nvalue = [1, 6, 0, 2]"] ;
1004 -> 1006 ;
1007 [label="impurity = 0.56\nsamples = 5\nvalue = [1, 3, 0, 1]"] ;
1006 -> 1007 ;
1008 [label="impurity = 0.375\nsamples = 4\nvalue = [0, 3, 0, 1]"] ;
1006 -> 1008 ;
1009 [label="impurity = 0.5\nsamples = 2\nvalue = [1, 0, 0, 1]"] ;
983 -> 1009 ;
1010 [label="Item_Outlet_Sales <= 774.3254\nimpurity = 0.4434\nsamples = 32\nvalue = [4, 23, 5, 0]"] ;
982 -> 1010 ;
1011 [label="Item_Outlet_Sales <= 770.9964\nimpurity = 0.1975\nsamples = 9\nvalue = [0, 8, 1, 0]"] ;
1010 -> 1011 ;
1012 [label="impurity = 0.5\nsamples = 2\nvalue = [0, 1, 1, 0]"] ;
1011 -> 1012 ;
1013 [label="impurity = 0.0\nsamples = 7\nvalue = [0, 7, 0, 0]"] ;
1011 -> 1013 ;
1014 [label="Item_Outlet_Sales <= 776.3228\nimpurity = 0.5142\nsamples = 23\nvalue = [4, 15, 4, 0]"] ;
1010 -> 1014 ;
1015 [label="impurity = 0.6122\nsamples = 7\nvalue = [3, 3, 1, 0]"] ;
1014 -> 1015 ;
1016 [label="Item_Outlet_Sales <= 779.6519\nimpurity = 0.3984\nsamples = 16\nvalue = [1, 12, 3, 0]"] ;
1014 -> 1016 ;
1017 [label="Item_Outlet_Sales <= 778.6531\nimpurity = 0.3367\nsamples = 14\nvalue = [0, 11, 3, 0]"] ;
1016 -> 1017 ;
1018 [label="Item_Outlet_Sales <= 777.9873\nimpurity = 0.2778\nsamples = 6\nvalue = [0, 5, 1, 0]"] ;
1017 -> 1018 ;
1019 [label="impurity = 0.32\nsamples = 5\nvalue = [0, 4, 1, 0]"] ;
1018 -> 1019 ;
1020 [label="impurity = 0.0\nsamples = 1\nvalue = [0, 1, 0, 0]"] ;
1018 -> 1020 ;
1021 [label="impurity = 0.375\nsamples = 8\nvalue = [0, 6, 2, 0]"] ;
1017 -> 1021 ;
1022 [label="impurity = 0.5\nsamples = 2\nvalue = [1, 1, 0, 0]"] ;
1016 -> 1022 ;
1023 [label="Item_Outlet_Sales <= 782.6479\nimpurity = 0.2076\nsamples = 17\nvalue = [2, 15, 0, 0]"] ;
927 -> 1023 ;
1024 [label="impurity = 0.0\nsamples = 6\nvalue = [0, 6, 0, 0]"] ;
1023 -> 1024 ;
1025 [label="Item_Outlet_Sales <= 785.3111\nimpurity = 0.2975\nsamples = 11\nvalue = [2, 9, 0, 0]"] ;
1023 -> 1025 ;
1026 [label="Item_Outlet_Sales <= 784.6453\nimpurity = 0.375\nsamples = 8\nvalue = [2, 6, 0, 0]"] ;
1025 -> 1026 ;
1027 [label="Item_Outlet_Sales <= 783.6466\nimpurity = 0.2449\nsamples = 7\nvalue = [1, 6, 0, 0]"] ;
1026 -> 1027 ;
1028 [label="impurity = 0.32\nsamples = 5\nvalue = [1, 4, 0, 0]"] ;
1027 -> 1028 ;
1029 [label="impurity = 0.0\nsamples = 2\nvalue = [0, 2, 0, 0]"] ;
1027 -> 1029 ;
